1
40
6
0.13974197728142626
-1.0472819373836877
-0.018748087013809523
0.5804772950629614
0.06671125167845031
0.14913461747221796
0.01938572374309381
0.6173888087811827
-0.03369774696292553
-1.6008689325387497
-0.25157912428255824
-0.05674389321178673
-0.09075138680817704
0.6915096878061713
-0.032588107417271604
-0.010096515891151901
0.01856110867282651
0.00976429797115564
-0.5975531183428228
0.5459333544026285
0.6416922399210007
1.3680792818196867
0.043504018723232854
-0.051736789201200714
0.7538589350764963
0.21656361748002018
-0.007389175581217988
-0.4340517885748167
0.27971351767139374
-0.9487462581031545
-1.2761629637748277
-0.13032403997692793
-0.04118049875474019
0.4277901583158556
0.028290617272458365
-0.08758076962967766
0.3657764843399077
-0.05463017718106172
0.25984213967471936
-0.9533704056156896
-0.9668250133133598
0.07793439212675272
0.37392750479625525
-0.33983950088503867
-0.2124773911335933
0.1570139916727877
0.1651308521856562
-0.23283816024987747
-0.572787869287818
3.105188938208179
-0.08394662087318182
-0.2640641150435089
-0.918392744661525
0.31089279661500024
-1.997905604526104
-0.009200230007818222
-0.271634865165311
-0.10947819053830046
0.05831790737958034
0.22792340287292
0.1285896504474604
0.3820797011995956
-1.6875854661618257
-1.815915832429567
-0.3556884534108903
-0.7054199895236182
-0.669779126725397
0.26038357199361273
1.0825101464004514
-0.0399656033348714
0.21891433115735426
0.3473639755789409
-0.3071947917241386
0.15408780462610933
-0.19174037528425997
0.021960840200849395
-0.20902805617945303
0.4429316898101637
0.208810025982304
-0.296867761618186
0.0013394114354403788
-0.19312154048581742
-0.4524035389188678
0.2294863839246823
-0.09253501927907831
-0.3191161452853871
-0.06792111950988607
0.1791941779057462
0.12374845382003585
-0.11226693868361705
0.8957230797165816
2.159879328688369
1.5309170125249147
0.6071172862733456
-0.9924427171700386
-0.5001520719625279
-0.14848479838387857
-0.1667167561820936
0.17243358066468958
-0.11795525008617169
0.12098135355027669
-0.14526294061662237
-0.32109385005788993
0.2525720104327884
0.07585527410945207
-2.717658976753152
4.408336500517868
-1.1845479386005888
-0.2256240755025476
-0.38045520180727044
-2.4423959486377367
0.5054981476452991
-0.538181889159677
0.014295786923723174
-0.5985334415058303
0.34328668529365836
0.9478341597765529
0.46684948434019424
0.03188250002114334
-0.30434112362440835
-0.030555001447911054
0.08140199575242618
-0.13242450082666224
0.09982612357661316
-0.16601533814963362
-0.4899709351503441
0.12644202516647526
0.030755951500680768
-0.03374201783439292
-0.26727018036553174
0.26770155781913724
-0.42698594561152203
-1.017314011779297
1.698674627503575
1.1986463996516554
0.6994187292223089
-0.2978107256932657
0.3214775706873387
0.5207393118048707
0.11052870666598918
-0.3567598700582799
0.0025715319750989085
-0.03603820797342128
0.10940728531261518
0.1056345530329117
0.0765075659235508
-0.37119443202074404
-0.0637105376524453
0.12127754092321741
-0.3314775113639967
0.25551132195888643
0.2677012219028383
-0.03667820871888412
0.05998717903228711
0.1667330815837712
0.11836112468354384
-0.010975477769199412
-0.04278553760674679
-0.12613852610474152
0.0756168758206213
0.01922719456956165
-0.0471853725751405
0.14254302322676884
-0.016306687176902854
0.02984998292904652
-0.16583975970669812
-0.15905767984270572
1.7454272571987721
-0.6641471283942838
-0.43480095517396283
0.8324908359143491
0.824656313230529
0.08496096097454124
0.494571515983897
0.039077378718833544
2.2013607164677946
2.4491421468230716
-0.5185396324445156
2.2152280121188386
0.16159889033385358
1.127793385862399
1.639872278554846
-2.3116168194419826
-0.22008935846067987
-0.6878401695823217
-0.6181484326144527
0.15591297846071467
-0.09054434488966377
0.14894126565466173
-1.9750601924556979
4.366069832584275
-1.3523093810893727
-0.531058523030229
-0.2443486440550559
-1.6825629849967387
-0.12805053074191297
-0.17906992995923451
0.2655206374915297
-0.4761564431736509
0.2930533972133169
-0.18653673231075846
-0.16519575937758252
0.04190818198808691
0.24590552392715725
-0.27885457211625236
0.0867999981971869
-0.31150812337426464
-0.12529159960893177
-0.3561533790480237
0.3220022182955333
-2.9132027223649124
-0.14497323035293255
-0.1820230963693611
-0.259191697127517
-1.1001996574791295
-1.4602243783134556
0.3543206841314611
-0.3328439761457353
-0.1508046079300937
-0.4553347488068652
0.4539204407434881
-0.1673641167395328
0.3801003664914799
-0.05784552562214875
0.32696191215273257
-0.007139260560391285
0.25089739478462103
-0.19196770435025254
0.010020521663856318
0.0015653492065822263
-0.9869463927532616
-0.19751238571640023
-0.323031340832518
-0.31848194774076555
-0.13694413492924418
0.22086639112555775
-0.5549592143849486
-0.20865256378005778
0.5700279577485456
-0.4720336147280154
0.03143079678616078
0.6358409168238703
-0.12196529744834235
0.34406974338786805
0.4766089337176997
-0.8310534356182613
1.7613395457944754
-0.7442530574069107
0.1256481894432576
-0.03820005105270904
1.1311624931472968
-0.17806220807035403
-2.6268398211090793
0.6138005621835736
1.6686262941519947
1.969020134471782
-0.007616493482816741
2.4292192185584134
-0.2420572741556107
-0.3595204234647088
0.08947101694844596
0.25650736376124195
-0.12054478069608318
0.03290084626090362
0.38933544898363537
-0.06620002735305702
-0.1332111848729141
-0.021130635956523314
-0.08624081024939452
-0.11761257271759235
0.1494167736330213
-0.0012067488836263094
0.4582243276588953
0.6861499091732708
-0.14784573404931492
-0.5938355619938139
0.6248957116961518
-0.6921499336124314
-0.5557339739353853
-0.08714187659438088
0.33897012779033064
-0.16814948317553743
-0.058825206365799784
-0.1678034904021191
-0.06665383180900832
-0.49824091443908414
-0.00444997378563412
-0.2128591250448112
0.33104244090644497
0.08950251659118416
-0.21944076979642715
-0.06609921012466209
0.11146955103053797
0.5427511020816669
0.5869337016426805
0.1491414938362314
0.40979986021031345
0.0884095921904348
0.3189482439357682
0.6615223499668624
-0.0840660665638102
0.1453043873929015
-0.21104407003874082
0.3609335304212634
-0.20919249153521713
0.20297797436320875
0.05759378155836046
0.45653727248834325
0.450496732532611
-0.03023980780102159
-0.48441792321589405
0.02971744241419246
-0.2931310764917601
-0.6296894696831248
0.23138117506970282
1.1882355326750096
0.14357428291968394
-0.5382104699235105
-0.5852738254658104
-1.2404120430960666
0.9123280116767984
