1
40
6
0.03138505561560667
0.15726029548848988
-0.4595497488928139
0.012883505377868677
-0.07149308466071501
-0.40599246020141155
1.821366476268342E-4
0.9155384057366962
0.16474324030544352
0.18801787000259065
-0.864369129093082
-0.4067087253048426
0.39102771144833237
-0.2738224657694498
0.021979709282461485
-0.2783743693676917
0.5844094537995654
-0.3094334625840054
1.009422123445797
0.06860714934192563
-0.9004291809518337
0.15655054363391813
0.12455769333646796
-0.0064353259561319275
-0.060086762914891415
-0.3415719654638464
0.14608594989802842
-0.011054538384605014
-0.7927817966392604
-0.16999439848867492
0.8520025535967688
0.7992867268518772
1.3506860382857084
-1.0762063006558074
-0.45551379204262343
0.05628982484761847
-0.4773948472954635
-0.24423340354567877
0.048886013953764386
-0.03486276388666407
-0.5337492982385929
0.21396456300932287
0.2152341617738541
-0.11320773994205946
0.10518867998638051
-0.03937244712175335
-0.006244180510656096
0.32292087909597217
-0.34612669617382685
0.4211320515889487
0.19646966751062608
-0.0650189730734261
-0.10236451468032433
-0.2464855299985885
-0.17899957108862832
-0.985917006824182
0.137606636013555
-0.19886573633377636
0.6450052119867778
-0.35686286146370794
-0.22401249221759237
-0.0433036859387017
-0.2944290137466367
0.11367441150417136
0.2548911930839813
-0.10927815864975568
0.23657578981515023
-0.1664616448015548
0.04782626749687244
-0.30013939813772367
0.12754056051632554
0.001821093816999266
0.21502175954370567
-0.24877739170230556
0.04329526489573881
0.22633710192754833
-0.8606453544229234
-0.3814142053485034
-0.2936545825810879
0.5403692027761365
-0.0936413920133995
0.48110342797595407
0.5805454556668168
0.41898678057931404
-0.19086286966284804
-0.07194152537919768
0.3711510316060967
-0.03253918103503658
0.3539153473971863
0.4631348874424582
-0.21429206143925722
-1.4079143442575714
-2.0687844588868773
1.0559008633790723
0.5022812720016752
0.13510260723433773
1.8330704083548577
-0.13242509762808782
0.3963981607246572
-0.03265955293726317
0.14762568981112165
0.2963878691905866
-0.3060100274810679
0.3740429476987067
-0.03698088027523531
-0.7252496050325011
-0.2066109839238406
-0.1962210712472534
0.1417402915459833
-0.4524586055163564
0.09750636962819977
-0.1352405590616632
-1.0220587796049945
-1.8313852754915794
-0.5947434631296056
-0.6115861331554587
-0.2709477333387436
-0.04592895627252886
0.5639244619587229
-0.1735815482464331
0.992417290555651
0.5515256932742197
-0.9423955108060527
0.33212465428056565
1.241237965126941
0.13718790413635845
0.8008744482563557
0.25109293390362136
0.28853075381966486
-0.2937158304218354
-0.5684735117309552
-0.24668518387730018
0.5718887337441947
-0.4727221384120974
-0.21008465228696208
0.4490722107724328
-0.31663653626306265
0.002585220781616501
-0.15637533606702486
-0.32344608667934444
0.449307702594714
-0.10670253955483613
0.19813809944360153
0.09530938724929432
0.224912800562464
0.4887152989901271
0.1675133741361842
-0.718212496849022
-0.340828003414758
0.08443514822393124
-0.06493806608638121
0.17664860562693818
-0.33498006189762813
-0.17178702097025217
0.9448133872468507
0.20405895099596627
-0.18679948012222758
-0.3654907307314753
-0.7921701723161796
-0.6854404719737686
0.13047504884987182
-0.5068068493078617
0.17462563770011147
-0.4138620512853414
-0.46240448929889283
0.2719249292894173
-0.26188317727817717
-0.26076281107795984
0.8389249703237392
-1.0832095438576486
0.7832700815013313
0.25451291771948154
-0.10590266115729044
-1.498790011435835
-0.5444889978705487
-0.47928309519914397
0.12223655876096842
-0.3094305755595462
-0.30812061649039885
0.3038395796969156
0.09387627861123725
-0.21333663460850075
2.2156662154188074
-0.9276526406292305
-0.7805411348790755
-0.4088528205877055
-0.039792757290302294
-0.3413661468733628
0.21953241846499488
0.15076067156083672
0.17067120764582985
0.3534237981492861
0.3526497170449515
0.0751228304243356
0.5744797454885165
0.14222329035837686
0.15754716939052063
-0.14902247596644036
0.028190417419105242
-0.3354247287067013
-0.3756920566337269
-0.5807725846823907
-0.20333153046326044
0.4103768764143561
-0.28739231414971766
-0.023023864438304932
-0.32613834642190576
0.027352235989856942
-0.46066767836146394
-0.3166111155458191
-0.3103509622820981
-0.14537268270201534
0.29954497987512
-0.2080361844908423
0.32907390708304285
0.1658834827690384
-0.27143537616144253
-0.6910142708716089
-0.10550812036715479
0.26136817724258776
0.3862134847759612
0.39155660302394196
0.6719866542453496
0.469511170749458
0.195644433388318
0.5005455978858655
-0.20488491224417757
-0.42196176241141786
0.30724943018716583
-0.16140452901630592
0.017267140876137232
0.13249447497143424
0.1854923722154873
-0.3076549046525769
-0.012684431301693772
0.062202143829779524
-0.27159382885699385
-0.2303407986742736
-1.5896826794089578
-1.0627360839025097
-0.22162364312237343
0.9887121500359747
-0.19418364851406128
-1.6244318146490466
0.5168203611446043
-0.23118840511144972
-0.33351531690732267
0.2758898808330227
-0.10607819437456475
0.03384495704933661
0.15705944035236802
0.08736550670117875
-1.3412766985223123
-0.06978176457257149
0.8140477518659808
0.9452338709135875
1.410469712989061
-0.47208882488384557
0.3774947375949121
-2.131106793167633
0.17694141637292968
-1.4192050614872913
-0.8159913457161805
0.6310727860832617
1.101552594546709
0.09081586371575914
2.3562372748230644
0.27952779822769414
-1.5238680611121698
-1.7702839093672706
-0.06888266716864393
-2.209791558679227
0.026174495570246013
1.5606362473522803
2.5120818299207515
0.19871117946074723
0.1724786213127368
0.056060473838120434
0.9659751955254852
0.7016982466581818
0.45739070092703377
-0.16810556002430851
0.6318764152300224
0.9354200210129114
0.7281259210231268
0.29226681920016484
-0.13235216184490411
0.5851213831494259
0.17814516499268618
0.367331662561702
-0.30767178611300605
-0.006986433046772826
0.4425854532688613
0.6204303624497247
-0.800562653235379
-0.7212747454897094
0.4078409991712264
-0.006636026007012936
0.03524077629617626
-0.29823920358523714
0.2690109857172905
-0.5795636678636461
-0.38420426837363136
0.001952614773244797
-0.06840370313682871
0.3131320617028241
-0.21722816548690468
0.2690602109627196
0.28015676096447295
-0.2886661856707901
0.1393480601585325
0.25743950815124783
0.08457601268995125
0.3680860958718912
0.06552227648800914
-0.37370919595667307
0.21053530944747045
-0.07121167427433717
0.09295854810249084
-0.11351425715849588
0.08654554971679165
