1
40
6
0.08464660244102717
-0.4492457304190595
-0.05915040637923877
-0.7334400330995917
0.025266570589347895
0.04828659527088005
0.08642854709205944
0.4741202163760398
-0.17561886988410982
0.0038510472449873445
-0.738590099192764
0.008351769826664161
0.5746204168944457
0.6709336878038162
1.119712303495155
0.37502708875358276
-0.031246107554420335
0.7344172426545331
-0.5779138546767272
-0.016231911501210675
0.02240609564482552
-1.1272939044438872
-0.0233997188546827
-0.040665108292827316
-0.6959825424230867
0.4898092000937877
-1.0385145104779612
0.06254648799664926
0.11474861916719
-0.019941044023919264
-0.21104066625703444
0.042658628019201
0.6191608964147237
0.4178372256956942
-0.06516794515072023
-0.009891593133152509
0.688316407775919
0.020660555743701726
0.11590931407474014
0.9413440330617254
-0.7738095761950474
0.059946776311789435
0.19508190111001864
-0.3364555453974462
-0.4033239449811873
-0.039577068681914566
-0.02554312451477924
-0.27693966477565723
-0.4237963375704708
-1.388505283802021
-1.2229748628294306
-0.9689816508123693
0.7335354061401181
-0.31426521698788984
-0.2135388175891059
0.2947883323441403
0.05813953405849271
-0.9613533651824729
0.27678702416022094
-0.6444191762309194
-0.23541933363131373
-0.16964829083777352
-0.2056381149756544
2.728565529632807
-0.30868268230432294
0.07567958136171013
0.4271731640815878
0.5819679851521025
0.3419459455033902
0.1686192255235271
0.12527641455107616
-0.15135411073655422
0.06213746977492432
-0.10948361508714237
-0.0501425736251084
0.031214655021842307
0.05429030753480121
0.3047312776350487
-0.10177512694415844
-0.26106721202900024
0.0973784555271719
0.13196573443205678
-0.10870587915478146
-0.26576616731753844
-0.47570586945082555
-0.13193150288718436
0.21858044727722364
0.48984725337939256
-0.0747392899766971
0.7351558788973744
1.6244731294544397
0.3506035062871467
-1.5914340280339996
0.1939302067578165
0.1297200649843928
-0.6672995815157587
1.1794223036196099
-0.23200284427085777
-0.28076331152273437
-0.295672486879734
0.5229075402800989
-0.25389703336514513
0.37094604916220975
0.4334566050090019
0.08959614604831813
0.6026153251736331
0.2927832359193566
-0.250526831957397
-0.3216223677516292
0.026382232650987034
-0.6072908133101812
-0.24695657364329665
-2.9222988744968603
-1.4348210810745892
1.3204505785526865
0.4465658988563787
-0.34948206904779033
1.64075160856959
0.10653858802043514
0.1188497915187118
0.035427979739219385
-0.09752563600094227
0.2365451965511285
0.041271488294408805
0.11789981582930363
1.975562408968139
3.0569775438566396
-0.6861693716943582
-0.07101456804921703
-1.045404525978429
-0.6422520479387013
-2.2837037207168693
-0.027402300334304935
3.4278318334352615
0.12560539715951147
-2.397007893671885
1.131093668309456
-0.737320674772744
-0.10634282004152842
-0.12166473762674797
-3.8379776479465977
0.2765725813698744
0.3774217947454353
0.17057714476270147
0.26838859060239817
2.133055712914907
-0.07432019138537609
-0.7903077862398387
1.062229373895242
0.07842104470318219
0.5764742678243101
0.38522097061425237
0.38677407877321734
-0.33283350809147283
0.09283726668599394
0.2259724903067748
0.1974164312033117
-0.14182630450007802
-0.45649657282943856
-0.06543269421686963
-0.2676599151332748
-2.2211676977572585
-0.13100572364028124
1.5764552184176
0.28628436476547237
1.2085733332556108
-0.687719032406806
0.9576955984414591
-1.9730850649288783
-0.13298093732882035
0.4117986383189066
1.399464762652354
1.2238913993949643
1.493980389014016
-0.2520326035129201
-0.12853946467525115
-0.01213242948281278
0.36981142734075345
0.0983562825862183
-0.25971027002630753
0.4152701129119597
0.07354912444989903
-0.1633738596386277
-0.03237157088571637
-0.12848080910030335
0.06191353346108712
0.04227380323477376
-0.05982634732905256
-0.018102823516985948
2.1866976947863197
-3.6508845558074214
-0.31666720088958605
0.5409913649109405
0.06816706330797782
-0.7736327688621992
-0.043942145140332026
0.2732490639192694
0.04293353590757445
-0.2615720921055376
0.4300803283666487
0.13027418090250475
0.12343589371763147
0.26199727120171873
-0.3338396895433042
0.2674484997272402
0.006470972078889393
-0.037734768028259064
0.06654672587773483
-0.1177822657302316
-0.32702700867048384
-3.4141468432857733
2.2629364315195093
2.494382093018742
0.9723080160775102
-0.028105336145328997
3.2342088358616308
-0.7810587886829425
-0.627369706804887
-0.35382609658904146
0.49798946172502456
-0.09827146312540114
-0.9105208129816053
0.5523973443304749
0.2833344694563636
-1.8744484124611227
0.4299637331932603
-0.9246428621887978
-0.6929950451464162
-0.3396360511148932
1.012434539025978
-0.23586698865775504
-0.03454016620783748
-0.15627537463095856
-0.307445217376593
0.17079745490241655
-0.034685357049075015
-0.054771125299687445
-0.2613635588345611
-0.3495355579061058
-0.5946625660261444
-0.03127922878444124
-0.2579456733793758
-0.16174033327065038
0.22753955833454054
-0.18807544896440104
-0.18472109823360522
0.06953058650092925
0.18170035654971844
-0.28086524658051515
-0.09666706597104734
-0.10960537965433038
-0.265600571149708
-0.04223467442314692
0.4520337196148847
-0.3574244544439319
-0.456834639042873
-0.6341348149783211
-0.0873287445670482
-0.1268915222047259
0.01768571061020132
-0.2726173442050746
-0.023415575338235656
0.07995671919723704
-0.03155086655625276
0.17242690262080188
7.870874316804221E-4
-0.14232453340978818
1.849062393556464
-1.045647100137612
-0.21867776045030024
0.6035188568515143
-1.645921720437057
-0.6981636170098877
-0.13969268540263727
-0.7486780761238785
-0.3844452480542126
0.49336024216077345
0.07101984542500774
0.5624685575572363
0.163281803333545
0.2709900286427907
-0.009909431326164075
0.33225090213559544
0.30766175532782686
-0.29512589848461035
0.5448968418798706
-0.1049195218759663
-0.051173737057509536
-0.16327670598959806
0.11163566778936759
0.1916347657203531
0.0852375726131144
0.31281577088387635
-0.24875875749621817
-1.483606972895476
-1.3162330847366979
0.701436616325168
-0.680414226590449
-0.29683724911085757
1.9297595303844706
-0.24116956040529425
-0.07120320461897264
-0.20148336830010666
0.11121860989982091
0.1083173196662469
-0.09846756935013888
0.24418022649724397
-0.3271009018973542
0.17771888196947122
-0.4609268693950689
-0.15185528582559787
0.17979398918895662
0.10270331503651164
0.11569789129976638
-0.05993281354755154
2.9600269492868976
-4.183402942421537
-0.8788076952407607
0.10425388833195048
0.06392098959512492
0.03184111073985459
