1
50
6
0.07654927445907435
0.06948199583544579
-0.2660252201938143
0.3114826762722702
0.016341015623532698
-0.22110517150495482
0.19440282488476432
0.048927728259064794
0.05880445902230346
0.5405586505106037
0.057852326861872756
0.03742218542050859
0.11102882882737292
-0.10586275372835346
-0.047954673041420585
0.2337943491856724
-0.30354504584049885
0.032696312563708745
-0.03574763876418574
0.2379951785726523
-0.9690213955896485
0.17181290120224457
0.16324925220957817
-0.3839053100290285
-0.2539410475940927
-0.17481354385330122
-0.9450963665820618
-0.06047525157648441
0.22793442482847712
-0.1609665212437147
-0.09853359655785081
-0.16448380366141985
-0.2725253267674261
-0.17132533658993668
0.029033785947526987
0.2460988979498475
0.022657352436779653
0.2906401645407481
0.29482049353372075
0.18664981079834658
-0.14598086234169041
0.19340746591532737
-0.40293637356930606
0.09138137336952216
-0.22197854150163068
0.20444354741949539
0.11041411938794084
-0.07797612085982031
0.25541257798503997
-0.35247264958920804
0.29699953956974584
-0.11004051062176184
0.3936981133303004
-0.3094053646202697
0.22401293022384763
-0.13206001530882808
0.09895643761062568
0.34041342334445335
0.41956457837411737
-0.06423926824902029
0.32655229905316263
-0.09326488160855892
-0.40455635303187987
-0.0481789045643863
0.39733170416184155
0.3501787759624967
-0.32294238103934486
0.07317222745528044
-0.28366743946936357
0.0426554983091481
0.005613296768434059
-0.39999557138330666
0.4464820681531403
0.12469020104227233
0.22437152867464805
-0.4034266383744011
-0.3260205167710083
0.2360798675880507
0.25743183444970963
0.41095878382905504
0.4459739119120176
0.1160382786598009
0.25371312190310474
-0.30814769745661996
-0.05659084686119079
-0.463594901073324
0.10364512756409974
-0.4059234637638973
-0.37813305049114615
-0.4069951438221128
0.3843860861984419
0.22488048440040673
-0.3016743419834622
0.3924156310848621
-0.09135821041772176
-0.04541070268375915
-0.03464695844168711
-0.2321086644998503
-0.4235402181855008
-0.18108507096923815
0.07695729907284928
0.44405075263102567
-0.21830437952011256
-0.3809597805915782
0.4504875322039622
-0.17137621072132356
0.3833532025748085
0.5107928948254961
-0.3466627854534487
-0.0580794996869546
-0.2257932902221606
-0.16477134903899313
-0.16286284460213107
-0.4037647652878542
0.35681743223743934
0.419905521671114
0.20620510251587773
-0.5001881122990877
-0.5095320163105128
0.20381792092710269
-0.5538725354705106
-0.4273892786090358
0.08553399920476575
-0.32663994787721334
-0.22239432370458326
0.015957720973421533
0.34032251409538977
-0.33265391430370567
-0.42532748700664563
0.29496553819977417
-0.45658108435687444
0.10947100563897233
0.029331492222453716
0.017469613572158094
0.04657025670712091
0.006963742127328739
0.17927555619275765
-0.30279491040076856
0.052324830035768655
0.23063378142003446
0.17018599781087487
-0.22922142947157909
0.16771836283838318
0.210568980533802
0.4844655683611392
0.08342168394065075
-0.16241587567249494
-0.2975120712525328
0.004262801826659977
-0.05080197225781478
-0.2852482575596825
-0.23459868151903762
0.06148010059012804
-0.43084353996612806
0.4312310773362305
0.35731907974408494
-0.24607287990584045
0.33490149086294035
0.09136715124498349
-0.06466919123241442
-0.28818210444708187
0.3674164985492896
0.08679588922759701
-0.4352219190694644
-0.4708255543478743
-0.4784843727938692
-0.00864857358385689
0.05526110862689093
0.2663817723719095
0.10826060992682358
-0.46356917246711477
0.022833804371466187
-0.444458885170715
0.24574676256419126
0.33010749037851084
0.2975480659941902
0.1408662138175361
-0.32218492285249767
-0.39008918891528976
-0.13316103933671827
-0.15604573430433333
-0.2684900728011282
-0.32564560950425425
0.02020210608937382
0.017228404064431563
0.34121134874567816
-0.2694187573839374
0.04605583543080632
0.3602799158584008
0.09953676297943596
0.19958241443938704
-0.5473978984374513
-0.6696446830866216
-0.19043381417390468
0.9151381634658275
0.8641397943071178
0.4018445745114334
0.9341010466635026
-0.017784817704565446
0.24430013592757938
0.40956239434265107
-0.4240225295530426
0.16349486877397276
0.004645698506320138
-0.11267640836127123
0.15859841751530007
-0.3262878307325073
-0.38533606267886306
0.2703977215386872
0.19714265508952758
0.035314202053033386
-0.2613141628622951
0.3238667763274068
-0.25879453268194486
-0.16755234993469564
-0.5072151901226081
0.25175846728245443
0.20287004338322154
-0.1304061074403684
-0.05307045580142389
-0.3127292761628365
-0.186090721270821
-0.3463983051916964
-0.020693571306925923
0.024426676603810465
-0.4592292101327626
0.4781018759931196
-0.2027221361338098
0.21562278726948012
-0.1502132734435986
0.41090239368986825
0.07781581089329434
-0.13290373645381698
-0.7325139973759127
-0.8752259654072188
-0.039006359667549804
0.8715333693449575
0.7554755568723038
0.2950503695689447
0.45501220806815584
-0.1196350704841149
0.3789255427937352
-0.2520359183015604
-0.3505257851456279
-0.28587377645265033
0.4413851326969705
0.4430064505003976
0.043590733327197075
0.05538301896613414
-0.08326364880303078
0.4395534370119492
-0.06637043573844917
-0.25121205652097955
-0.04113813598134373
0.2548954016082569
-0.27963446114972784
-0.35033976610333845
-0.13001405184237752
0.25837829776321225
-0.33085649087346547
0.4965988071361576
-0.006859318859467588
-0.20966980946844965
0.04309304102592835
0.035445242028559386
0.098542341304676
-0.44572224817985445
-0.04937248642521757
0.2114171075103766
-0.3874465863553043
0.4192783913595008
0.3117811340906768
-0.30138029401162647
0.010216688452462314
-0.24371280986438906
-0.34969684900481596
-0.05125215466139891
0.23802114463563345
-0.1291252618830594
-0.19357773233826842
-0.11964895303101607
0.437087288056998
0.14509530476808236
-0.30066597155925384
0.1615117046162452
0.3483662150157828
-0.4508736676927821
0.47969398719421513
0.1168110846741334
-0.2902648832707741
-0.12333607415392278
0.025372590940166532
-0.3433685668925309
0.34425604248501246
-0.07761471090700307
0.30294406073186003
-0.16998729600619492
0.16514515324922113
-0.24796570902516643
0.346503905933067
0.39446660257613
0.20967864806967426
0.15703979570584722
0.24300220706669026
-0.3264090017824118
-0.4741209910960765
0.3734516468575433
-0.017363219586406096
0.2934218756982191
-0.08541984632988504
0.3794571354025873
-0.13771870857169466
0.425563220094633
-0.3477233308122377
-0.3259185794209577
0.15766973096376494
-0.5556452202245299
-0.38439097534562
0.3870674510378564
0.11680318679581157
0.13516011841834227
-0.19518716055298282
0.10670744128510926
0.2317659324032301
-0.1562053084223378
0.45461721324262716
0.05146401595885708
0.3857534551639593
0.1205288559837006
0.1589654328399977
0.30026420638349227
0.06289803022267197
0.3029492065784588
0.42466742795038137
0.4251223320829184
0.3922167946308252
-0.00627356780604833
0.3247448787549856
0.047232739289822266
0.15544713967420337
-0.33725246470698533
-0.09132791496206295
0.3012755464287379
0.35362439297232046
-0.30778686792599186
0.383391240664536
-0.2577913582579511
-0.11003367413937841
0.48918361548912004
-0.41994378173278396
0.40213252465394345
-0.2735071282812612
-0.09258358307813701
-0.4699080985519671
-0.06863034835078934
0.4120832574898699
-0.2649468951630393
0.004989728591882553
0.3841803344980666
0.4804530494270163
-0.402777587939737
0.3603533033560776
-0.4543139296220488
0.27599203627722124
-0.20333586230205702
-0.141444704046188
0.4810653485343232
0.024566818624958096
-0.02852534337074523
0.04955101363764697
0.3868701860855162
0.27995041152392103
-0.39239788191754815
0.23287498560021666
-0.19306947509643874
0.16065921530977928
-0.2678909365471006
0.37156869937635445
-0.3707235181733203
-0.1388393968939742
0.37011837913831536
-0.15515761368768466
0.34269066495732037
0.07950443404546127
-0.35871918259314023
0.29989336923080345
0.09132389651088162
-0.20302372859111215
0.21689371065147403
0.20038302192439644
0.24266997230963142
0.5275093960705943
0.4116780473018752
-0.3039164271269432
0.4644886236040627
0.26927928170175774
0.18716524132242712
0.308759987876734
-0.4754530660265939
0.0977283892789759
-0.32770608365814774
