1
40
6
-0.5677283591780193
1.099363111759003
-0.5717911195808977
-0.01961259500899307
-0.782735947299087
0.05117787943867774
-0.017154790881738716
-0.014843072119203706
-0.06220744357083131
0.032837292602113606
0.9614860710638631
-0.012782802626561679
-1.081806944009658
-0.16562411756991643
0.028071279316186748
-0.4442699342421208
-0.04286562879552362
0.034579594355459445
-0.00854570704737297
-0.044799907998742915
0.001416310854853833
-0.014866349244522799
-0.07291864024069201
-0.030624328891101938
-0.2859549490534001
-0.7126317182825127
-0.27119935028113484
0.03199481617615125
0.06460342677887954
-0.022071252966035543
-1.6886489007624772
-0.41367885446535846
0.17992294751769886
0.0293852357960315
0.011776248970908204
0.5722215290119957
0.24158460996532144
-0.9383780594122935
0.0308808980633066
-0.700816802334058
-2.0461498587546028
0.9339180521923618
-0.7168089514674724
-0.3470214776130394
1.0385013743419143
0.5613177541678535
0.3858125574502431
0.8767857265854259
-1.2704507746874905
-2.312961205739866
0.9549749333822979
0.25644557205430635
-0.7927612813855098
-0.18442291984000383
0.8358972028003966
0.1271957255301426
-4.802103776720511
-0.6594448444043998
1.623803988652349
2.687345844838668
-0.7888942617104868
-0.3732587977445676
0.0875416121109409
0.1271058081163921
-0.06164195933992066
0.09768846278510813
0.08733023798803599
0.1225832373410711
0.19695318705781273
-3.3555232182371486
-2.8878890213192605
1.3702159933151292
0.7374342422485751
-0.3340775330113306
0.05157985759955668
0.3823461977694534
0.4030830770774878
0.14400210322382456
0.1599086670643459
-0.008290233613157862
-0.18190210127585596
0.23708071408690004
-0.06482765588292788
-0.22502076493678022
0.03753282969450595
-0.015236410736930649
0.018064320467005346
0.16784121199127153
0.06361634964243776
0.17748758229631756
-0.08690183441508162
0.20435178138368937
-0.015536827760196267
-8.636812084247293E-4
0.21093986306110307
-0.09992709879974433
0.06915916173814612
0.06621576067061916
0.3460742802866323
-0.16528792219594504
-0.09211704247522254
0.06498187027999008
-0.23743807373981551
0.011251619957707444
0.0912272554903407
-0.4292878412654583
-0.07653529244193889
-0.20235368358938552
-0.08147405923705017
-0.43934331758269124
-0.010380068616681878
0.37507660663792386
1.0599074914609705
-0.3403222821031894
-0.6530554768329138
2.3922847300163563
0.3923822455348534
1.140806103991389
-0.19216304432674472
-0.44960971048374154
-0.1825541145383933
0.13888181313233133
0.14020503345034666
-0.18230492402528423
0.3472890181419109
0.2167638718209825
-2.8227693426165277
-0.3544681527855284
0.697930559574955
2.678981283653994
0.17260789806934773
2.3255951231255385
-0.16086322398001507
0.2809082987601862
-0.14436817191801793
0.09786431061996216
0.3926226480845023
-0.6183690356432959
0.3538004510446347
-0.011498305085527365
0.3734933894403529
0.10033292813026871
-0.07073520530763533
-0.19636177216512385
0.04849119596852833
-0.2769908270089157
1.8268092234550535
0.7999842918970095
0.8522133806520807
0.8290650233620083
-0.7775994578731091
-0.10669088994766474
-0.8085593821510155
-0.25127634735634047
-0.3905847242589118
-0.13440770566908888
-0.0913600228035526
0.08643440088770803
0.06941487581364203
0.12714292631010532
0.1368917781005664
0.21121756308962208
0.13806925533638176
-0.08618755482165102
-0.29166573943431484
-0.25704175133459883
-0.4197607940383555
-0.013152631056476531
0.02681296916437416
-0.041851249069803156
-0.06886964264445768
-0.17311086999986855
-0.04066567947809245
-0.08430088498021557
-0.07173010530504936
0.4747577541396191
0.13339844246831672
0.14533936881573611
0.07472783360031446
0.6236699803443583
-0.040975292485364107
-0.05129541383895556
-0.46354000650823707
-0.02910750202167925
-0.035242782038014994
0.07660933916740474
0.016574999540409825
0.10287155660363442
-0.17561539328636078
0.5696603647445735
0.0348140056362902
-0.005433441356943858
-0.006553932841061799
0.1784426826949078
-0.10872237969293432
-0.08026364869385648
0.09628135335772857
-0.09631632903857998
0.39127921684865413
0.04849376942813443
0.17847117115519837
0.41054979699865407
-0.20755835221116797
-0.1729175586349328
-0.041966416867585926
0.11016494845344674
-0.11388975308988222
-0.22042091048836904
-0.055805609609273214
0.36263386804644593
0.8303364757927759
-0.15237994420997383
-0.4813315279809031
-0.36131003992226957
-0.08305435249436623
0.3961234425622791
0.297039966205405
0.7152174382856405
-0.5382541097459702
-1.0656943212035006
-0.897927089867944
-0.03334796968153304
0.4943097723600167
1.0908070127678107
0.4447831875439623
0.6917546358826129
0.07735293247056436
-0.21791448272933964
0.8854219750004132
-0.39432358260938627
0.044974373368313836
0.32068363726847676
0.1096889295566988
0.08327160621765635
-0.44162280051324204
0.2795512161757721
-0.16992201638647242
0.2982709637662006
-0.37551797980200013
-0.016289210135548373
-0.25549251800789574
-0.11728496865735977
-0.11800679227369398
-0.04701872590262534
-0.01283434112615208
-0.3690129595010081
-0.10972336827638132
-0.007348025454957339
0.2487357096930565
-0.15524004966369176
0.1613213954938876
-0.07829830710966296
-4.0248327977179335
-0.0732336097799965
-0.5942527292306974
1.617832787456157
-0.2065000546050399
-2.548597172041481
0.004867748932167152
0.4973714327261245
-1.1564538102672752
-0.22297475193170713
-0.13022056787357322
-0.34353764645543783
0.32560287049764314
-0.13748230588110483
-0.23708590984661676
0.3641548586926243
-0.1568317020291462
-0.117986004972872
0.4959041419488855
-0.17675350070990994
-0.03175709868662964
-0.09745177076976297
0.05773049297646126
0.06732310656088421
0.13113072586085964
0.2208453502272717
0.06852102519149397
0.05285391371318826
0.25056808110346773
-0.024610448686633868
-0.16282361815527552
0.1454562305534996
-0.07555095709379187
-0.10120316608363425
0.3682449690128968
-1.239419634377597
-1.7791035922066385
0.27819028439235505
0.5997068596205045
-0.13379944660487553
-0.29205349276879117
0.13258143868139888
-0.8864501945899257
0.2033875719803219
-0.09001953727388516
-0.14075561246205717
-0.37169034030662557
0.4105978097735078
-0.08071740083094708
4.3475873831570775
-0.17179175353685577
1.7653930104595854
-0.09375921185390267
0.22877780690138058
0.6005906207865866
0.15848173329410076
-0.21695543841206408
-0.01597615550011961
-0.26112819284455524
-0.17218960754347512
-0.0356517328336959
-0.19142925796368992
-1.7899268747776707
1.4873424797852175
0.7167762884297099
-0.3336477961176325
-0.44083432076143064
0.28881012948487067
-1.471244801723367
