1
40
6
-0.23240568349316054
-0.11472631993304251
-0.46998195879248206
0.11877647130439435
-0.9994232880854804
0.015465161025378558
0.06302895400814094
0.03769809718507318
-0.1745744071018787
0.07245439086705098
0.4491964816383825
0.07128494122331769
-0.06527913485459719
-0.5223294493780269
0.16473955536046633
-0.48545455072519916
-0.25467347130977175
0.025376596200948977
-0.15862684462134172
-0.09378558314836964
0.033528475141600504
-0.11825510110986043
-0.32593683944970253
0.0316914106270789
0.6064546472369785
-0.18190189457089287
0.3421720648253982
0.12028277359078236
0.22502584374321222
0.01701755089698793
-0.4756612702520267
0.6258329301557871
0.916954941880595
0.1845745111718085
0.2072494477205099
0.12127268097047005
-0.10591608787888702
-0.10284613375154962
-0.3128295182862296
0.2121441395775661
-0.6028405195980738
-0.07498542652937877
-0.3807451054818079
0.18093353038054974
0.4821987248368118
0.44594962288833623
-0.28927219867685044
0.4824557189875416
0.4100552116693867
-0.1785575449535103
-0.438716248004097
-0.16684334591943004
0.2977081234266454
-0.10986109843686197
0.004521184884395061
-0.03137135038657881
-1.0642507340504814
0.23960907338557075
0.8815238863200239
-0.887540868040408
0.28409291788431545
-0.83429040187304
0.1843318906755355
-0.4308592091391027
0.36010068371730314
0.05354888739979474
-0.2702533689760804
0.30956826073692895
-0.25469638955517326
0.11157405266200159
0.6611194938015769
0.41833539355053473
-0.9694842892550839
-0.7131940862012422
-0.35562207696600723
0.5660687359881142
-0.20146921264770232
0.38250072824526676
-0.05081546876243999
-0.1854539332230148
-0.012633545346993886
0.18916898703171833
0.15737537213145927
0.22363591681750125
-0.3296403305160863
-0.16517291906150233
-0.04821611891015127
0.005156300507939647
-0.12739056817289618
-0.27719743417445153
-0.06273795194082776
-0.20611274568205315
0.08623920396818308
0.3050938250426218
0.02586285568610519
-0.20322221592215664
0.1031335334551047
-0.47419715171937393
-0.36733414755495875
0.0367042524587974
0.3270294898707846
0.2694949012611031
0.14819175047924013
0.5721676129092161
0.27938565174851093
0.3280429825912601
0.27593994385332243
-0.29754904910986474
0.1042467097040103
-0.2444271396187491
-0.1379666579892959
0.3503986771071211
0.6243442500674949
0.5284340311794682
0.25925778082847634
-0.848518577885858
-0.5183015287833102
-0.49961596482422616
0.4307203587829409
0.19512429401213366
-0.32773679111836734
-0.4520326013745957
0.0821548571360277
0.12642503994419457
-0.08068873513124572
0.16898393795867928
0.022173188162472917
0.1752079063399165
-0.05043578374020935
-0.005151522166251453
-0.09671251296650533
0.273597652261832
0.4271635014269037
-0.3102777598518918
-0.28769221885426516
0.8720416650162806
0.8313935789072844
0.351048081023118
1.2235634122002401
0.08213816212127266
0.23605083885849734
0.13937446434594156
0.5152479708606224
-0.44641809599599236
-0.14729238397848568
0.019740939499696235
-0.5366194508606239
-0.4882667340803638
-0.25810493357094977
-0.9084362518981014
0.7469819056071085
0.2617364931203451
-0.293045325141905
0.016358271670701006
0.062020561926954786
0.04571900984142246
-0.2919780565435904
-0.22500888055150728
-0.4702879192500052
0.1849010057125331
-0.2983800548667872
0.17093502606295943
-0.14684063307171194
-0.3554126266100834
0.18183531543778803
0.334141940520363
0.10376561395774862
0.26652118402893005
0.15778517448222731
0.19469436034270152
-0.11012388588716972
0.1321011516874651
0.24497698691097367
0.05773730821223712
-0.24532048937052742
0.38861171022671354
-0.1422416248495449
-0.2807432380145709
-0.04761564261048218
-0.20181668639541558
-0.12834555991119076
0.34579933120771206
-0.19266104871619535
0.3575913067218588
0.17875667100260992
-0.27902354807727076
0.3006117534419733
-0.23295598190505595
0.034854594469862804
0.5131009610788836
-0.14449308188884297
-0.1794354593947128
0.1524283480341398
-0.0132862051660291
-0.19941059197993133
-0.34536021295637553
0.6924394404212698
-0.08557867359936219
0.5150842456420416
-0.4237757047080148
0.4978581406439061
-0.41562795896731636
-0.05990455794310495
0.185071393395559
0.4460688394162901
-0.06693100291435795
0.12500255304351213
-0.3414626306796817
-0.016855980657553848
-0.17847291583502348
-0.38136530968002985
-0.21215408498560973
0.5856067948475716
0.540196939002214
0.46523026394612527
-0.4144317757106767
-0.2833037017681389
0.46309087576504937
-0.4115332303811294
0.22478276637255937
0.3460729588370447
-0.31411697420044143
0.37587267869742375
-0.12012656634648046
-0.12997481846633618
-0.4174996933963885
0.18459887507960776
0.14090197222684805
-0.31153742870676254
-0.48836937624874055
0.011837333592327068
-0.11534498696124007
-0.02574090626951041
-0.19991233610755166
-0.23075161056003507
0.36055450577898357
0.07693877534852447
-0.010428095633304614
-0.1540623359093913
-0.17306985430125282
-0.03324039346245734
-0.49010336050466236
0.39187665346483264
0.20177248450435378
0.2367401702979307
-0.354484813072599
-0.43350670976102046
-0.042317329557886384
0.05968172558371956
0.2537821050659178
-0.21294303558390806
0.5706347515405237
0.3653016952697762
-0.85030582007691
0.4318345886610095
0.5209062067648222
-0.08626740374731166
0.1783331637839808
-0.4425547361885294
-0.7308099921039521
0.8144563961100902
-0.622754072228219
0.09148831947789025
-0.22346459381591846
0.689097091434541
0.13975676616056612
1.4247018605386363
-0.26827163380621033
-1.2289398120116553
-0.8909979341938143
-0.1870317019568605
-1.177993473902455
-0.10726352311673229
-0.32543257070688664
-0.4011842407570747
0.3054547229708033
0.34148410725772216
-0.11762337639762895
0.0014581622322179014
-0.22258188358546407
-0.0649693726726409
-0.42601280632942407
0.2345318645173518
0.21828103100499088
-0.5105607362158101
0.15423903821983173
0.048070018183950784
0.10296624717384739
-0.4059603076352082
0.040720131690506166
-0.021608624880309787
0.05734100496118631
-0.011958769753136533
-0.31632279166954824
-0.18171459367093518
0.34322053691737126
0.3147215860627143
-0.0903280491967556
-0.2643354146702196
-0.010551446453907407
-0.05255867492157784
-0.27506805110170696
-0.4741082706958194
-0.1086068432289968
0.4169794658598606
-0.17710062183944472
0.44393936602328987
-0.5476586134514121
-0.6948787608288861
0.2023800419940731
0.8519319679913268
-0.12399609272757402
0.23442509253880353
0.2062710073579735
0.4051003764257033
-0.013144132786282885
-0.370204174205997
-0.34912111749143976
-0.0033990818960325355
0.27354420670559465
0.24194079762248027
