1
30
7
0.5581593279319712
0.6974272404669862
-0.9124096704616569
-0.24395547325962486
-0.46747746783688066
0.5043209974157087
-1.4877806944054794
-0.3099056604192556
0.25922100228111966
-0.1802567248692727
-1.9661382920349293
-0.42348452465438885
0.4845912540323892
0.8011727082074027
2.207523130280823
-1.9369606869159819
-0.14646306946636123
1.090052902087456
-0.4913238660877825
-0.6092496156540564
0.9121454090809936
-0.6844755646938995
-2.375363346508066
-0.03169723120589437
1.910810309556172
0.937128619455388
0.7482992986517458
-1.0641260679835394
-0.0975521035290518
-0.694007972121336
-0.47791276225965473
-0.34647527337479733
-0.17700788456139555
0.8354701196219013
0.30455392115969676
-1.0445744220116004
0.013957438702075187
1.3686161159708485
-0.5978392460582518
-0.5855259105900783
0.05391784486310512
-0.2804028989010248
0.24882563931480464
0.9266757271393493
0.21390914717283996
0.5453815867001824
0.4148074126748523
0.28271245425901076
-1.2477072220554581
-0.10181991589381459
0.5744797518383385
-0.43335616261420556
0.11179475753077373
1.1173365784097298
0.6191373196419592
0.046759219257023525
0.639838983339375
0.15588629197707982
-0.503379004487365
0.4586368121247697
-0.07650353293701703
0.7210886118496178
-0.3977567342411403
0.3837938905007434
-0.7849771896817063
-0.25823150513124676
-0.1756156923117525
0.19019722275347684
-0.11760385756212312
0.6093490296468326
-0.2412022766836119
0.5111064397991443
0.15848117073725174
-0.5518194443087898
0.38284003338742806
-0.6800594716645663
0.30999729412360894
-0.709297765176062
1.0210905919274333
-0.04669774862156329
2.96845442127295
0.17355117568120096
-0.33484058917479514
-0.4527570019854517
-0.07102354598807455
-0.17601231782183693
-2.10823719848131
0.24013821325576512
-0.6065949700473211
-0.34578706454409225
0.013088110902459822
0.03495004163571212
-0.33956921879022123
0.512718818427868
-0.22992033798065817
0.23315723293602716
0.7193699153070995
0.08973532031182503
0.21629604754226467
0.2545012340835855
0.0706423863664018
-0.46890927241207264
-0.17118177047934208
-0.23771372169089106
-0.14630763177875297
0.21639742339442655
0.5584084972055882
0.46447978463715034
-0.6423361892914065
0.025986124224829724
0.5961687999637805
-0.05082820502132322
-0.22051406191720982
0.1824851898353186
-1.3982733863847452
-1.098855961421259
-0.08958930377887844
-3.962782788831225
1.0833884290959204
-1.251570190608293
0.036162957718083
0.47305824339263813
-0.09385723408884367
-0.1528572089747704
0.783061632459756
-0.1661570952199134
-0.33093128190177323
-0.09673662006620741
-0.1588328049313689
1.0318812087906701
-0.2516645757195684
0.5172957405237627
0.2859497735866039
0.3472385958816384
-0.09581215676490636
0.2307378425307765
-0.6722077801231175
0.33632851205067427
0.41237134118744345
0.4985550443605246
-0.018132135416171292
-0.609814230461274
-0.6416961252931822
0.008998281193356534
-2.4554016047075287
-0.09735559043614163
1.055281043418122
0.6620830584067465
-0.07667130013641876
2.320524267397817
-0.8712947250566068
0.03083792079522566
-0.41481579392729634
-0.22219237511817322
0.9440871620310999
0.672355848287668
0.04845670023891586
4.260231721987451
-0.710725976936516
0.34659346503034255
0.04012172553696875
0.006459954921591318
0.23410683053494558
0.1421773362181364
-0.3295361410717923
0.4122803299046121
-0.03310117098273496
-0.15683535657880976
-1.0920711992100671
0.2907363250363088
-0.4340047743142348
-0.786454568379004
-0.07804594840159558
-1.2051471982860127
1.3719428646521477
-0.23046174096659905
-0.8159939415703914
-0.14302839236132103
0.38586871767014747
-0.3398987419009279
0.1895232460277271
0.32788341946539284
0.11711913861483944
-0.0927517807485997
-1.2505270272976015
-0.05756357775297125
-0.4899487000239884
0.6758938772601278
0.4722514266308838
0.879246453277269
0.6500604808277535
0.1740848334410563
-2.2017120766112255
0.14926969441343696
-0.8080629017193256
-1.2675472562060013
-0.29659729784187766
0.2909912240006346
-1.9459326072877587
-0.4566341539036755
-0.4616351716764218
0.48590279222333915
0.5242383932944287
-1.1112843078789287
-0.2713697668941461
-0.09908205946671303
-0.5394179887295201
-0.03159820222901266
-2.1212736191442794
-0.10820066119802793
1.1468198000294731
1.1985043768482744
0.15456838089217526
-0.7183855496339023
2.2840402046455885
0.4624346553185379
0.10818194120205502
0.12994112868488072
-0.42340930928593257
0.1098725856304699
-0.15668421332778082
0.07455165498422645
-0.4604461166546015
0.0045013482128954535
2.49114647250013
0.11514896386754947
-1.4890066407341265
-0.8774586498784345
0.18569541232257328
-1.4517261116273088
1.1657866336775398
-0.1718452759981854
-0.4497780714926118
-0.5603874975154925
1.0067424688288455
0.37181844849457557
0.03882157535957066
-1.336913089227572
-0.01882680401662877
-0.12668682827281788
-1.398093177991019
-0.19585318097904936
0.9584750587757991
-1.1767730472945706
-0.3185680529550569
-0.4622029956270993
0.6320552005445155
-0.0551554259356341
-1.496558679354362
-0.16001786612108274
1.8163130237032568
-2.435425245214803
-0.029760980907657497
-3.128452100037387
2.1224015989543186
0.11286896902261075
0.16957133604958763
0.19935537491280123
-0.1546562577403644
-0.06468256382681012
0.4083378695842004
0.07427037998837582
-0.23520987365499568
0.10032374816483745
-0.5539978931727615
0.8102925405327618
-0.7160931767951421
0.6210399804102564
-0.018105660741245946
-1.7106557494857464
0.2907668487623876
