1
40
6
-0.47321624230272785
0.10592289319881223
0.9623440196961464
-0.028286600059845894
1.243892215026819
-0.04212557010752816
-0.1045246859152586
-0.012054315379637665
-0.05810398223285242
0.9820216903787082
-0.05043626015213511
-0.10026036816987813
0.057363286869854674
1.1868012485127548
-0.07929609352492771
0.11812662796438177
-0.6632506013164565
-0.1799109314781201
-0.04256810967836039
0.01574644016117975
-0.05775769065250866
-0.006968965548529456
0.5207990952094305
-0.061340349002108475
0.07372809176006587
0.09918414710668294
-0.05216636546364799
0.8604070509958898
0.9551984177310673
0.03636348725626538
0.021074859586932025
-0.740909577831118
-0.11175200875032923
0.0064118493132347765
0.47289642613949284
1.3300625980099112
-0.3222124620982185
0.45396584248303057
-1.2158966792245445
0.006620159481191472
-0.531261882209099
-0.8633158195621531
-0.22221510185525106
0.39204797449051665
0.9741758701530415
0.0030337181002802064
0.2929068221287605
0.6987454321372043
0.4397136432036148
-0.24470120357785904
-0.32766968700861965
0.16943622862007288
-0.3290577133732613
0.10384825668533876
-0.038300827440581005
0.6253777938618293
2.7562463372826564
1.0750364991448151
-0.28685056562582284
-2.049243348672758
-0.21001778995511128
-2.255587623748302
-0.37313673532064756
-0.12951075820091634
0.1475269509016858
-0.1497685977786965
0.03161437432112679
-0.08707233661001933
-0.04775890688456189
0.04748125813407269
-4.070203026944593
0.2965284911329736
0.41416468272281626
0.4485243723061068
4.577512752755604E-4
2.2305398768941296
-0.1230964065033042
0.09623005181997485
0.057745165487318756
0.12313529189906404
-0.08636194093330307
0.129434086875293
0.06902547896662237
-0.30553200104385886
0.31579254949335744
-0.012575344837691007
-0.042092364875546434
-0.1950562282057136
0.20745480158311352
-0.4143744705733412
0.03040574261132395
0.03655493273904086
-0.017942576200279368
-0.12939788049453657
0.030587402407894388
-0.39299020173674476
-0.3039282437931217
-0.44783069459719244
-0.1616414522603321
0.21304300790621308
-0.045379350303177815
-0.2796120774893824
0.1191579522987837
-0.38684506352322184
0.21463417818641986
0.3067391562074557
4.699333272222596
-0.4809557349020675
-0.3131849207217641
0.9050864623311492
-2.7159377650906515
-0.16338712108336165
-0.21088791952901242
0.20753308117869937
-0.15665373604011892
-0.2492548331252794
0.019597023901220232
-0.5278926743831489
-0.14126318995083353
0.07159644816364522
0.3148325621158042
-0.04093402925050822
-0.013553356802358352
-0.145166199608292
-0.0014778544603966772
0.13093797187606504
0.10145688726650487
-0.18590376831433467
-0.12337295426655248
-0.012632804303297395
0.16766474756413097
-0.15893281154862834
-0.0657458772527767
1.4994145645945973
-4.287819345359473
0.45524674673611665
0.09319530831333432
0.2764043445972387
2.764746465400505
0.09186744120029228
0.07396413638976504
0.25641278574722176
0.13674625223313708
-0.0862927396793002
-0.2040368458549554
0.03442400100631124
0.13769643673937274
-0.2744130257828748
-0.25770623889155253
-0.018314003070510385
0.16004321263094667
-0.05431279550818557
0.19436979327108364
-0.3124934935985436
0.4610051601155665
-2.350876090743654
0.7287004167197647
0.3160483581510108
1.0703496033432145
0.8969321743336391
0.3856991083265404
0.46953996963648287
-0.07735617821933667
0.7908667749975868
-0.5083907650361434
-0.0674069229438795
-0.0017894338899093719
-0.20911658026908728
0.042745159507642655
-0.053229227871879184
0.08353900788336566
-0.18840453093883847
-0.1997807087887325
-0.2830602830609387
0.2281810239259568
0.03405341002242452
0.005848958983957037
0.17577924608043344
0.004305133945353403
-0.004919076781968648
0.20957510140158844
0.1563553582086769
-0.011008712744264073
0.13962679110524398
0.035998886293730104
-0.23632862070234412
-0.1097361763934531
-0.35510850481915546
0.1704227543121571
0.24146685178861604
-0.11164080327503774
0.20873728548262413
-0.08332802127214364
0.0051291422945420355
0.057358120698530364
-1.935311914457734
1.5895039038753576
0.3792689960321674
-0.9026839685665976
-1.767574876321439
-0.1846978655962481
-1.2977765042996152
0.07872642956862819
0.009919477200667793
0.4199464079509129
-0.23483968708339414
0.22275400191978587
-0.25553202207121706
0.04820351715673578
0.2023581822157056
-0.23370438184148137
-0.08417415498829497
-0.08831475001120764
-0.09559102957253837
0.0556088774616948
-0.26063853455938973
0.24915253206479854
0.20481816878910555
-0.33263217191400307
-0.11537831822887247
-0.0860163267052098
0.08035752545025937
-0.38185055892075986
-0.1449286956804575
0.39452324354669205
-0.04349032189173905
-0.2612354910141747
0.24177281333374612
-0.19044047178653672
-0.003436050968626932
0.5194770414192343
3.439705891010083
-2.317414137591769
-1.4306820191644554
-1.9197991374634686
-0.020687956875824143
-2.7627265646722567
0.3188140390771991
-1.8197334220859647
-0.8969182595170707
-0.8098437357954872
0.74133425311
-0.47960782364502064
1.7873867564019792
-0.07024983992153432
0.009402378079362277
-0.21247439862305195
0.5827614993414594
-0.2768247931917347
-0.25674505836688755
0.15597470490294713
-0.08155523917441246
-0.04962520371261311
-0.10015833694587263
-0.16082643320138837
0.014524893760229656
-0.07690942438837045
-0.23358103935430707
-0.10259963329250908
-3.111418089211794
-0.5832492244380661
1.8056999959678928
-0.3742204396790848
1.009282738844793
0.1281139953963685
-0.3245713687194857
-0.26941972318775964
0.4306608268039689
0.016245944543776307
0.01439368937738672
-0.18050829078308675
0.19014040327216453
0.04321051904087691
-0.1903299303848457
0.136938121743213
-0.1517217163887929
0.25930482756671064
-0.18831420176315586
0.24358233531882462
-0.5033444282518839
0.19110102958919198
2.3585174110136493
0.09289860818719688
0.457499104476575
0.45519041695030327
0.568860260144826
-0.21562243358222896
-2.042902542120991
-0.6559092944755249
1.7515315059809213
0.534891185139495
0.7746570636820208
-0.5212521399260445
0.8866822767419192
1.0675513897460067
-0.19488298091832595
0.21333684541753126
0.5118037733483097
-0.19694538580828017
-0.06054118199255885
-0.012052729634298267
-0.5228784632250174
-0.6959466052812036
0.38527323040816613
-0.1012390349383405
-0.5358156315437222
0.5949066434482709
0.3576558052751297
-2.8986327253513937
0.3425457395197975
-0.354080699998836
-0.7221443191935765
-0.23568552501037274
2.656634314350028
-0.16611794157247184
-0.14157367250330302
-0.06207316660204306
0.1910664080411148
-0.21196728367319867
0.1596704648915071
-0.0626426391897265
