1
40
6
-0.03746866648453977
-0.48788515359873386
-0.02253939228138656
0.10538621165954583
0.6036693519382558
0.11310825476545529
0.05509394885552322
0.3183000327097157
-5.874749786341028E-4
0.1164652183520195
-0.947786134585056
-0.3345707055473862
-0.022875961843160052
-0.09331952675082836
0.06280547908566128
-0.37887984838770694
-0.14173551449840843
0.06988480847014725
-0.12726884254312582
-0.3863212809014611
0.054413248294473575
-0.02140031839765259
0.051997921209249794
-0.21939404081639635
1.0450876751589806
-1.2833735156381225
1.0365851922151916
-0.41543075218118763
0.032296163136919874
-0.061134779000781875
-0.1758017940564265
-0.0404446536952441
0.07271323100529947
0.38887756946227625
-0.11487206000643113
0.07218449764455104
-0.05365483585515215
0.3974470099668782
-0.1759658157227999
-0.02014151373110268
-0.44384423369342524
0.2880108689996706
-0.13231977139969756
-0.24802537641019376
0.41018934367592713
-0.18384826721377667
-0.025202484512390794
0.23993945452895732
0.3629819651700445
0.4740255495842863
0.993370201368486
0.6008885891458099
-1.3019277506238138
0.509340198057767
0.33516978863092994
0.2676935357195283
0.24899105023178908
-0.10431052997990824
-0.09555494812767908
0.2772814055279366
-0.2486865802797803
-0.14305180260387823
-0.2508183849001314
-0.04190596226348298
0.07817106917206618
0.45412123686577976
-0.11925151187823738
-0.1392380612198033
0.4695683446871482
0.3498470809271531
2.3596014311464173
0.7034130910610085
1.5533597874379148
-2.082086284485098
0.20305039319556561
1.2730918285855475
-0.03486413549830693
0.101021632226511
-0.19575127104863546
-0.08036955120720363
0.4987636246652691
-0.14207657640647925
0.45231313715654514
-0.04640317293512485
0.05882528148963998
0.4427351308655385
-0.07299148997041537
0.34315143480397026
0.03871733142582613
-0.18231615971286302
0.7642604512923377
0.12931052174452065
-0.1477285328338366
-0.7174488513847371
-0.46997240821096214
0.6936823779997795
-0.263732967500075
0.2658328287659585
-0.006765228349126016
-0.1492948628666987
0.007064474638697017
-0.08072886279014242
0.1703023171079733
-0.05296415815572059
-0.16984857518253532
0.027255265388761774
-0.31659588873287964
0.3621734567557151
-0.003239187225597954
-7.743118573866236E-4
0.15696164847231733
-0.1793391786381505
-0.0010170304263461562
-1.899462047502867
0.054127717304838875
0.06651333111812001
-0.18292371463141643
1.0415812574226067
0.24499737583854644
0.1312033789586739
0.7600490557077386
-0.7691178828788221
-0.0868781054245723
0.1550389213859231
-0.11788333978059473
0.18795004758730502
0.13484272451292773
-0.058020727301625954
0.3346808966374986
-0.3214638757659846
0.001392858196328967
0.17599797990758473
-0.2867731264722109
0.02197117159258965
0.05113996503154453
0.31840730646820303
-0.718291093892893
0.6927683202266077
-0.036730054650893726
0.0858149635951166
0.24467790009148316
0.10926264668366747
0.32723341458902766
0.0979522483051042
0.36849165450505167
0.6712907980487445
-0.5586249467463473
0.6207142153816003
-0.06518475371596083
0.4871716302547375
-0.5291884050168081
0.3615386004416127
0.2555474064572204
-0.10486030481353659
0.39571365661413554
-0.1402514200810913
0.3509551314476067
-0.33273582147609615
0.4170092641728335
0.302498775341727
0.2073796511691007
0.06790728915432626
-0.3597725343595797
0.37168136546342956
-0.03004238297300666
-0.3346174023750082
-0.032467344541650886
0.2995656816286572
0.21041019510306072
0.3773662540072768
-0.3200337283049943
-0.28227377703816425
0.04874012649216752
-0.46799620028430194
-0.5755335652128524
1.8807666029732986
-0.010162379309370194
0.30178508521083464
-0.03411508915055838
-0.6246401929940593
-1.1415346943453673
-0.26567443465329355
-0.12628666560569904
-0.17717662749831484
-0.1262741769921409
0.39272863621708304
-0.1818127720046012
0.21038013742984757
0.2499214697364709
0.08299915135359032
0.19834149723454628
-0.1990634563819394
0.14961434776563354
0.12442852274772605
0.1514919273480035
0.2080015592457675
-0.1369031964354486
-0.010945649145082142
-0.0468010742407053
0.30573612006032547
0.18689990552435107
-0.08187064557856974
0.21808531570194212
-0.43914721769907145
0.16870407529354223
-0.1653227542570843
-0.45948542266045894
0.576268009232069
-0.6028772223841657
-0.1178150882205573
2.254935144040819
0.18717850739368255
-1.0888234485640969
-1.4815126182311869
-1.0150661924447955
-3.5835572783279495
0.12984872512183823
1.4799230637486092
2.553680422774239
-0.8438928415773138
-0.5116207634671247
-0.025995950749989623
-0.48999858491134957
0.13493961176615601
2.125794483258121
2.2230052694436413
-1.4025400479691408
-0.9486175295454043
-0.0648693695781522
0.10939679685922217
0.4987321501087533
1.2701929539928143
-0.21598370750611628
-0.09776076474932376
0.16965234669582535
0.14789039933820375
-0.3604815574282202
-0.13847810349950657
0.0722609251448189
0.11314224435299192
0.12561793900967683
0.03262060979648493
0.2110284312997447
0.33850937277076354
0.19870364447595043
-0.029009584583468955
-0.20554194549564073
-0.211193699914937
-0.15165076558478657
-0.43836666064506624
-0.7130560973601976
0.5414525106482507
-0.3205907847074006
-0.16307441008399146
0.13739402725310623
-0.2603814825221053
-0.2856926430434095
0.16452403211602892
-0.0167599334229642
0.3111288142576929
0.4197102846876262
-0.25113584111756554
0.1281154716430781
-0.42301635293410733
-0.26167900112435377
-0.31407412328937756
0.3356808719185791
0.2660467397082577
0.0102804897590189
0.23625876678303043
0.049735991724578356
0.26957628103728865
-0.26339419966029365
0.03341874283919531
-0.5374767751500755
0.22571797121495804
0.6665141161889314
0.29766740088877824
0.0011572747354145466
0.07022262409261323
0.15009746178926509
0.32209658603300956
-0.0016350282835314778
-0.3563178953686732
0.07294040873873993
-0.17258125122769508
-0.14056794818726576
0.02004873882445402
-0.32226887391070097
0.14891333921946592
-0.04817418602073238
-0.019936759342255847
0.06033153713844514
-0.05284913808564769
-0.1719539285342242
0.006539819078426323
-0.46206595629810543
0.3557538244556667
0.3061660101063959
0.06275146239018307
0.5306798679557165
0.6957182094416949
-0.39749368975108745
-0.07735511017951509
-1.0060323715125254
0.21791960470506497
-0.9563469801970074
0.5667262983948873
-0.25866195053795804
-0.25594695510358634
0.5688369244049378
0.31779277577380566
-0.17525673659688396
0.6571038264957607
-0.34410241452951895
-0.04615133957852041
-0.2501135670689507
-0.35479612928583454
-0.05359251012080675
0.23957196100526745
-0.28445091956837487
