1
40
6
0.07078863716094727
-0.7660945639052372
-0.00488460435459584
-0.5619222376396512
0.03372626491992269
0.034491030481548536
0.0203930363918271
-0.014066518195167835
0.030837619396572296
-0.8552805052196624
-1.0344074775837984
0.6187341393850126
0.1087216583334284
0.009989823993704886
-1.1244545143988753
0.03571779075735622
0.052741648918823526
-0.19911690866151122
1.0760700312489486
-0.009398212497126164
0.8447356694592814
0.039967923700932294
0.033386817196733316
0.0031395281234810526
1.1413826897062789
-0.1566571201722357
-1.0285704347839646
-0.016902995857678065
1.0765378132346997
0.02795191528323962
0.6815594622777881
0.16897574050905179
-0.6545847883870939
-0.7765566402419141
0.6348804669231983
-0.18499367312908552
-0.13498057632603333
-0.07642609333160913
0.036917438179817755
0.3665053878875917
-1.1587861112373137
0.025780298633131866
0.1206021502648749
-0.11795605215142117
0.14604278028117998
0.06618092958051619
0.023784098675663348
0.21679460644300053
0.8111573002329772
0.5186261638739339
0.6022546296009943
-0.4505483045346697
-0.033625432716192775
1.3090090431743842
-0.9464377074908389
0.03914041184210727
0.18316785058078802
0.13882795742490706
-0.053173486298615305
0.03926631636117272
-0.0016956417890953103
-0.06796965974053339
-0.3406777129307741
-3.864963637075407
-2.469331787186156
1.7560042770128774
-2.2342045463535944
-0.5842555510303293
-0.5536706071182328
-0.04908454550499304
-0.013039517895557434
-0.25564286862608276
0.04647907073684663
-0.14859652965615402
0.04100762960479332
-0.0059092117260714115
0.14325974151302787
-0.7963743582560959
-0.2649789108493356
-0.43582893233679876
0.22833591052105714
-0.13296550769233262
0.059022148848628934
0.07574688897319726
0.31742447353172676
0.09265227000973497
-0.0023392800419564353
-0.08237367312211163
0.04088472382233571
-0.12205171559814416
-0.1497107744781014
0.11409419637737657
-0.23968093293035875
0.040967048536240266
-0.2660065704323166
0.1884028824735684
-0.12171896127093032
0.13585027560962404
0.09985917966788926
0.0353505959318744
-0.06305429416218039
0.3549530735119506
-0.005559281727043708
0.280526081279899
1.4410457802520176
-2.091885008555922
-0.5242792135664791
0.3789289632383405
1.4024466336566024
0.8784291934357652
0.8935487821465661
-0.2163283010881245
4.261777229612148
-0.3921429942696632
0.03760160459630675
-0.19399952165971585
-0.5272696366854324
-2.2219811101567823
2.0033666524229115
0.4995182082056643
-1.802136888629507
0.26118233127371465
0.3994751932960146
-0.9316829537444067
1.222086497743634
-0.165596619053679
0.5155824272864467
-0.05199979443715349
0.37326077260262774
-0.15028803255671982
0.2496977738395837
0.21972371413171807
-0.040104327657821605
0.10123794665551014
-0.12069734118268781
-0.004482871513068355
-0.06350538849478113
0.11533583854459295
-0.021386156556812235
-0.688470668719519
-3.484526455272475
1.1576981408210798
2.1703898752227766
1.5259632942836845
0.2964380688010339
4.1147885654539555
0.08772095943553719
0.30985429646556895
-0.3152429392598969
-0.18685783810640486
0.5451030700059414
0.39707117600638553
0.5698536209456723
-0.0958796457860312
-0.012391697392708794
-0.08775940335182403
0.28032572021928553
0.12618190126346765
0.1417073832546331
0.412785738049931
0.19670523195926545
0.10836847896179432
0.21986558158167163
-0.7621441036574975
0.5128859742972384
-0.06838606727628035
-0.18527800381426146
-0.33306044062390694
2.7510476686131313
-0.5473661189535571
0.5814099608718799
0.9514228863910495
0.3140489997412733
-1.8372519606716904
0.10521918653563371
0.1405200314750404
0.15336720877029145
0.27910542014487427
-0.38003820899835067
-0.06451094839160937
-0.16719519559858004
0.43973960569879245
-2.009641558952244
-0.4691374518244146
1.055223099785089
1.4827111091633427
1.6976477972327055
-0.17940141829842532
-0.1409115859558769
0.38491434294289184
0.06586577300615858
0.08701807929813407
0.007276131432693686
-0.05584060826971592
0.025121494090817802
0.04815560194453947
-0.18851423543163548
-0.20224571571036212
0.17490372648184
-0.25411120936059234
0.056769823516442754
0.017272766318589736
0.20757747394865111
-0.24974346727968974
-0.09127410541155949
-0.21693250044614693
0.18850708766351476
-0.11654658012424164
0.05604806863734438
0.033577484885218806
-2.6085552358354054
4.163482188916049
0.1949576705859685
-0.440441681165376
-0.08785670824760615
1.1292198224554688
0.3347826945028972
-0.3240674183860593
0.3994087399113894
0.08535632052705838
-0.30037031073505405
-0.1389044440500417
-0.219839486389766
-0.65053540513808
-2.8019695230292925
-0.8347695205852826
0.04713934703872537
1.9741033308910239
0.048712304703784806
0.565294759657537
0.060075079671100366
-0.4004962574937706
-0.02545186100611351
-0.07913382457869372
0.4187235072192581
0.004755815585488439
0.310891022227273
-0.03629042954588934
3.304138141103287
-4.2807798862115485
-0.790646717006139
-0.28941676691863993
0.10040996883744913
-0.35844647525451606
-0.21983765585122983
0.1898198033562222
0.17923215476257
-0.27470553835297856
-0.24052673526660542
-0.09642152078245292
-0.6780722725025743
0.1330921679170005
-2.6368182314036592
0.3505759542238637
0.3052699942730829
0.2345819364363036
-1.2372978576810683
0.5178713441562535
-0.3891347954326342
-0.5031861687501118
0.023399656246885062
0.7003005323339101
-0.6408478914250969
0.4041327940165058
-0.32291513302429387
0.08684509794136323
-0.005554250572009022
-2.33081514579592
0.7189306307144512
0.4576271428954448
-0.7184422884834908
1.5457861897247964
-0.17363027817164609
2.6138958184354846
-0.15483297310167018
1.145635889303871
-0.3890126010946987
-0.13134509259120242
0.10637087122138261
-0.4164155224148128
-0.25197148618889453
-1.8984861183447184
-0.3479620441416218
0.15331883139764826
0.18415762729897847
0.9469730650875529
-0.10950659578673744
-0.42032868247370014
0.21526735285622173
-0.39975085108502734
-0.07782673004324356
-0.10692915192412236
-0.5788406801603766
0.39807351093564036
0.18687277209468534
0.47044522811393813
0.6453111451558197
-0.3494781044139132
0.4205641439546926
0.055790454203910475
0.06890041595639917
-0.01627612010097292
0.24624832562836582
-0.2343612295798539
0.23304980047844426
0.01982081383075859
-0.1006059595410725
0.22073751314418333
-0.17189603827688593
-0.10630383783900617
0.08729381740991574
0.03385418201911938
-0.06746296845750677
0.22740806548485673
0.35133898395087576
0.5426820748391238
1.6014910914650782
1.5589316219584408
-0.008626926810769375
0.492512673182763
0.7035020767823991
