1
40
6
0.08694611556787062
0.10269124831606755
-0.2514381842720564
0.3610508301796277
0.44372630148593456
-0.12317960933578981
0.2628975143453475
-0.059933263830321465
-0.28633749818606347
0.4387813529058208
0.3454478011864838
0.21863271468979983
-0.20369175483270394
-0.28606737340900334
-0.1276824266235101
-0.6722379198593029
-0.09993273803571467
-0.6256549491693536
0.04589194252846627
-0.17581493489498418
-0.4303321549429989
-0.6690224283462279
-0.016039073020171768
-0.09563905761254095
0.08300979558312434
-0.4527056987668466
0.14459461165055182
-0.1927807557420868
-0.35035788091919134
-0.3608088179491905
0.26649586212488635
0.1026885429048259
-0.10113254667340713
-0.1258625648718159
0.4559148685245293
0.4499216922001657
-0.0885870530536943
-0.16228831918940306
-0.2088312295964857
-0.29761532825234854
-0.5665453101883053
0.5146335869899774
0.2936388297676585
0.02705400351644524
-0.49026705681084326
-0.24120257894506672
-0.09870165585468735
0.2514290021864626
-0.23200599285018675
0.48168824463835863
0.10972886675338624
-0.1335837410501758
0.14085997055488056
-0.2478842611612034
0.2850533150174292
-0.029230745291294446
0.07504746796247322
-0.29051078356707905
0.398323167806479
0.2959905817668271
0.23445109072884007
0.5420895818997935
0.09871066198345631
-0.3396694197529113
0.2810562202190593
-0.4501319513448582
-0.3648194352165103
0.4339707203082408
-0.2508218288193944
-0.3744992968968765
-0.3041355153994165
-0.37716707512789505
0.1103415590823224
-0.40106681916747794
0.3887460066969708
-0.5451386320776068
0.15126665030188388
-0.13148643547540845
0.2104021112491388
-0.2723635347938163
0.2781709725257164
0.2896389705630294
0.3167066358143325
0.4199565482131522
-0.04654208113146005
-0.029592051831778547
-0.09787760060561877
-0.36871174889451486
-0.15784034788991344
-0.22818154982129216
-0.027646308267642097
0.34551057895170617
0.19192638080736774
-0.2761441624265154
0.273052743761415
0.3708715699062036
0.02241615209200737
0.16413429505376478
-0.38819570874846654
-0.01166212331645291
-0.21151435781369463
0.008262727530342509
-0.255208439421308
0.361549404468975
-0.11473865734970372
-0.17387776864261334
0.3788929194806433
0.07411411355427253
0.38790559979983175
-0.3020938274276069
-0.38408447913151134
-0.1933349134224298
0.3746608960490986
-0.24784977858698481
0.43672185458442275
0.2332094838586059
-0.36795610540412943
0.019876729224600237
0.41058129097261875
-0.09169859155879403
0.40410180648122856
-0.41366119255042544
-0.34542969651145183
0.3215761349646384
0.14435882724274818
0.36278677037951684
0.32933319944455924
-0.11898731739678477
-0.36673375533066993
-0.02783889701336236
0.023164418605684564
-0.26718826409580226
-0.46085078579408667
0.3212747608420719
0.5131982449057272
-0.2866943282984999
0.17271218512325498
0.28115597591754204
0.29779174607068015
-0.1565477427441362
-0.3489306111088702
0.252813440327525
0.019674704897653994
0.2394995199115739
-0.31714797137813966
0.23035922812429258
0.34800458839482473
-0.07816486042040643
0.434832291363449
0.15279941264474933
0.34938198350870237
0.02749142456930319
0.5172681726741706
0.15213484740847483
-0.09935765330539968
-0.08561915034563723
0.3519361743047354
-0.37390625462954846
0.023588288327134284
-0.32129944641158187
0.21577456406024445
-0.124369473749163
-0.10470572865844503
-0.0940894167841862
-0.11932028628360873
0.24604132084396077
0.5721022998758358
0.10448183777458205
-0.4000270341853244
0.27306772532929535
0.15629027617720445
0.47000257101937815
0.1047067338265442
-0.18542888956687983
-0.3327492245368923
0.28310826610543266
0.19811820348155235
-0.385253789003679
0.08658302480717843
0.3373994964583968
0.39664636899142963
-0.05594573792247429
0.23115407813640612
0.08636303703818375
0.3250804256987186
-0.1535664670489951
-0.25677717469741923
0.2287133705710763
-0.22063517252869919
0.22895830762540154
-0.36135119520213316
0.46458892517211314
0.14563911892222617
0.4052357161631983
0.57923140865179
0.12132446251643839
0.11783169375111625
-0.4147044667795042
0.4320630118619407
0.13049076803655502
0.4135136126731064
0.2762557224067831
-0.027294792952509764
0.04335917844045666
0.09488837858462497
-0.4725041809134536
-0.2791148082033199
-0.29758892211428045
-0.21268223846750356
0.3165627733877539
-0.04029832344130899
0.14989900977243176
-0.35181620938484026
0.5053009969217527
0.1223685967298989
0.311014399079357
0.4488928592211324
-0.10943369650072703
0.30195246348864224
-0.3402030104105554
-0.3898803737785338
-0.38899030371403126
0.4176946641043209
0.16302773770411705
0.4048669369740546
0.22288185969277818
-0.11759072764121448
-0.43364398500043966
0.4426655160926891
-0.4081845235079471
-0.48541042973837156
-0.13128949028075138
-0.32829246766256426
0.21093120259179649
-0.162960969174682
-0.2521419942949368
-0.20110708518626255
0.04489357844038996
-0.2716005020500756
-0.13760181459885107
0.1140549857943032
-0.50467281898984
-0.2134284595446879
-0.10936871761522632
-0.34789500543451435
-0.5520984812577809
-0.029107836800237
0.13288605095183142
-0.016854480611636753
-0.36445565930537693
-0.27538490739575133
0.23427749999401407
-0.06787166929430372
0.3252604873155396
-0.499561284451075
-0.40126190091991487
-0.3242759654331031
0.09517360729599653
-0.2904767515489742
0.44093758452412496
0.036895457297813884
-0.26347554136200957
-0.3063148906743057
0.28881290038764845
0.31379569707226646
0.124128313229666
-0.24788002840117115
-0.3066086409233435
0.33177437875243676
-0.08698812306348495
0.17187832913280007
0.09549531898977504
-0.4548710492810126
0.12500697933348476
-0.02025095795752455
-0.42847357494784144
0.2841919305944227
0.34744177996625375
0.2370056766658746
0.07350118906312507
0.25801662636446315
-0.04932568801584308
0.36654915614576095
-0.471669782095059
-0.20774179101795578
-0.3445966198725819
0.3683829241833151
0.0972034634516604
-0.34867205830663184
0.1317180471344148
-0.02616152339762985
-0.377134560702448
-0.4807637977193182
-0.022120906529556512
-0.35219798994204093
-0.3622644949606139
0.16076434406424156
-0.4674697821465916
0.23950752040246187
-0.3062350887477657
0.23302073699274728
-0.330681102126345
-0.037882748886013805
0.33803659680374437
0.348029580585033
-0.07983335392436673
0.07233410248056672
0.06965875675494236
0.3300549727542688
-0.14007721874946882
0.4101908001608203
0.34835346266858996
-0.4859816545129467
0.09687314535325538
0.2043402931992513
-0.3640571110788647
0.3899528143663994
0.49764487198274154
-0.3611475798302028
0.021363719416746738
0.10908617609356806
