1
40
6
0.48981257776859816
0.0031941475014656863
-0.6990704735706368
0.2989354248760641
-0.4607954630585948
0.07042518330827748
-1.0007715451697283
-0.6120840792316992
0.401357889085527
0.3174216457001955
-0.01906172011106215
0.5053531968121814
0.03228904867500177
-0.13353712506812834
-0.03634125078507845
-0.18963757715137844
-0.9641059123641239
0.39217798211798865
-0.0542960248679237
-1.289735856335523
-0.013296642202748
0.056130036983483005
-0.11771733823225443
-1.058692430403782
-0.0019290068930597171
-0.11954518234714166
0.1315753374655646
0.246680828104018
-0.18960047323857962
0.07197172733864433
0.360684194937223
-0.19248799353030802
-0.1404979433720397
0.043983563651474517
0.012735719850013996
-0.026046236776626642
0.4925331927511659
-0.026995970888362527
0.31122006975874267
-0.10055392526499597
-0.5821312853157388
0.14625016790094766
1.2457104512526809
0.18501551889660242
-0.04463219180762266
1.0594422636795844
-0.6037986285471474
1.0640046804339347
0.35396888419271416
-0.2777670049493052
-0.08725171034894023
0.38029545803556186
0.117171980925815
-0.20811015830497434
0.45129539505159066
-0.0435205113284307
0.9268706687608594
2.531846380825849
-1.6053425019837482
-0.12409302466209104
0.05126375844772266
-0.7735221424500147
-0.7076388144884209
0.02191535997914525
0.7038386815064678
-0.3338625551509751
-0.36589397469992346
0.20098013311205723
-0.146774381123646
-0.36765593403278674
-1.6174558894144757
0.0744090357525609
1.064849846277737
1.4276138450058082
-0.7565591682680637
1.46879412018352
0.148277158974931
-0.11480902188604329
0.13546261963964742
0.0027221988387182146
0.31913866517052547
0.1830147356898663
-0.029920146860922186
0.10761841872618147
-2.1423081931199093
-0.12131025539449042
1.3335067854518774
1.4576025261356091
1.0891104862757546
3.4768862273371934
-0.03002983624016541
0.08135724368433649
1.555670884830746
-0.26377831169864047
0.2908903351464565
-0.06352631040778338
0.9215896340594303
0.8947455311114072
-0.662901610016846
-0.10120698080041417
-0.5735510367657902
0.029562781026885244
0.4256125044366523
0.20484848843813255
-0.7893560789421621
-0.15126601518747396
0.49909731891723186
-0.4891617201691173
-0.3968471388840763
-0.15438976285781963
-0.512249800601321
-0.16190590397066607
0.3363633328733403
-0.03750598976140118
-0.15563486392282141
0.0523812441865672
-0.1550204891396012
-0.05597191914024128
-0.5089871626219041
1.0068665603147489
0.7787709888922422
-0.8506013546065803
0.2605689374033437
0.11972000750256523
-0.26173964050627113
-0.22241550925339612
-0.1936047890884353
0.127632418316966
0.2542140220703996
0.15485353946109864
-0.17529961484405443
0.4346702158509248
-0.25457766608704946
-0.1973354941949272
0.027761380626978395
-0.277610523915343
-0.007099672438427775
0.3696407145856864
-0.16187431730624866
-0.14306967101208343
0.02899990130299692
-0.08386583241954652
0.45785187121048665
-0.28419910655096875
0.45500726924845253
0.3036481490321948
-0.1938002365275892
-0.1890425613361781
-0.5505415692938047
-0.31711229003145724
0.24054040066827437
-0.30963735645176416
-0.09760237108485281
-0.22181380975976625
1.3428400837986434
-1.155657762757835
0.11184108031474252
-0.12868904416790808
-0.13440893992024264
0.5063785452486739
0.12233975230895648
0.693131827560046
0.34527087586603544
0.5119685861417965
0.3568479366733928
0.3105652776274043
0.8090627468521868
0.12176281891168193
-0.07409047367644787
0.011539133674419328
-0.07405972484035422
-0.12588856281808092
0.4074666985370637
-0.043906711464235415
-0.25481810437048125
-2.28390126201786
-1.3519392366189698
-0.9756290146956603
1.7963475009386929
0.13289259140340126
-0.9428403382696031
0.08691228857865636
0.19002995703276268
-0.13362154913571048
-0.14268703362984173
0.21783784927261968
-0.04629270760120723
-0.03319442179897957
0.3318590964315728
-0.3131251046413003
0.25746971976414645
-0.13709178489103396
0.019402321816963525
-0.332694993959793
-0.2429938169364066
-0.08363394978444111
-0.23861986793838297
0.4953663267576266
-0.3465185136801719
-0.07742353408586693
0.4544194431621049
0.0951999686745234
0.24706516933154365
2.4102274211884187
2.4114939982410033
1.4978300986826008
-1.4534601368678548
0.005565690210064551
0.5361179117877579
0.1646754269847496
-0.11315618653529738
0.3073126645744806
-0.08502997662101186
-0.07322268701878504
0.025473596335547365
0.037944101968827706
-0.11140037758505851
-0.6305032485468609
-0.7566072291062255
-0.25615659325156226
-0.049465232206981416
-0.0059170604930360235
-0.5532649783134119
0.3134486154885089
-0.030319288813689293
0.23063161680051078
-0.07395115590370073
0.07327822109732443
-0.05163848032238793
-0.34692076075568734
-0.18277231145576128
0.18471124579394796
-0.14209075818328257
0.10263333902624461
0.8650522507315492
-0.5582428926470373
0.6961618415363662
-0.5723269949048484
-0.016234886390065154
-0.0698133466373268
-0.16786634777231482
0.5456043974679395
-0.865556155907997
-0.3698985085268743
-0.36572147246391085
-0.032723061154059145
0.19880743952884786
-0.06155585300595385
-0.33430217066321083
-0.21623445186425924
-0.23213219347286787
-0.5872552993976833
0.5946630222312836
-0.9064079715141505
-0.5359393322715306
0.9357628853531476
-0.3577096434502761
-1.163391768004613
-0.36474095734879186
-0.09750082433180275
-0.2508616789494452
-0.08948325482914343
-0.21612612982120333
0.21610675243640004
0.07549778324470624
-0.22738909429646242
-0.05092198121233247
-0.1645185819571997
-0.1493695830345164
-0.13521272938077103
0.3533186657330648
-0.15001817080281252
-0.16955932444977645
-0.06892030182086976
0.24448379428972442
-0.04983368268134456
0.18312818517129356
-0.27049284639010546
0.22719702966110256
0.047857822229321764
0.017120430516514993
0.3004762039966336
-0.19227615469824844
0.018913446758092756
-0.015296978086556303
-0.0664137086159684
-0.08366314446707379
0.04796909512735971
-0.15927865021007617
0.06525357721086976
-0.21237794371364474
-0.051268768467684064
-0.10169742353493819
-0.08718843609663568
-1.5646705818449924
0.318641523215795
0.5590899047659392
-0.2952573148248538
-0.33891866219946
0.8896746288051152
-0.15399909740786163
0.03610334583957143
-0.1944000927615217
0.33531850393049706
-0.14909293332784038
0.3176149715431754
0.19228262384623443
-0.4427920516663353
0.22088313598189407
0.11932780783155077
0.005139206374409385
0.5468349183709331
0.5674775297370935
-0.41256307493989935
-0.2996993073366436
0.21843105503771965
-0.34324211825078954
0.12169855067379465
-0.06178288140306095
-0.24058675401903137
0.2648603869951591
