1
40
6
-0.08182452975494992
0.004821775858655932
-0.3719438650931607
-0.20159013373290932
-0.06655346574071971
-0.45082387370586263
0.13156766542785894
0.6812990533383512
0.5174686565206861
-0.2407485929132802
-0.19743043391647933
1.0455352947707564
-0.11447504610795577
0.7212887658340711
0.4456917869648978
0.3839984274069294
-0.3489503577917022
-0.18188156618440013
0.18026421157433337
0.247926081030714
0.28886885506693105
0.101758004947744
0.2620423432083364
-0.33948677087888235
0.4320591510676789
-0.09384192242743562
-0.37808482080217043
-0.5954615353599049
0.2591482940427843
0.17907348320660257
-0.25131713834837666
-0.3567216101663182
-0.14246117380829199
0.262764985905179
-0.1915378092367061
-0.29240262837086495
-0.4645957532234953
-0.32744121964393597
0.036797169309672535
0.2497969761586328
-0.6529920978974404
-0.33907377472207073
-0.33107782821426135
-0.2571200564576818
-0.11555252950808075
0.474961592224083
0.21316006192440579
0.5118914763983142
-0.3412595296187279
0.196159469033486
0.332890330845143
0.37974003340899
0.01565055752673161
-0.1379818446688172
-0.056126576189131125
-0.43942507544231507
-0.5618141357281881
0.2966742844837831
0.5585151474665766
0.2479789142169617
0.3796966631665663
0.35110949843941774
-0.18173396597884028
-0.5281715638922205
0.1690136286917424
0.03959572949783115
0.25534478244622577
0.15851932801689944
0.06774005463344088
-0.0010584158758192657
0.4400702937645961
0.13584655978809354
0.273848598581357
-0.3235879422244323
-0.19726437050199871
-0.43170344062458693
-0.057250219878997824
-0.4199489814774933
-0.5234044707406477
0.49960517797742576
-0.8003569794613276
0.12547038733851892
-0.4847995818905486
0.10709447702941262
-0.3640546455984507
0.21435377369954894
-0.15927076541622423
-0.47325155337594604
-0.41319493677198815
-0.5241113144278277
0.0894158009643533
-0.7622632331593147
-0.6816478106134487
-0.37540569750470787
-0.5303222690971028
-0.011223319712066046
0.6972112204879916
0.3698749487114354
0.5126241527270945
0.4636211809646071
-0.6033666698391573
-0.21153861972407398
0.031232514496514745
-0.6462166105479222
0.13687473114784085
-0.004972575723102177
-0.35507722508049555
-0.12413800299132013
0.10308371073218768
0.10754494812054853
-0.035539041659711376
-0.2756146120205843
0.09593731577119374
0.2958140149129384
0.262642395549153
0.21855455226910364
-0.3443877783664337
-0.24788775378359246
-0.055734432875023034
-0.5105733222652874
-0.03870168407293345
0.7929435810601476
0.8283474935929808
0.5340947703378306
-0.8570542189984626
-0.45672528413317004
0.010373411243146925
0.1197765810019046
-0.24799574249726605
0.3236974322594847
0.26456909585055843
0.05451960581335366
-0.3467361598692731
-0.34330071081828095
-0.18480179217853826
0.6130783230810128
0.5531849474973302
0.11228349757251527
-0.747065939933181
-0.2154202633330093
0.709434894396129
0.07162562203307536
0.299128261742228
-0.5092913246585158
-0.6016675081543206
-0.13239057944350688
-0.13260576268697746
-0.6820418987962594
0.06315593278607008
-0.3898605942487855
-0.17032003762460976
0.009195889597672932
0.26503189914165576
-0.09211919098644286
0.4847998423980457
-0.294917407629797
-0.2896269078454542
0.49013310360962475
0.3525691800968443
-0.4748786425373193
0.45247317717251406
-0.2900980753913101
0.20805166999117752
0.3578775365807401
-0.16927705771192755
0.4040742323244018
0.19336761207935502
0.41728734517099875
-0.37329015541920385
0.18905527960561955
-0.18550474943006312
-0.09458324707043281
-0.19379585796624257
-0.2563699639535505
0.23662485672389144
0.3561537726875403
0.2900311574501897
-0.07032208511867799
-0.06092930236749326
0.07753387367391046
-0.38231868307690337
0.4207164318840164
0.15994508973869456
-0.29335190116840143
-0.24057372342030697
-0.07916949334438671
-0.004753883747372683
0.005438968991902902
-0.11037253960120334
-0.07319312698317933
-0.23317193874139888
0.04422672107670206
0.008426131888327172
0.07688305835180306
0.4580723806200767
-0.4017785316452668
0.2145075295074597
-0.1203158787376077
0.1910833696548132
-0.04208368891220379
0.3384872235592434
-0.07666404580185512
-0.42447393442240194
-0.20218220398769654
-0.22037056462047977
0.5015483569784457
0.15171574263112234
0.11232695939399097
0.6744618112972727
-0.3443927466258388
-0.06806726719185428
0.046419559805222464
0.5066625630710109
0.32240169460437823
0.544291086228083
-0.4185084795565111
0.17278670443257382
-0.16213952200335227
0.35482584926332295
-0.017130364907728502
0.37403353574542497
-0.2785688763582672
0.20056569108498756
-0.10887702324556606
-0.5672357721022891
0.10808165047551938
0.34670549429497577
-0.4372279267436054
0.36006061551555296
-0.20331977794909256
0.47981285166287974
0.41988394864559103
-0.13594828360962954
0.6913760525725793
0.8607080665020995
0.540552653292266
0.45699164140248144
-0.2934309658557164
0.553010833802351
0.2824221884991129
0.16378786475162255
0.4121004303209426
-0.1590567550543998
0.4159149820578088
0.36847380416070935
-0.5080033633673633
-0.18414342108310952
-0.22022337929401875
-0.12594392146416816
-8.751983868255223E-4
0.3600150648805546
-0.14133783398751376
-0.08746418434137346
0.13493068491017848
-0.1308722412324747
0.47055207286555606
-0.29738726885503464
-0.204221267473426
-0.18241783596221303
-0.22382670090485957
-0.362829967141845
-0.6337107696150464
0.46375993087619294
0.05916304144341272
-0.3925997481949515
-0.16282762989674074
0.13692169783740837
0.022425778554489677
-0.3622697518986387
-0.05568639369856906
-0.44572054314654924
0.1471722126169585
-0.18531554944499928
0.3354662699944974
0.0042422566285094795
-0.3939961596201202
-0.5367353461730846
0.2895570681852936
-0.48962407677999603
0.36910863982181014
0.20126858019034397
0.3779958817780996
-0.40210417215880406
0.016453457128777244
-0.04059749749432749
-0.005640325472971918
-0.4990649752460919
-0.00348239525205459
0.15746260818887833
0.49918679218641376
-0.30866151871818187
-0.008524970590911774
0.16023076209587822
0.3030152747055886
-0.6551583963660712
-0.6873905320723344
0.45222324022101235
-0.1461351050998692
0.3587066086431563
0.10245163451403062
-0.2621154895621154
-0.2561864154780019
-0.26661130830893165
0.4347450953185785
0.3613980535722958
-0.18932044972536033
0.4696491643637363
-0.008717023546501449
0.31809189161696594
-0.32291937804789805
0.02882848065126861
0.17322590647511552
-0.43627155775140775
0.40384363448765875
0.24297709029620262
-0.2746759125384658
-0.3290611051052296
-0.4531057762850314
-0.6125893310740629
-0.23660301738927206
-0.362737145957493
