1
30
6
0.8976614484955452
-0.06045715522715021
0.02534140868576173
0.01805919136231833
0.017222454712496053
-0.116868262492995
0.02575707494420219
-0.9958533211539228
0.02734355333157881
0.07403119066790205
0.002244106033238159
-0.027082207744855903
-0.10738420153757579
-0.7842206827707323
-0.1427089427331957
0.06599043235233107
0.006345868997380791
0.8717707233305519
0.03662120950754664
0.8689045978786777
-0.8340707022191797
-0.6783423906815832
-0.04753691167843426
-0.06823502859939513
-0.04289550156510224
0.939876518266113
1.2463143241214847
0.5465868155618768
-0.05517538827621184
-0.03338014258278671
-1.1097418172590898
-0.9711746194671639
-2.579591870124702
-0.8824633797655586
0.5899815283724199
0.17688750306391607
-0.7282281826925993
1.7308632630337095
-0.01857337647080637
-0.1907613022532524
0.21173897426428137
-0.2630562397551656
-0.46305704112723894
0.016731495215118453
-0.5510129200243176
0.10977987946515456
-0.02667292740322255
-0.1645251272258149
0.0366682783641295
-0.12085299428686691
0.11840415872230003
0.1120857418979579
0.37836408957065226
-0.035555946120336294
0.24099320080642164
0.026430717588146184
0.20121834837381808
-0.0017689704028857538
0.33740490987921484
0.40282471938283976
-0.021022146217176893
0.08999059427960826
0.3305009073563065
-0.03564898816803416
0.03324847258815557
0.4256305985551139
-0.06289241630810347
0.4372855913990055
0.4735046303842062
0.3052876132624226
-0.5094752335119299
0.517177242351646
-0.20879164618608698
0.17564791348348494
0.1413128768028394
-0.044382400863079506
-0.27547961241295993
-0.11500912675171691
0.1462720139444086
-0.2615185179106486
-0.8061382722881683
-0.6992176201525295
-3.3874663703333217
0.027957393939419487
0.47764848064262333
-0.1908926114536989
0.6661737715334693
0.09041536566682827
-0.2578205871477949
-0.11489538056548385
0.2385446269188619
-0.0320249880053907
0.10455110579506852
0.3320503442528665
0.22775348697103118
0.37108292477260085
0.605692669382225
-0.11260479488038184
0.23572278542044128
0.17736264878898175
0.1604151799614048
0.2759485499876148
0.8174841821789942
-0.18431916841628096
-0.42118395741562326
-0.022688579739174583
-0.39794680287791306
-0.2854171115515329
-0.3403264402303282
-0.06395293055218726
0.23766486575375695
0.14732409815841474
-0.27193646759989437
0.15021523161098957
-0.3394261989198051
-0.799973085765794
-0.2970014792111288
-0.0740772576662944
0.4889309338011629
0.33020191090104883
0.06760600040956083
0.22411899743782912
-2.0586396062711745
-1.793374214552046
1.158269249287404
2.1029245649564974
0.9322984398764633
0.24604836744742697
0.9285966832449599
-0.3962856311397077
0.10527951539886765
-0.23418059370587485
0.25458491903671226
0.09086538092523344
-0.4602439508283251
0.002124868310173132
-0.14249325547766756
-0.013347447909029284
-0.18252013838076692
-0.27159244751385914
-0.004690972080854659
0.28362443179761054
-0.1973291189928819
0.3169917416780841
0.2844552966790816
0.17174290455531308
-0.22152100243195683
0.13090117088703573
-0.021878499430103806
0.06430874256294575
1.3911200570274416
1.4791537159921362
1.3620750318488182
-1.095231545582837
-0.9183287637436416
0.16375903743592998
-1.1224655272963078
0.24374942575835976
0.3197324097017715
-0.1348598019814194
0.059020570595181385
-0.12604933999082577
0.24882381531962552
0.2861045151283211
0.5746324896109347
-2.6715900133086854
0.7923545918085043
-1.1628273424470486
-0.6631740697415451
0.42483629138886747
-0.23148827684394857
0.6899805037723893
-2.691285625069066
0.22980906376927104
-0.5768725205573884
-0.6427656189361366
1.3172335088679479
-0.874898602961056
-0.7578411869350548
-0.7979260479117793
0.48515321999456307
0.13203757784948258
0.5159137594034107
1.191898675371548
1.1232669949709064
-0.23413184293045164
0.20585927212650312
0.16402939000454586
0.025956284886102274
0.30055117854098745
-0.20261091070823692
-0.1338799236861091
0.5370841753291509
0.9496440220784295
-0.22758002495620458
0.045813083119580995
-0.28134951303515465
-0.40039890438631137
0.10618609577646518
0.17613603473379025
0.16323592152043961
-0.14041031832129755
-0.11245309223824924
0.054541558783816856
-0.2692387121946635
0.06829120922605336
-1.374845587590722
-0.3259239754163806
0.06566712860420938
0.825825933736915
0.8651237386542507
0.7841980381239908
-0.8577389566761363
0.6032868081594829
0.30187502289273344
-3.238948488778338
-0.4257775461825948
0.28961180339764453
-0.2285953671534691
2.255858552413117
0.6891122538307562
-0.3630499641571176
1.1222426001910244
1.026689261074744
-0.7675563821269278
0.6687814420322389
0.3856550529935498
-0.08904109808173147
0.1493031882899206
-0.27154220241655364
-0.026987885031014874
-0.369375196395385
-0.16454939335076577
-0.3236458318013418
-0.14837818208495068
0.13058242831457884
0.24805539699260493
-0.18766956369508475
0.24474911408112934
-0.1990744192677805
-0.20612480276799694
