1
30
6
-0.043940785930876324
1.2784323041561765
0.061107093679852
-0.8595563585396349
1.1177399912273924
-0.11696456246585939
-0.003225256406604594
-0.17990723790079716
-0.20207161050905806
0.12293372855645725
0.14043395791886928
-0.11304291745513444
1.2648485381572596
-0.17879116660018318
0.03438853529181239
-0.08560383377685585
0.044803073162625516
0.03013661303078181
-0.20819249140784946
-0.027541594574904182
0.010056645591462476
0.17254995861335568
-0.001162928811781181
-0.791297747820866
-0.9328409237202969
-0.03022093848395138
-0.5453277766324406
0.5199978919328127
-0.8190832107254502
-0.17294063040243185
-0.4768372453608336
0.07758753785829552
-0.011495243890701288
0.047834590770439965
-0.5321840798566378
0.2235514787669838
-0.24488743928283938
-0.2819533018885769
1.076142984303772
1.7387986414500542
-4.03103572749294
-0.4448064807121279
-0.5217167591645104
0.9597573378854374
0.3162441290287383
0.007659572041191482
0.10094488174663764
-0.1911372124175705
-0.13846297351090156
0.008491487969599297
-0.10204842009529685
-0.13616098468960622
-1.1211004228938608
-1.896232035427799
-2.559390457372129
1.2123251984881402
1.1547112094030318
0.1557533591983395
2.345529893497016
1.55633911329203
2.5725820124920835
-0.9231198412436027
-2.0438515191401976
-1.861090999883262
-0.37517444303012415
-2.279933342807425
0.3320247833657794
-0.07890516327150442
0.2784742817131271
0.1090630448357126
-0.1457858602175014
0.3457195446389494
0.17356451800793943
-0.28410584149771206
-0.09728768695673687
0.060853230868377135
-0.059497785027608614
0.21573012674398345
-0.06469932531691369
0.0813543635718103
0.4259222404345237
-0.20700280126246332
0.3901036615736567
0.062343410507292064
-0.08726060382706308
-0.01362239467947186
0.3202694518481912
-0.12998119124485688
-0.18758368666854652
0.21165739365193545
0.32970451395778916
0.28129028666320766
0.32930177282191975
0.676879925118936
-0.019844547916130766
0.19849956433362567
-0.31279602619106855
0.10440872869378666
0.040847822394114004
-0.15743819061627848
0.1076056101348304
-0.19327945933520158
0.4353136473426928
-0.42771428936653605
-0.32006585452967434
0.14123937696533603
0.0682180371513633
-0.3421646620567007
0.014860286328205805
-0.47770883986099383
0.01256418803725593
-0.43719166881873256
0.20035101322344465
0.09724749963069643
-0.1558922127409095
-0.4589422737108791
-1.601020454368979
4.969830073913892
0.0823819737796378
0.2705986431501885
-0.8809624603277127
0.7949088604012919
-0.04568298958191908
-0.2963580671074819
0.4592476390812985
-0.0026216185802409317
0.01045853719043599
-0.14533940048959526
0.09778849440014979
-0.17102260274795308
0.005018424147968382
-0.03798291466912795
-0.05539414124179951
0.021155490007270742
0.257011374476444
-0.15013183094911287
-0.19119048289241755
0.19627982520958562
0.5154520902633573
-0.19347534547762862
-0.04191810077884432
0.16789482746121787
-0.570858781861023
-0.08894508540028832
0.2606890483960644
0.16500353801174364
0.2380718851643176
0.09356866158141872
-0.06321692155767693
0.299912450064316
0.23827964079627906
0.18359288576884025
-0.031062819107121498
0.06861994963081454
0.03629178065438514
0.04969459293068474
0.3127773602572432
0.3981082346127527
-0.3398590355965174
0.39309129179312224
-0.022654885485981
-0.16063461108383267
-0.07232884805991385
0.10654168872181999
0.4113481919897613
0.6486040547112578
0.3034796797872993
-0.05606523398924928
0.13973251060395098
-0.1620501851325996
0.44507278118599874
0.056861481485709076
-0.11034781680745628
-0.1830122855804641
-0.10338430703282545
-0.08669344255152771
0.09955303398890275
-0.18983599484941183
-0.26792200521514264
0.32720111818831465
-0.30744464602994986
0.04564081720009266
-0.2502531265779758
0.3968183735137346
-0.31790457957783286
0.5793915273291346
-0.26652994243780864
-0.3229644041221749
0.019106798295188614
-0.167379763139891
0.10092931873979676
0.27107580854395397
-1.9053289465696601
2.9267426739644864
-0.3125105603145397
0.9851678093498437
1.168133614184135
0.517043802121459
0.3680167655684343
0.6280656239718416
3.2675492409780778
0.16729514030570483
-0.12007753265674345
-0.09424401815221091
0.2152044151821933
-1.2541502986197401
-0.24227228494738004
-0.3775821541552362
-0.009255043291321513
0.11564019351296796
-0.09654692595437829
0.02663344883561473
-0.19906757437623412
0.48020297050328936
-0.5908120753194989
0.8698839022190812
-0.4188722085239569
-0.7619593347780849
0.09121047696880043
-0.19583431964874984
0.024593931827261297
2.108869910444099
1.470892829290281
-0.0549887748550501
-0.11113477318472764
0.1250483555679952
0.2827946635177981
1.474772906425695
-0.13952761468804353
0.15488116602045957
-1.5518873099016308
-1.3941639959676664
-0.4622568958973678
0.5787854273591602
-0.2875882976299721
-0.3303836734479819
0.20160780570523917
0.40922785189428634
0.10763308104844536
0.277327446021867
0.4505405514812614
