1
40
6
-0.6104049145005279
0.18034922268126302
-0.26334573393529453
0.029779436830259822
-0.01693490602218312
-0.10183733341763276
0.05292065702907465
-0.1090371033446239
0.3091346615749083
-0.21356964028313277
-0.06797466530451945
0.07769730051714568
0.6387408264965623
0.5145585064366885
0.030472777865591414
0.047401425142327334
0.04145279947315645
0.09089632065074169
-0.21260183856109674
0.06766502671833025
-0.5714773554186339
0.7949137318734969
0.5027526033998027
-0.9186009201267489
-0.11167271395929577
1.0592629834344722
-0.6009833644918863
0.5481210575239439
-0.09098299376802169
0.6824655528403847
0.5266382778275313
-0.5590984760556552
-0.026663437940255254
-0.0055518947549807966
0.5152423347796691
-0.15196978944411565
0.868152511137817
0.15050540090507936
-0.8935727253589313
-0.39046391102587696
-0.5041250925078274
-1.1132512495333826
-1.0315299254085295
0.6127699780856957
0.6323704890793634
-0.06390097659371737
0.43573861152851723
1.286867247318183
0.08340806465308175
-0.456312013398828
-0.2064912953839241
-0.22408489161122183
0.4199913986391185
-0.2850648130365922
0.02626635253926007
-0.12509743613812693
0.36184187758872743
0.3478190492897043
-0.015940374303387263
-0.5217871202962162
0.18170642530677505
-0.5358861247184586
0.17936263879539135
0.25917180952341246
-0.09866389555550825
0.04662421421108771
0.19111134479909642
-0.1107648168989334
0.18429230964200133
-0.03188005253694193
-0.1412032811827454
-0.001653459404327705
0.1316124099303416
-0.34185008572917924
0.23276222717155964
-0.05879305105304064
0.17277787831640584
0.5256680008630211
-0.15650277619290992
-0.25882046590568386
0.3773656355217457
-0.3846994857375046
-0.0846365885508946
-0.006886393186301747
-0.1346427359566975
-0.01038327096872462
-0.1329454455330867
0.26059509250684604
0.037563391129370884
-0.06548814014995956
0.16828634485637134
0.14060781044753368
0.34924243863989607
-0.10375564937297249
-0.09949674765202288
0.2907177969293512
-0.27297164719742095
0.8060351934711929
0.2471900268208744
-0.5396392548672841
-0.3477538034820989
-0.3269096890654376
0.22015966928580946
-0.6511486904867785
-0.2388101452768691
0.8444046521030288
0.11314459371668877
0.12743810732231547
0.2172338611794647
-0.4451029054726191
-0.2004330305406171
0.12396191423330592
0.4393336792012791
0.12941680938228983
0.09673805657671623
0.006132935521432655
0.2816041219176073
0.0062785527535183325
0.09756758461035092
-0.35443747580940926
-0.19778580065106838
-0.10893408365182672
0.03037954849862282
-0.05861116010712645
-0.0017073947792453968
0.2836156367494373
-2.7889815928316377
0.4078207353597411
-0.4432605441943303
-0.5992138588323638
-1.0630232703637867
-1.4117053639238404
0.11001820224353193
2.114784347824046
1.0521176654351687
-0.32883119250003384
-0.06182541301319115
0.6230408514936487
0.15922721341188875
0.24416345846596554
0.3348927407464669
0.1989672891746578
0.32829855321023077
-0.012351942961312928
-0.1472829637037323
0.22771394625769087
0.15816738344882272
0.1719966436069545
-0.3573801510446502
-0.047245404650285455
0.05024404508692721
-0.3656216379673312
-0.19776415792191046
0.17538815207221373
0.07091633902868749
-0.04418105136192054
-0.013424095708992974
0.2349990592079535
0.09685849434929818
0.10671081786519096
0.2200467299456645
-0.5080570181001157
0.04936361803014967
-0.15196697435291753
-0.03132481886822939
0.32281553616807523
-0.05842043898210689
-0.16350375516831248
0.44885806568351505
0.06455260201928088
0.22468282690361505
-0.5506919782802164
0.40646979117555015
-0.15056993370098953
-0.2669548671967034
-0.23767872002368345
-0.38097686245225093
-0.31744627318772917
0.22700774553114952
0.21664103229016893
-0.1295435373720342
1.5984650890842227
-0.4935236015654061
0.9413411652882724
-0.264478610151621
0.10495808628663993
-0.25073035609868616
0.307763267167446
0.4623935788661613
1.4509494153982287
-3.827779761186779
-0.180589046973273
-0.26365503936435497
-0.10902592488687478
0.813780814700558
-0.3930406744634985
1.722067539710643
0.37513091173614066
1.0997101536759666
-0.4822972700002096
-0.8671897532865421
0.47701133986624045
0.35866750571901096
0.8718965889065685
-3.4712786367456783
0.41973996020305226
-0.004482433580181099
0.02614602016356853
0.10699313505267474
-0.11274274647697208
0.3934862747225367
0.41894095401116244
-0.05759053178131757
0.11821973613774107
0.07431424131124904
0.11118163755274005
-0.15133728320633608
-3.4558413469165226
0.45627819085646965
0.5883085626914989
0.3385687920535959
0.14673168449020413
2.19654566136796
0.5252211576184996
0.6967553517456552
0.8773310827721804
0.3852773431833904
0.150464951667727
1.212869886868163
-0.002805944911642415
1.206809904865959
0.7702599722818141
-0.8289913407753985
0.3916627925270888
0.04115641698838767
0.4704144097155846
0.8730375656016887
-0.2612880757462085
-0.5130146945799235
-0.18646343234674567
-0.14737712250611953
-0.31310529371172585
0.30366976851961786
-0.2708804510393367
0.02238719363465342
1.797331217720344
1.446156251566483
-0.9514238882033967
-1.5300348812656217
-0.0619400653161362
-2.3894111406728578
-0.3286296543229569
1.881408977235433
-0.09600229595174259
-1.39046426513786
0.5609205609276233
-0.984316751494155
-0.5682695732546446
-0.6384074209739853
-0.11628472691293197
-2.2736479709164676
-1.0974087621099673
0.33695673067273346
-0.8044183604740128
-0.6758293904397658
0.2187711081161395
-0.051247439262954254
-0.00869703039128897
0.17244787331161654
-0.3350461497745786
-0.012505587801224393
-0.051271759625135194
0.19111939912863618
0.011894058880590426
-0.20856927579295342
-0.18814916335601564
-0.1837351375213866
0.1572419801105002
-0.22930680161816164
-0.9697609461841338
-0.48125052004432844
0.8502356553285905
1.235023210677095
0.6407565993954435
0.43925305639413326
0.36155788369969666
-0.059031535974766146
0.15923665102634382
0.5916066774418396
-0.16077832909714174
0.08428439988356795
0.3522304463227425
0.13478499657658918
0.3946125805114336
-1.1025736600656428
0.24098814156002815
0.018084061363192842
0.2894094448198373
1.279236806674109
-1.3581649098710655
-0.16427242552594967
-0.2964306377423841
-0.21628605513788018
0.02148599761991413
0.26408941265015695
-0.31620893847480763
0.18588395163710664
-0.2290721776208916
-2.6052840643036212
1.3996234050126268
1.2169897488449446
1.2570523359784282
0.21654191094534378
2.1964270995068564
0.4801733962429254
-0.34010265504527637
0.5924386526330729
-0.2846480205156019
-0.5063824220164145
-0.3949393735715684
-0.09301367389869003
