1
40
6
0.3461951726661428
0.04768538059856827
0.016675228251868374
0.2419088628674022
-0.4079686564099962
0.3071486620162846
-0.2034516031248343
0.569154570020042
0.4510027056547344
0.24513556454976412
0.6889903746341661
-0.13104813060803278
0.3187532051323066
0.5535131731117177
4.4193544936439743E-4
-0.2823590799630036
-0.1395610499291422
0.37864373864012674
-0.2525848562994721
-0.22857238210396363
-0.2616835834582974
0.1749461321027368
0.26160319105328195
-0.3267851153686731
-0.07815782716207553
0.5759285241325849
0.5055650296720684
-0.23118849167630565
-0.3478674483513998
-0.20918149561730898
0.22585763267529654
-0.020873336580414015
-0.22402466055781473
-0.32100521668222765
-0.36133020008517336
0.004060315420967054
-0.09688575831711543
0.010697604244807181
0.02773313610679572
-0.19390756767622924
-0.6385664690936069
0.11182363441079247
-0.3884746964802259
-0.41822721860350304
-0.06304914115684028
0.24393665738453765
-0.13579356206110382
-0.5179164387687247
0.24589068741067768
0.370359410936597
-0.30955572923966024
0.18522517536022381
-0.05482068080282235
-0.4436421029934371
-0.26250085432589804
0.16819457564789134
-0.29783354546647073
-0.03540668216860125
-0.10237155247830407
-0.34600108854845035
0.31972835214615014
-0.18648828360720252
0.3339883696623108
0.2057298344207975
0.40804662704113814
0.1891772902872584
-0.003926760459405669
-0.09192075891847987
-0.2062939812788188
0.1509645456385659
0.029454330625397224
-0.24827035977385983
0.4604943409789137
0.30804549411677273
-0.020473201525232437
0.10007233308962991
0.1722831673149326
0.12749077166719475
0.29620610959861765
-0.39349270667432246
0.1234367156440241
0.17060330362471374
-0.016171411543502403
-0.3579950641657127
0.24063472415799167
0.11858954982304862
0.04748704564224627
-0.16125881037631173
-0.2641151742320277
-0.0739846107999181
0.22250169941972242
-0.456680411467397
0.21806799018391
-0.38998908620926376
-0.28762843707925145
-0.42637717690548527
-0.6188984797778182
0.25554501661300155
0.06834723548210937
-0.27043000216219837
0.2976669069459951
0.10918637271190511
-0.5787731699303854
0.15087908727055915
-0.44583514364597
0.23251915431184905
-0.4533787555816112
-0.062310494821521976
-0.11300643646435696
0.28816904550888156
-0.20516235964006202
-0.3858469590649479
0.510692696646042
0.25740295445416056
-0.272068532916055
-0.33036562535425634
-0.23757181690381302
-0.3979473982125865
0.3437836854711726
-0.4282895639675639
-0.44281514215068807
0.3873957755739155
-0.4479051319210994
0.20301702142273728
0.3775778416150698
-0.27686160226161033
0.28415071443001433
0.02032911352480826
-0.4665559883973934
0.18254024842700736
-0.39601935061015403
0.34527391004658564
-0.3579241405249843
0.2113837486477562
-0.13139480459045183
0.056097290099462224
-0.4476066618609001
0.2719627667032352
-0.4651961328922392
-0.2633731274225644
-0.16004796473827992
-0.09800696195135715
-0.2331214135944426
-0.42347976606591436
0.010981271108515779
0.38436533959256985
-0.37686281194820814
0.016916265107197962
0.43051738352725333
-0.3718805733510194
-0.014253921260069781
-0.2440216744854642
-0.0935465070527301
-0.30903199741939813
-0.49766108531455827
0.08451727728723879
0.47429783676794773
-0.25316850096118376
-0.2869013658328342
0.3389781870046218
0.3112151107055051
-0.03100195211188112
0.2726469999819646
0.4603089744750417
-0.22637127835041784
-0.3783628989868234
-0.5133014974965101
0.03706765854722716
0.14756923930107715
-0.07512791784943901
0.0369818208372938
0.2546081331579075
-0.36838480117371386
0.21131124877494267
0.5132291605886922
-0.21458285160639978
0.16176267377518946
0.11773116228020028
-0.4495766007846003
0.43271542404169433
0.2037235486598283
-0.4369107120032258
0.2553597911206587
-0.2572152423698124
0.37178000178356213
0.40857368485078266
-0.16185737195863398
0.36739455789103076
-0.22152042146184003
-0.354699494008216
0.061522833340029295
-0.072801365608755
-0.23104673722498617
0.08231861572450386
0.04825061296796144
0.30061132157074455
0.0894671663193887
-0.24027494879220776
0.07364309861175977
-0.153616174242132
0.19231479945070687
0.2629385348416366
0.18464787586017528
-0.35683360891201554
0.41390123413545066
-0.4125131431376143
-0.3251832867959321
0.18969571073098232
0.24832763871233154
0.23509955942721086
0.37673708829607094
-0.28829258507966815
0.4601789216494306
0.4425129850812646
0.13380518315217652
-0.4205493856948321
-0.013310931164970093
-0.2477308919481557
-0.002945623922161361
0.18398936983257919
0.35567882730670847
-0.040683395454249774
-0.501651469485172
0.0063374032546048165
0.2423575269989219
0.24844919387928702
-0.15397993370022572
0.020961027583158875
-0.1199560777381075
-0.48506215665471725
0.37734263905765
0.40890842393065857
-0.054422713659534244
0.35709094473301206
-0.21123682998878632
0.09957923214824647
-0.37964672193646887
0.11098068676276604
0.18230918694210346
0.33745121847117976
0.1999600037619386
0.45328940718149036
-0.13006351322276613
0.5721409987192715
0.3868291235088155
0.25164199503427354
0.3032314581218946
0.21423789258014672
0.458871851588367
0.34247724631834653
0.18168153342428964
0.3416563875606125
0.37738322740699004
0.09328434792699362
0.228082288226647
0.4322229025571507
0.42512363178874174
-0.24353959053964586
0.3438082875795859
0.10676418300372853
0.30096086448580134
-0.19778628555355157
-0.41994881730669625
-0.2073731104875079
0.054949243083487365
-0.28706761934330777
-0.15008090019553433
-0.22876346553796076
-0.48953389975104705
0.12085182615617385
-0.2570140223923322
-0.061713421380290276
-0.13974362851526267
-0.18995545787991516
0.033118580757685104
-0.4598044857652592
0.052718987319650475
-0.41471137492302385
-0.038473415008496235
-0.2522744373485703
-0.3011732476050683
0.35568249376179506
0.3450315529497158
0.22133123024852996
-0.28396704578922205
0.42845198625128816
0.21931793954667264
0.1966799664008635
-0.03960052264858493
0.27695980362541056
-0.40846343565432364
-0.3001909647689627
-0.1670005224578861
-0.4755816621490111
0.24278795155976798
-0.06587223818134219
-0.26807163167714965
-0.10267839013299032
-0.449374610600234
-0.24865369982939198
-0.16026880537366026
-0.43707024842153175
-0.1545598196317377
-0.09215926115244016
-0.012030215965482875
-0.025227136578117027
0.17897509797030106
-0.1235440142087058
-0.4026297797503262
-0.2523819170370451
-0.4319387743510621
0.4859043253088007
0.23196696190698893
0.19140335159232774
0.16719591344973195
-0.14500507233414195
0.4264977840642256
0.0684839686573909
-0.10051267884946824
0.4235330382469785
-0.09712284674048342
