1
40
6
0.041754543428684635
-0.1525832576441149
0.024801941117406048
0.09055517311591392
0.4026975986506093
0.027603300656752233
-0.5399161467221943
-0.10325126558139412
0.08543543216295295
-0.04418206689287775
-0.1345042666939169
-1.1842318849167734
0.1528808512862692
0.21560613933225856
0.02738222389713469
-1.26035264931136
-0.06828337385332696
1.2146367721479505
0.3885982421697747
0.008075238138075848
0.35054518759252995
-0.17525731294870164
0.0477552847741966
0.017126057294732697
0.024034889208735796
0.6087007127600639
-0.07634087404699079
0.0049427710411728
0.4237587076806246
0.26285517261602115
0.2580881421844544
1.1461031494135152
0.07224171835039546
1.4440244073208728
-0.09951476797369077
0.02559759448684708
-0.070383167749363
-0.06366948414936721
-0.106822631265633
-0.16456146569027943
-0.45888321520369585
-0.23110322019661309
0.21850267216247155
-0.3352783922881892
0.35595629308750987
-0.32919938531110166
-0.08396738958336265
-0.23624624972214334
-0.20956372149471433
-0.31209567553732187
-0.05988488774157432
-0.015178771648886195
-0.0126274572275045
-0.4140310708994398
-0.1705176772821508
0.32569178888138695
0.009733397351568286
0.40823769228724127
-0.11224841380499469
0.11785071507336273
0.023821684467728685
-0.1067362778971752
0.21854326359702314
0.13697494507358188
0.028866119615277217
-0.3170910557903472
0.19422889263500584
0.4809397098564929
0.16480373200049492
-0.4423151555117021
0.14105203463548122
-1.0500080747573204
0.38271605444552165
0.839849607802557
-0.3487210466565898
0.11903370018586357
0.023672520341505524
0.22338297529196924
0.07329077583139425
0.26068839335570715
-0.2138960242010236
-0.12515797997679223
-0.15433345584221309
-0.035431622441074014
2.0269648345136897
0.15247121862384366
1.13902910692277
0.5384726616838688
-0.6002798416444525
-0.2180811055704245
-0.05693755824250626
-0.08388389572453091
0.35796861602391555
-0.2214948495615067
0.2102848451125083
-0.20791737159082468
0.21292917698824873
0.23856297853055197
-0.03717311431515113
-0.20028767558981161
-0.03105541124634056
0.3727041028174992
0.047456847571566096
0.17660168717107477
-0.02193288136732353
-0.3053607564229485
0.013176109076782872
0.05040820038783747
0.509636950255149
-0.20621260494559945
0.3895616767138813
0.16688573937971182
-0.3633615623407031
-0.019898883780213192
-0.39309997634073207
-0.35288315689329625
-0.2644182502266331
-0.6286737527247935
-0.2716001032629711
-1.8309059900015152
-0.14917386349943043
1.5812702733346773
1.5387489155255467
-0.6282498793405463
1.7423218368602582
0.3844353816651618
0.36950765931279383
0.058413637672199245
-0.2880553326432044
0.38757152325706573
0.293035258777092
0.3090849075455426
0.2961246912014392
0.23359384082799264
-0.3014428633730247
0.5357678023884638
-0.5244886602684996
-0.06678112502829459
-0.32566981493862207
0.19977322833096597
-0.040861279356168345
0.06527204415646673
-0.18341832687468626
-0.013763494211977598
0.14201919414107878
-0.2772062007754547
-0.21217997417556056
-0.09918913548060275
-2.406178705918955
0.48587265181909745
0.30922259389333945
-0.0494764169255782
2.161253644704142
-0.36337806276085105
0.01756009720958688
-0.09829670513851635
-0.15506883325647827
-0.2669264711242
0.049761756806044784
-0.18602170056181555
-0.008750967312064024
-1.8802293629204758
0.8214058011626323
0.9786006193747587
0.9807632261321516
0.021471502477333256
0.7604587288221082
-1.0252467580247715
-0.8295276226522366
0.2313383196514482
-0.16412725189589
-0.5455160626369261
-0.5805082056836856
0.24879918473257187
0.033241801270752394
0.3480515822851555
-0.19375732126530615
-0.2441523440490187
-0.05230484985394227
-0.05418087252802345
-0.4868718719937338
-0.4955255248657843
0.12424508395211972
-0.7570087421352378
-0.10895605876873166
0.10843930471435101
0.4779399738095345
-0.4558912255008908
-0.18753072593254658
-0.4550546327950405
0.06581304078559554
0.4117718346018442
-0.6275846798254806
-0.19905637811903698
-0.373688853461555
0.021391654373384045
0.22075437144855464
-0.05165929041114743
0.06327574561173062
0.3029224846076612
-0.1762987015802622
0.36043723276013767
0.04108577252922267
0.052678356389892045
0.18609078324082415
0.2617730049639068
-0.13776693810511473
-0.04390554154462336
0.008721741201115138
0.20587284543005402
-0.13829981139735342
-0.08748900131705599
-0.08398013881091057
-0.07198309604972895
0.09967103167120238
-0.3633181975045725
-0.3737360169094312
2.226909098156796
0.14003493876668138
0.5401424375343157
0.014761371382136228
-0.8256303144938859
0.8036658346286718
0.10306367667311844
-0.19414476736840797
0.19411953274161842
-0.4894594203590368
0.3718737382439111
0.05546077359057465
0.08441052986442966
-0.3485011957397427
0.14901273088155978
-0.47731691644848195
-0.08018944655282503
0.19160148294991372
0.18540861794721286
0.31690544915395813
0.8753094260813995
0.5388445669952179
0.05934060488300832
-0.7787758822721257
-0.17473408021955028
-0.5114772848946678
-1.264333429574401
0.5138479459697824
0.07734064871183557
-0.26305418197986885
0.4794756491790361
-0.15017768681513421
-0.27423351397726753
0.04455064655958442
0.18471860694754652
0.13628845092889744
-0.3057129538465926
-0.1707862334855341
-0.6312094410097049
0.6826356850949227
-0.6057904703490437
-0.28626160126982514
1.7461518037465507
0.4994504053096048
-1.0274243309670927
-1.1764860154200274
-1.367036827541863
-2.2293275673449484
0.11695119176558877
-0.0904783117148063
-0.10466091742200552
-0.06330411562179936
0.2722426592257527
0.3073335991597749
0.02266412811558358
-0.18378762222919237
-1.1633730418637038
-2.4132752371153092
1.0528533056084666
0.8430900325294354
0.24749596060952692
1.9574032946693873
-0.29776772671702134
-0.3096068240067376
0.05237558410485041
0.15611172225016348
-0.27448769988733
-0.08905152000188414
-0.21049980513063954
0.15191002459207445
-0.13061499176964686
-0.10294457417641889
-0.20711227344861916
0.5804960610494112
0.3475247434169565
0.26350053854336764
0.144916065707599
-0.3861812627504999
0.20814874410336015
0.23896330129129942
-0.28802334407352403
0.1401489697506023
0.15064673840388132
-0.0884240268329164
0.4484845920268229
0.19607553414278384
-0.3434706305364695
0.04504879458332359
-0.18789135905129617
-0.04349578507116896
0.22937958259628421
0.02329637447113843
0.43081077460447514
0.22461382577193462
-0.22044431369353043
-0.19171071853225138
0.3388372697584829
-0.4227978257838033
-0.4399054842217358
-0.23277306523645744
-0.2313135337185946
0.12363189199635698
-0.1831848556355561
-0.23440747447161178
