1
40
6
0.15677889464969588
-0.011487367867068339
-0.07493037321473199
-0.25598403894211735
-0.11761042414346663
9.070503075848433E-4
-0.18131897360304003
0.4093960381375581
0.0507230325754229
0.09003933933356247
-0.18773661285398624
0.24124118812542922
-0.8708953692062955
-0.07878362020952719
-0.4787136803709261
0.290835465102051
0.055632351860478414
-0.3143698516226153
0.9538604503813497
0.36695937554316876
-0.017863912237807276
0.01203581899896312
0.1656562370902904
-1.5696141884560602
0.010881743056576557
0.0015424749144851637
0.016707470023035173
0.3731897565978897
-0.09260557363288305
0.3106217946866863
-0.3710957970310651
1.5741287343896702
0.6364556963434127
-0.05827662865875587
-0.03543184609221791
0.3191563228150664
-0.3368035416035164
-0.12132031579515894
1.4048091136198575
-1.6181851579656032
-0.5212592044278485
0.5658870530989357
-0.2813954933772919
-0.3501568466477598
-0.06336766503441559
0.24832765127074408
-0.21126625977292016
0.21929278964807847
-0.08291302886882845
0.16434160683421822
-0.11140927059664732
-0.1853462292495162
-0.057204868858334826
0.04412047246750732
-0.28774747331596506
-0.24642917267486852
-0.18400095993379503
0.26876485472572964
0.2851906371695814
-0.3597487252817698
0.2738328779719886
0.42079459058456997
-0.06519037584180497
0.26178351434730884
-0.5010269384471795
-0.09109278313940523
-0.35199267247160254
-0.12951697983837457
-0.1734962919822875
0.16626646016507673
-0.17026462612045745
0.4758246648705772
-0.5148552700546434
0.41038538833604854
-0.3157296438455746
0.3260845924762365
-0.0811236675535131
0.3568306939963369
-0.05147159301634147
0.08542198446885303
0.11508203260566055
0.07391483822476673
0.04677600160208345
-0.34004109800370996
-0.1494050661397091
0.09264362506692646
0.45865019305682625
-0.11500631562535409
0.18873047356390318
0.635166501995236
0.7792146516687963
0.6019510430779395
0.0765634110909014
0.11869734453146305
0.11189441478203617
-0.359213361184193
0.41607883822253217
-0.22566367642412585
-0.053849329796686614
-0.02215255853789166
0.34710193619403773
0.198610092352797
0.057614654339183356
-0.012057715629566501
0.052647994741069404
0.04635194352917504
0.3379879519814422
0.351109325527126
-0.24821471487083185
0.28240079970740767
0.20523174998616459
-0.3271363687357895
-0.4472306363883046
-0.3556018254160497
0.37194244041205604
-0.4531083850012365
-0.3838102277609808
-0.45023244039158716
-0.3893562369991857
0.2820337975429942
-0.4540019569592284
0.017596962957763643
0.5358434836064754
0.19629487426161737
0.18789512409880674
0.3300256693563613
-1.6644024941607318
0.0855764750452098
-0.26508972993881974
-0.1325625939181314
0.6590741813831059
-0.9732624087476595
-0.09974759025370206
0.15278643166753372
0.021290491480648578
-0.18203467658950015
-0.03904096653448721
-0.21163975693206546
0.14634451535703855
0.14337162724377353
0.4326402698422378
0.8804902186629159
0.041051704856966326
0.10869058494146294
-0.7275495493920959
0.28976164062670917
0.7830993519738326
-0.02171990993499404
-0.10251311958052822
0.12963403347349853
-0.5957291588789608
-0.4924724866114735
-0.5160192292314574
-0.12186493339302867
-0.2721047432228677
-0.1304045195954765
-0.36033615099907534
0.06290273304213954
0.47334403373143447
0.09483502758066692
-0.18104960390575586
0.2489388620992906
0.6173730065564046
-0.21257253637980453
0.34167067086948777
-0.5285327643555553
0.3553786899706189
-0.3498617699889288
1.595253061231927
0.33517654442800304
-0.6617198149520863
-0.6122461693337665
-1.346563296622605
-1.2693869990455178
-0.6665552006217801
-0.5056488838087962
0.1485376576326017
-0.33070453851401177
-0.18912318279309348
-0.5448463587166928
0.09228908468348271
0.20475162634551905
0.37256936714181854
-0.018738749700316533
0.36720279175159254
-0.17144651481219814
0.16530689831556394
-0.21556288405467688
-0.34457098332683483
0.08055286044865897
-0.18558431158791472
0.3205572200146434
-0.16506045115246534
0.15619631753174695
-0.1996251154009431
-0.015525670684259495
0.19292907434603548
-0.5402812767439721
0.15278497867097154
0.384284276943389
-0.10899632134610207
-0.28736088805325877
0.20872400291738655
0.5061675504690294
2.460370205594218
-0.9767725591636952
-0.8225149512974483
0.015279511409509533
-1.3605811379040837
-0.4044385257699707
0.4159761966373146
-0.2014693754901746
-0.23685101807579656
-0.19428278897677068
-0.3145486713988589
-0.13418899635517043
-0.31492911365627196
0.3163370154444573
0.2358718477266553
0.15498588047648373
-0.13910651844979793
-0.3557659492341035
-0.08945841391427241
-0.1238172834493581
-0.24437491645551027
-0.17832793583726364
-0.0438685151772979
0.09188081288709804
0.41292752349489437
-0.1561956695094268
-0.41178842507416963
-0.08287471901769342
0.40281588904190657
-0.605802654214959
-0.8061785660494665
-0.5712198147897908
-0.5583473335708081
0.02457720015250921
-0.4160025371933605
-0.2823803898448625
0.18142792654375164
0.28108603978011804
-0.1771443492994339
0.3945036341236495
0.35407756820640834
0.07561306822973352
0.26842747518299437
-0.4610862918669956
-0.22603308401058303
-0.40455034489719033
-0.7395533296390872
-0.497771840797344
-0.12172064456903345
0.1709300697476116
-0.6125951271818133
0.6603762006182853
-0.37707442791623846
-0.3458246244926223
0.039295478255348515
-1.5106583048867366
0.20032158826675728
1.0894123322584142
1.1036856330659859
0.3385834674388867
0.054342655624342144
-0.2181401920710266
-1.3837403942134954
-0.19053624595625257
-0.6310325508562004
-0.5015231712636885
0.3158479799722867
0.4001822114595495
0.0341022596679132
-0.10168123466758161
-0.15609947578729158
-0.11397839018549057
-0.3617510160766763
-0.20473163689721371
-0.3246334255843577
-0.008843246453915026
-0.17272621307132158
0.21844164700901292
-0.07252156733334614
-0.025718414635402247
-0.033380677987719494
0.017276095779898328
-0.11918059750879531
0.7532772733469082
0.19720351394673902
-0.682614284600632
0.00662503278073766
-0.1040221681744851
-0.056858664894063854
0.4060818464066937
-0.12885268066163952
0.5427421386316372
0.08450336683747395
-0.3497260292258193
-0.33095247908279024
0.434983544107351
-0.1454534058123406
-0.24955174168914887
-0.09772323348247755
0.10345024275473175
0.14572250187819352
-0.25272371383175296
0.2256329223755352
0.1848760880421471
1.5174932301008406
0.5116043914990789
-1.4366608322987036
-1.4277716343247702
0.2730846816591862
-1.0873297727303533
-0.18735530665310446
0.3138788896653327
-2.0878986551632783
0.4475492381903961
0.3249982655308712
-0.21034890831813557
1.5267712553684103
