1
40
6
-0.2952553105447646
-0.04197030843802819
0.9311145493491203
-0.14386778915802773
-0.15097173227093952
-0.06486872416440569
0.39646788777978864
0.05968516707921146
0.8224366201692215
0.6579700823961331
-1.1541255529789096
0.07967799377996486
-0.3942356395583316
-0.523561352928371
-0.41165546927478064
0.47382124393667413
-0.001873778813383973
0.27936581271128236
-0.16588829001798555
0.04052606156551509
-0.6101985347050403
0.8193141828025032
-0.4807852314016381
0.035990188505764575
0.12210221961842833
0.20174360838743421
-0.2129681783712364
0.29300760102733564
-0.6733775447409159
0.003788979808138569
0.05879757141160969
0.4531182409785959
-0.2512698548134141
0.34705675750986226
-0.032644510520209946
-0.183267434807202
-0.20540039907776053
-0.41795137252224657
-0.19727231915149213
-0.24396428536661557
0.11083559496022202
0.368967434729292
-0.09156616343287748
0.33595432148401577
-0.4131645637757141
-0.38206198823634835
-0.5108977805813997
0.2361118409603595
0.0038059851127510464
0.020438343471776137
0.148209507711695
-0.23255602823187396
0.3007890322599877
0.014966095235398292
-0.011450033797071067
0.12606141681574767
0.6390609480771872
0.0038850292493936562
-0.8081907433781869
-0.7261743089782844
-0.2521278295943106
-1.2554585906207327
-0.48346670527356345
-0.12944744389408047
0.1988417776994252
-0.10356094604731775
-0.27903747382551447
0.21879223400662642
0.4397572660861041
-0.4589626390764143
0.16573710019334734
-0.13968106678075004
-0.02136890485123198
-0.341462023442756
0.40775398503058896
-0.34158834850662295
-0.26462414080623986
0.42851677610283756
0.3799811363217978
-0.036367977897276665
0.06174605433774151
0.027086885281549684
0.14226550384582387
0.12396022727819453
-0.5924819514916165
-0.08177808457263906
-0.289060492509646
-0.4507916761752053
-0.2942870844131781
0.22441025699450454
0.20643268858306763
0.009970653667387525
-0.14723468196417905
-0.04302898354616045
0.30791799313784446
0.23288245578421957
0.311045955813218
-0.15322632517896204
0.6002787730086132
-0.2077417216069619
-0.5896587162541141
-0.5239203258689648
-0.2581700911271509
-1.3398047683305514
0.043335373383311386
0.6419396725861588
-0.11734978456488294
-0.7697914967369495
0.5755258990216144
-0.45793312656703433
-0.05859465114958332
-0.08128184936581861
0.776196612656242
-1.6192306200796176
-0.2851889921870661
-0.31782646536950027
-0.09637501833302252
0.43605561983559243
0.0979263049757534
-5.042750629357795E-4
0.08106432514929515
0.11564640994523682
-0.07640008659755781
0.19100446010856925
0.40655618377723407
-0.03633218195320982
-0.14436120085689705
0.5598107360362096
0.22122966682527045
-0.21044500171507666
-0.12948128792968008
0.3619072592659293
-0.3475195840487481
0.3133163189805009
0.3243817002951436
0.0017361539681518038
0.5525350603698966
-0.29564458314081915
-0.4546705244781345
0.4832031611520162
0.19158703013757367
0.6505311389664331
-0.12229838474598843
0.21095323596343524
0.25970196213330327
0.49191368984769396
-0.017886199423295307
0.47940319967058165
-0.1112246042177369
-0.6083008307712866
-0.39410380855276456
0.13207012978756638
-0.5388883343571935
-0.26586267890773674
0.20554536817216248
-0.12371093917903983
-0.2807616022593109
0.12439727797365376
0.2600646836518681
-0.13663780751402818
0.4305732743864227
0.216389806380773
-0.11415148901623515
0.5300783002050432
-0.45991246936693775
-0.43344986648580547
0.3288249393997951
0.02559852632197182
-0.04455938041034019
0.3891467777728094
-0.32600459477486077
0.08942590441846161
-0.11695342196483771
0.016576885989846944
-0.44758854068748544
0.4189665749648305
-0.3080761000789997
0.40197282297685183
0.3027579914297799
0.2857627873524345
0.4883780174794836
0.23108453859029776
-0.8267291450226415
-0.10156016578493765
-0.6552685539543607
0.7113467212747436
0.4676738827922067
-0.29351085297586826
-0.06253074444778428
-0.5940195515883802
-0.4513468683202061
0.5269329763559485
0.7624937596382524
0.4352746374274066
-0.7120488711590932
0.14614869323817462
-0.022647949507040757
0.6930348083852165
-0.227737487084862
-0.34365266851781534
-0.002118335426934779
0.4352454306344647
0.08837019020755259
-0.20823885274928886
0.08068736044556882
-0.02442401438019772
-0.056055916111808705
-0.058776500375698475
-0.018757632751598884
-0.2240991278273442
0.171298449088857
-0.40184264816130133
-0.02697660720889366
0.01951458856907752
0.3276195096235206
0.14211309295353217
0.35924899861699117
0.17031118444981688
0.149917414811192
-0.23022249696695918
-0.08947570999091799
0.1330657990583041
0.03478882611593153
-0.33341145365977326
-0.2612980391711506
-0.005729034610112803
-0.3938996190088189
0.14490264962676855
0.16794234280920367
-0.3439551864789861
0.039307520554498744
0.2291211303588526
-0.2605140704378012
-0.3224994794194977
-0.13278881216426341
0.19692019928052887
-0.5408539206109862
-0.09885826598716936
0.46425180824170437
-1.1810266159314509
-0.4634246006480349
-0.5198344395902739
-0.04011237324321613
0.1894327000280486
0.2753643418405703
0.030580687366442483
0.3162711640417732
-0.05351790419153927
0.13641200046151522
-0.360367383295808
-0.4130608128405744
0.494235488943703
0.2499232925265359
-0.2784367080225798
0.34837477474198486
0.08797650674519537
-0.05755251421823523
0.0492958747630897
-0.37705724725615897
-0.04216687531552108
-0.05517779012120818
-0.572376034086627
0.21976709696751232
-0.08757713596872133
0.44595344363658695
0.1762463431207748
-0.07953544535118147
0.19182075214121294
-0.22289291206457823
0.08965342569305361
-0.3627309156055043
0.2801530902932013
-0.33585449474478546
0.2567529805782779
-0.1312986260781891
-0.6024170515017406
0.060968837615667376
-0.014837953849654615
-0.23274490330984085
0.087867668583689
0.12439166402532015
-0.11919695457798
0.3476235512980573
0.4192856944002989
-0.30149130812892727
0.07168458459978802
0.16071641479101442
0.0061693402086554225
0.1278942677239461
0.2345817212987857
0.15889517424737593
-0.4515213448667304
-0.07619029492673976
0.3796356329426161
0.3139064898684265
-0.008299112077267481
0.08393393481492743
0.41264253362813574
-0.02198913066145108
-0.19378181510700465
-0.33832025922718006
-0.3185857905059678
0.646207897477625
-0.42148029934289133
0.2773656689059534
-0.08995769343234425
0.20986839041853847
-0.34390025367979593
0.34395859390317796
0.29111107695700955
-0.21806881595006983
0.37858741015495867
0.1321700907101135
0.048622895348612805
0.053013872507831
0.3517960809898587
0.27152504581454845
0.2137821593198697
-0.055510772048072164
0.23096278960817834
-0.11388654061967118
