1
40
6
0.20004024886796848
0.42382782512245765
-0.6450309790195072
-0.09997490804424881
0.08339072672085208
-0.12456596801660781
-0.18850087381591862
0.3267998658197195
0.32999634912328546
-0.26039966155806205
0.23094200473183907
-0.20310902352810717
0.1990762856125076
0.4898735184759088
0.10320268842908888
-0.22591608817912023
0.12875244648776726
0.05051504927822981
0.4154802320379304
0.33515665563787245
0.3167346600036665
-0.263891804480127
0.011069061089632836
0.10186347572456493
0.4977274232964208
0.007416848846725028
0.0969512877810043
0.08617069679222172
-0.2907916960562253
-0.24591617521320436
-0.11291034287337476
-0.011634173784838615
-0.3635575081154321
0.1420959687440851
-0.004702065504764235
0.04598938930560973
-0.4269916141116845
-0.5009691353690295
0.5441505848513222
0.2789727266814593
-0.7934264061003701
-0.25888067235886264
-0.1837897647979736
-0.24043032347264842
-0.32352422230856087
0.33697542685755244
0.3240948112525958
-0.17814026623779997
0.2900830821376946
0.12797149714866446
0.34487917227843956
-0.4194149005772501
-0.00725115356202023
0.21002441659150156
-0.3262041119850966
-0.22508596545391157
-0.15307787701048434
0.3301955929544875
-0.004766942692183024
0.470019198423655
0.19930139221179333
0.4845702071137675
-0.3152812617256003
-0.37725250224689205
0.03754246214215585
0.31928797065090925
-0.03250355365493881
-0.0688241547980261
0.06652363460252901
0.3326922741731217
0.4438598595470707
0.004146493350222304
-0.04034371271864753
-0.3788268732483175
-0.15360210309578304
0.32302567615894745
0.306404807045673
0.04058687203194279
0.48804333496620705
0.4954399762951466
-0.19625009584141775
0.29297992659174704
-0.37107875215977565
0.3987923263628596
-0.11748167830294479
-0.3817086580518387
0.03928938783319198
-0.44198735369796527
0.024074781034057507
0.07537163000961633
0.45116194151852285
-0.03130667181305976
0.068497398068159
0.4688843479075708
-0.11040493854222685
0.14614954626840376
-0.3579223866038907
0.36269988370093503
0.22151151725652107
0.11138717146304715
0.24237061747127556
0.4924822712007095
0.08407859618149557
0.17595245485332922
0.060244709811173386
0.17711894012945736
0.478709280659571
0.22959496044862293
0.2512151545996588
0.12218809208692731
0.20500692276020194
0.5174895494737579
0.49639430113718563
-0.4463051887540557
-0.02380093952317982
0.30976943927670625
0.31776945078408697
0.023750889321973015
0.16193292366270265
0.2824605389238464
-0.3192180729619633
-0.14966732783899128
-0.006359484575925561
-0.2847968890506736
-0.33902067631043875
-0.41745854764532003
0.06158144265767729
0.22138680689185655
-0.019381488815738816
-0.039650855283096816
-0.3180273597547765
0.13116962706951638
-0.03909361116739042
-0.15193941217839727
0.1879429325744088
-0.33299012367490083
0.2820873087499253
-0.4449858869992435
-0.38804922927150726
-0.14256141124744973
0.23350510706011982
0.16023622553894262
-0.2823289835526319
-0.01147576415174846
-0.34517402185954044
0.014201282535005088
0.18930289884300214
-0.23280344630951874
-0.49667481543356273
0.2685620613839508
0.399764050269925
-0.12507751957444763
0.1936830604301404
-0.06694359236224702
0.28129077058373914
-0.28623909376464923
-0.49696424328474403
0.3472681805034206
-0.37139182238650076
-0.2533945722559745
0.30030182714313414
0.4947910808667032
-0.38673811494061566
0.26732961188561116
-0.32665823946641503
0.0423070834857471
0.12417713725567012
-0.42166276565465827
-0.40535647840857475
-0.3685470356283751
-0.35877493570559343
0.017632234492026007
-0.003012419713558645
-0.21295555620055845
0.24780865204020872
0.3813523517247085
0.4371100788968176
-0.4057619334666532
-0.4812031264076632
0.047893384288048145
-0.38504515791329846
0.1554438216364654
0.3749483067100695
0.23972109224898802
-0.11497221237729505
0.41678962982776535
-0.14075219971966893
0.07018807214117362
-0.2925105857123645
-0.45557552197607654
-0.1766876714573587
0.4705551460763988
-0.3657217230601052
-0.3005116352518031
-0.21191969302944932
-0.24043813334370295
-0.37450117851795317
-0.39012947663421804
-0.3169548056559322
0.0202326429536825
0.0674379501547175
-0.18364128475614563
-0.3741961184593996
-0.2689873522607476
0.17929106176004111
0.10049190359071564
-0.29943696668616254
-0.3963849086218177
-0.34703331183600644
0.05465695213818694
0.10997354417150366
0.13415357838598574
-0.19369872129784274
-0.34774151804817166
-0.022167983273197953
-0.49799591969411583
0.3799961062237531
0.1066507905046663
-0.02962566923420104
0.338630977701208
-0.07355526574635604
0.003333041139815819
-0.15452770672866176
-0.1414330294932591
0.2989601972574233
0.39884017534014043
0.18328709611124125
-0.22838150976443178
-0.04413792618827661
0.0715259897305115
-0.15920109635502755
-0.29615266244812355
-0.02451120393079191
0.29658564860767617
0.2348180870464495
-0.16019096241579145
0.31848757420322943
0.059599670762990914
0.23042469440861157
0.4429037607857668
-0.08139444534315954
0.12499633313846052
-0.2915822870593352
0.049208871484125005
-0.16208990893094904
0.2557322054228834
0.34662351715741757
-0.33825999033718107
-0.17941819591036007
0.21894516092515523
-0.18715280267857387
-0.23267054689067818
0.07578716030145412
-0.1307409380420536
-0.12946572723888433
-0.07939067788093293
0.06962134209170485
0.5111842100601663
-0.4087093345589919
0.10075716379625059
0.06767636924644556
-0.35553589098838373
-0.027736833993544728
0.11398001481730331
-0.3804935531563182
0.4780992015140238
-0.2556053654432128
0.02707199995703705
-0.16482642519534987
0.24387135715470495
-0.27858870255104456
0.42076177442315615
-0.41423441525058713
0.040023753674477684
0.49403112712222186
-0.29491201827164804
0.18713461706607737
0.33884961239869704
0.1147877188528266
-0.23059140096312541
-0.09233956225769226
0.3147918027102759
0.35767055218457944
-0.46702873034972775
-0.05253143986682993
-0.2592558392191648
-0.14528106913970656
-0.03909405948215564
0.2598582163867556
-0.24651806205162222
-0.0355563638730315
0.20181770920260436
0.29663281463121677
-0.03633305695939764
0.02490527836600586
0.22611578909647528
-0.05947291318074613
0.3390848617740915
0.43115061671409255
0.06802906216055352
-0.01664802349013092
0.07323583675722425
0.06953772968439118
0.04484721656999938
-0.022861257203365376
-0.1555018321171208
0.5431960568474574
-0.25739598266910413
-0.040359310510109714
0.2074600442246476
0.1119246548642712
-0.41352353626853333
-0.22996982734778557
-0.598286581196448
-0.35396245680433214
-0.053202951220355996
0.23997302217212707
0.4726139004837049
-0.1942874158628257
0.30114410388532564
0.11305317521572641
