1
40
6
0.2535655849049441
0.10654493156513989
-0.295621781578635
0.42036203035146147
0.840714682277487
0.24919109471856227
-0.6700977784069477
-0.23653218395161246
0.42824455345141205
0.4375416346711489
-0.13675343723391592
-0.03868323831300719
0.03491322357142182
-0.13264114842203714
-0.016470817100268566
0.9637200611539521
0.10859935961250944
0.16413631122274477
0.006961243503241649
-0.02309576248505984
-0.01776661112142481
-0.31305075925793735
0.39435674182827274
-0.4900475499982031
1.3681956797836587
-0.24574472524426988
-0.0584420158567107
-0.1846332426465286
-1.0154693377650856
-0.25124784454945853
-0.20754836429934734
-0.06894831947570178
0.2815987910484521
0.006298014777552298
0.7325798899734371
0.13693675156952484
-0.08768933136148965
-0.014088907452623659
-0.20675340194957548
0.019981851381943687
-0.13425988868982458
-0.4917367188654141
-0.08069274071909041
-0.37797868728344614
-0.06820406286765786
0.15132417829079556
0.29817398598476136
0.3664335599914593
0.0715007540077953
-0.0792555081278437
-0.323204684452271
-0.42914644557393317
0.401754380211976
-0.28224891572535
-0.21494540314659322
0.03195891330170472
0.12104647043592802
0.4477542474256879
0.1718853596232862
0.102779166533738
-0.3083161962130577
0.21300473210011328
-0.0012977168401876716
0.6281692082443027
0.040677826056576924
-0.6080524859724019
-0.4213862623255345
0.30504987088748053
-0.18404121515179922
-0.22670739557653405
-1.2222407002649498
-0.616432925418827
-0.6862820645298194
-0.869727968044095
-0.12475536437681094
-0.6957876728906016
-0.09151871341664852
0.4517158312357169
-0.141551576375386
0.049461362752800185
-0.058019152390562635
-0.3925951823550453
0.2497525739756236
-0.14789337346863884
-0.9516170314947784
-0.00580897340386597
0.5915172434540351
0.8436467817315814
0.3825821075552847
0.959438560966375
0.16652587555801518
-0.3206822239367937
0.3924296076306096
0.31987619203093554
-0.2766192464388813
0.44281986712938826
0.3735374221953988
0.284970084991518
0.7119228195912173
-0.11749934660610667
-0.635102633657509
0.6502049023073878
-0.3913209486438267
0.22849051344882468
0.22813243614630863
0.46386790097173003
-0.4866151223874897
-0.45765145892151426
0.37846256489315105
-0.264427222342622
-0.3923706436203162
0.013578580585925643
0.4162293324202584
0.16967336847829192
0.014594400368702048
-0.17990308844425615
0.298877951736378
-0.4620481553968501
-0.09262666161766434
-0.20373495469065628
0.3479472456751064
0.3467496457471733
-0.32025432295852285
-0.14051960728397317
0.13196948948175521
0.3384242550819851
0.3862929595024472
-0.33784027996403393
-0.04369173112129174
0.31380351208805063
-0.45346416956954766
-0.07864871686722193
0.3729795527507388
-0.38169705051621844
0.37822995983869695
0.3171047182747855
-0.17854969272207236
-0.38052511572707093
0.21305244365860354
0.11058519726476536
0.1480460932912189
0.2364304418767378
0.005647309917560244
0.12747371696314777
0.36515782461647545
0.09504529341946802
-0.1811814578316286
1.1525598249701783
0.11574941102049621
-0.9994642418298602
-1.0452396354949685
-0.24798020034152474
-1.1562202314025225
0.14625252852272325
0.27669853304398245
0.11369928602144318
-0.20850944469051308
-0.3227320625290823
0.25907174298220526
-0.08374663827910828
0.18383816787375995
-0.05179596947612517
-0.15377503923078506
-0.17804089936035
-0.0901341560698356
-0.19144714969856094
-0.15800757719956382
0.30369341218466367
0.019574805672350603
0.14051763449752
-0.09115829818694055
-0.26739451910010487
0.3384497074527465
-0.42042661820832433
-0.2899109627968093
0.34162600768444384
0.1923234761066986
0.05347234991598098
0.07805280009586099
0.08033006921185906
0.04000344783138401
-0.2480885295108137
0.13536694585132442
0.03139478460875502
0.08617299577230693
-0.3158224389862933
0.40017718260134244
-0.24613811677496614
0.3866971488433222
0.4636242765505429
0.6516597467426153
0.07229532376618779
-0.13223957632548305
-0.10578469134935962
-0.24304823790337776
0.2994172110661695
0.4446064312370765
-0.5132267235593453
-0.35999612951146176
0.5033361755226742
0.1383426259017777
-0.18311375330221574
-0.5972960556362473
-0.47644710537906637
0.20461146999566365
-0.3380573161558547
0.07507177857898546
0.34029671750786344
-0.46602523650792604
-0.1555519823989444
-0.9739540497451862
1.8973348616528476
0.2462531835405278
0.276733173187314
-0.022269764927240195
-0.5418961592379452
-0.22870098626298346
0.3309184142978463
-0.7488891062692616
-0.4237718717422081
-0.2704414021626944
0.19883774490982095
0.13375030808371052
-0.010545183589508905
-0.16950854914445812
-0.032051676245365056
0.27462730216582965
-0.38875015231322474
-0.2684682251341417
-0.08919999999666552
0.24337731613800265
0.0418671188735169
0.17098483345210475
0.15989358818064672
0.33284273267626924
0.310914298464744
0.39605351780878056
0.17437817155287197
0.6544803304675175
-0.2738046419656191
-1.1538225427409565
-0.7186974518418795
-0.7461307805342047
0.6030747090086985
-0.098038119715664
-0.34613363359201654
0.022328672413224584
-0.3474242929880795
0.23733246577480904
-0.041581540902394194
-0.3397482079197329
-0.3701660697379339
0.46584048234816394
0.3820592100259034
-0.0730926858325404
-0.05620851062325894
0.347752949904603
-0.16924037140033138
-0.26571510174591667
0.054517609954529554
-0.36605117169173235
-0.14040848385719074
-0.34319813977626656
0.32759004384091295
0.29266740014112036
0.34127191768145587
0.3811679082022779
-0.04146070470938809
0.28885786731599816
-0.26877165440723405
0.046222663991034994
0.45640644734462754
-0.20539251873372616
-0.0890560462960749
-0.1504014716066252
-0.3316034494747572
0.4307736033798039
0.3355475337082385
0.17337154774225658
-0.30441327906453963
0.12556693549978815
-1.178917210046875
0.47541638104759776
0.06390833726504504
0.12187010565478873
-0.3855349521953302
0.23781979563754957
-0.08116384113601836
-0.2382604495389548
0.3814292391335297
-0.13848506101481353
0.08453215956926023
0.06766206418430187
-0.07604621867506317
-0.3767082483192579
0.2984886628469964
-0.4569541725307992
0.410436067104827
-0.17874977307431156
0.3877172735944261
-0.3221614519742671
-0.2283868445903079
-0.26701406705051844
0.22992158953164832
0.19529428890464803
0.018058844644173764
0.23859257164834957
-0.18501354435978304
0.2714668354369146
0.48145305624216894
0.0885697696373664
0.31339027346096054
-0.06532695139256314
0.10075152562126738
-0.3592139896777137
0.03725218123079922
0.11226982897683749
-0.42255391869769643
0.35121838851677273
-0.22337926553305462
-0.11366723126754939
