1
30
6
0.1555093376750643
0.17862633185328497
0.2727389598662462
1.148452725615908
1.0516014287812556
-1.2997988406088057
0.4405660139262785
0.026192797492708336
0.28547446131976284
-0.03331753464710848
-0.3435008825904867
0.6039444171419007
-0.6239820334012246
-0.13661002491905577
0.056126934091892226
0.44359789320036724
0.2286409675514013
-0.036140165752207694
-0.06180424385632719
0.21738000231512214
0.21792646995644532
-0.9944812168093677
0.025351272266058367
0.08275706107480452
-0.5427636386993321
0.9961886453496828
0.5725863188619595
0.20313880143079735
0.23440554984205014
0.2223703120833196
-0.4347461086639417
0.23968087560669385
0.4041345274666378
-0.2771619973886936
-0.2487549633239109
0.590727997096947
-0.4418768606681066
0.17901814254504184
0.16942963091048274
-0.6597576477700167
-0.4502807565699129
-0.3599432139561698
0.45235376740625005
-0.16325951934034985
0.20822471327620923
-0.487956783510296
0.29003601883661023
0.34095647935502316
0.471141535763658
0.5417264378175076
-0.1504595228684512
0.6747456219714784
0.6044739520279239
2.0302406913757154
0.13682906500840966
-1.7114420808059094
-1.3304784965212397
-0.7618981391058185
-2.841671444618835
0.4656093006720914
-1.9539975797609035
0.9847207716623414
0.259148957382997
0.3865466453162663
0.19566014968012155
0.411913491604297
1.1516384397328607
1.7822048663981986
2.1717434976862484
-0.426714181569242
-0.8306211905096019
-0.02713401372451877
-0.3452551492618576
0.7130801379030651
0.19258240256753964
-0.4453759386122158
0.950595451068271
-0.8379407353380691
-0.9680088748971043
-0.8686130054884412
0.18927567296744632
0.07960770152480151
0.08010753630723635
-0.022532253758678896
0.059541034399503985
0.045264415987315246
0.3330249731482167
-0.17540039766321347
0.8740565714697214
-0.2709981951302315
-0.8826995732255589
0.6046290054892794
-0.3714552680123751
-0.8109820575638546
-0.0235523815562821
0.05222854977858371
-0.32448417191358503
0.041820463211626156
0.08961814574478676
-0.2661353147185355
-0.181162836205535
0.5229306815570985
-0.4640937294441725
-0.14827906121242623
-0.24138395866567555
-0.6203726348512362
0.31324280646549174
-0.5933031711950429
0.19391108953280506
1.7491320418885739
0.22614648355786934
0.3467285341003387
-1.1298691152968026
0.14750365367556956
0.6046661628422904
0.31169073768359185
-1.7821309048872278
-0.09233674353149939
1.3243263638498863
-0.8345252753145599
-0.04375511907264579
0.09761084599460135
-0.3772131605016677
0.1467725253018984
0.3460037675110268
0.016915337041990428
-0.059792791149194356
-0.26996833785490715
-0.37578159311869136
0.21836145155301243
-0.2793078454782571
-0.24116792939002923
0.1050575665743786
0.15262002803972263
0.012965562890798978
0.378433744599878
-0.43083548032271807
-1.6128857554118476
-0.36788145333391276
-0.03376818994324137
-0.34167021990497976
0.06307073082713491
-0.04049759494566287
-0.02209611672252232
0.03812583652293172
-0.5338149292835855
0.126809483830923
-0.15289226846900686
0.42560798555423984
-0.1611011713345905
0.04339255400704281
0.5469766336768366
-0.2569648187358283
0.13584291418559005
0.26889713002046145
0.250573944856718
0.4089292312628019
0.005852766652472671
-0.05935268670165807
0.051286398399069226
0.19594782912745456
-0.04461723468870224
-0.21117900494762573
0.14256891349151188
0.4397718523335571
0.5187158371379816
-0.15592767383768938
0.14583614071732295
-0.44133026704340705
0.4389882023262925
0.3550105042510738
-0.5418149019457678
0.15393609790639928
-0.5220345673540138
0.028400142746184846
0.5439181165281224
-0.09358458985430988
-0.623921312102666
-0.21283246564755334
-1.820799105103486
-0.9568549523859964
1.4750447517049747
1.1287566855902027
-0.13974833024856803
0.5713401802374513
-0.06303405932281751
-0.0943108922473649
0.1547084937460419
0.27224942127822177
-0.1855353105837606
0.1913697097926728
0.11184225439483632
-0.06531878291151173
-3.4934012339495404E-4
0.2976267475833623
-0.08852241520781305
0.04601205927150183
0.25559523286437635
-0.001653718086845406
0.7530287872768313
1.6996752037915834
0.08743992718532453
-0.8639150827978221
0.6890247517837171
0.5082387580184218
-0.39602383476044495
1.0436453725992911
1.1549628456510517
2.248007416617543
0.5994170341393421
-0.2515736825532855
0.08522530275706958
-0.7440611740193377
0.2834481075588989
0.8151399990388787
-1.152654503508935
0.6519990714702459
-0.034777589132751405
0.14828018160002765
-0.808222059482084
-0.020658060762682395
-0.42452632080715497
0.36046757556387393
0.04198955592820716
0.22799521395375139
0.4956542619253364
0.4138137975214316
-0.18672718048058604
0.15124867427115404
-0.48841770711423166
-0.15261624093720114
0.6821407820261388
-0.5355117306083851
-0.09809739449553821
0.5092833530652723
-0.4536072627628316
-0.5825551395985175
-0.1915216120498468
-0.19836829482464094
0.42369197223279437
0.1805673756619527
