1
40
6
0.29702714363749594
0.1724206760045952
0.44221698960751615
0.21229903049569665
0.4644832231913282
0.28433769923898844
-0.20635938039505142
0.10272680353994383
-0.1470951220784525
-0.2170641377759753
0.2996712133759996
0.20540935459290854
-0.16169185759208365
0.02827570829341124
-0.20576311816316717
0.05442013573968792
-0.26013354404938693
-0.0818084076869319
0.2586309954003744
-0.08627145118899687
-0.02779349564459945
0.23407132804701009
0.4990332251573189
0.08611768071783546
-0.10613220526654381
-0.22844108924228174
0.08390986255289827
0.15103120355810193
-0.006422423366896226
0.5421938899792855
0.024368476522169714
-0.11764577393722697
0.2761082386366493
0.2508951443202114
0.04880691237201343
-0.003625976643804799
-0.08706394572589894
0.253421526567431
-0.4759128402608365
0.1910649365052881
-0.7523652454258947
0.47442671708389833
0.1807069307313279
0.1255994016143953
0.06434225524117052
-0.5353800903448922
-0.12171872508981359
-0.42642933790858706
0.4296099516482368
-0.05966862567933527
-0.37348753272857166
-0.3371263544975847
0.0737092361148474
-0.08789172494712122
-0.019327376317807825
-0.14906182725422312
-0.5278498419259133
0.24314901194334665
-0.45327125942636876
-0.07629949061072064
0.46892971559268065
-0.611815823509759
0.4668742304680846
0.06752750217352826
-0.2839822362188937
0.18063110886617925
0.023274020797449207
-0.3387337404610504
-0.5351500155524602
0.19797345681879225
0.4331880413961951
-0.1692801971674654
-0.68353380173979
-0.4492748632818565
-0.37407950892115255
-0.19651065727782377
-0.3382209896701138
0.32133522927736313
0.19806915773622502
-0.5499768043835014
-0.4964907396365905
0.32568162317952687
0.1146857704626209
-0.4324422401041578
0.5221405028771823
0.016040699687655206
-0.3156183225173336
0.06949778528416097
-0.015570293229159152
-0.10646406984347487
0.07730237475185726
0.07641609660989565
-0.2717431685137021
-0.294191686687413
0.23446249513672404
0.4235574141862993
-0.05246802708381905
0.4457762352334077
-0.21527350263355943
-0.010900779441730518
0.07968309248715223
-0.005734722058903882
-0.21668597520033103
0.37327789936573014
-0.4155337792686153
-0.15147188153232224
0.27441341917258233
-0.21395570474481232
0.33775710540103154
0.3364939332317862
0.052509672179284
0.3876958774587206
-0.2887847623438176
-0.19694359163724762
0.1025773329016381
-0.17638079227896644
0.09979940753465288
-0.2994614221373323
-0.3277711640815587
0.10464893470026938
0.479885326639723
0.027425753219847342
-0.24933434550634823
0.012945813137532373
0.1500413762109727
-0.07359612384206875
-0.20921225603350416
-0.3238030258517749
0.19807168722889784
-0.128775234413884
-0.040159294277861905
0.27120959387832644
0.1255990381931695
0.010328189627651594
-0.14515960340674164
0.08710504101528661
0.10276039784608924
0.34308122218956
0.13587319664005273
0.35433347605220494
-0.40705509414320884
-0.15747182661403245
0.13979246220935568
0.3892846838601934
0.4095061751397778
0.013752584269728146
-0.35778474556775136
0.28157469780718947
0.1513042208180914
0.12676984779361358
-0.31305514149958885
0.417308917395577
0.16487416434315705
-0.13750757713832915
-0.05528820134684719
-0.16825233465069872
0.0828265358294819
-0.10623969246991088
0.3409252349557583
0.34650408059358845
0.26527014456233045
-0.05326033198708045
0.27726798494325794
0.35278257941721164
-0.2856156005252544
-0.10509434579161465
-0.2723915479313485
-0.25354433555913075
0.0940216605538078
0.41837600736251285
-0.09248208157127533
-0.22060542487799994
-0.1507809264061235
-0.39778091061370857
-1.4976655641691343E-4
0.2679576281661541
-0.38747365968112923
0.14528598681332208
-0.3824818496441331
0.2684472594507638
0.172435011958452
0.4490486028631404
0.3686326451294147
-0.4411419401575005
-0.32018968438495093
-0.2986852953767772
0.08660204635265567
-0.3328275794592195
-0.1690254887727685
-0.09958520665800615
0.0420980322404003
0.2928517054081654
-0.1597599908918938
-0.08296247606802598
-0.25285505157130783
-0.005564251479895181
-0.3197069270763535
0.1391199197739375
-0.26617379275925884
-0.44840200899440763
0.3744792436710155
-0.424697302679638
-0.4023689635324744
0.3220674499566458
0.027412975244564198
-0.41735474130456846
-0.1693103230636308
-0.4443143165316654
-0.42900316240554576
-0.3364212534175745
0.023332438623308145
-0.06994127469377183
0.3267183279074148
0.2776647594083616
0.14244544918028276
-0.04075431907228848
-0.08795544224267932
-0.045901247647129696
-0.012016612475802902
-0.20364394543562045
0.3928140461043394
0.35217883232953434
0.13059787637001044
-0.3720695595461791
0.19902029689637826
-0.2857990267566927
-0.463826569119462
0.0350846975905451
0.3523875015444459
0.07419899438888228
-0.21869005064741537
0.03526013020136123
-0.1509963800886458
-0.46124384682953873
4.278254688218048E-4
0.34577435284079655
-0.3510433559280823
-0.14506432561000102
0.1845386424386748
0.20954458124993908
-0.3576191047743971
0.19563544360079446
0.09519437653559629
-0.07488374887736893
-0.13754476074633495
-0.3883997120967822
-0.07277111629088721
-0.539514218821319
-0.31190430878063363
0.05003353429826562
-0.6153350667703102
-0.07689282179679673
0.09032596566265043
0.1589041355690871
-0.3752906823191808
0.08526711623074248
-0.08204932915525408
-0.32126986320966894
0.11765198481292892
0.12655774617155033
0.24153899385537164
0.04939992198341768
-0.049105819014945616
-0.08632350709336763
0.23639402751163507
0.07453985337141357
0.33340464367496786
-0.18481866331935806
-0.5581981610432077
-0.4128575561498966
-0.13620408695362365
-0.14389775541948313
-0.19945377207757312
-0.16994654934933706
0.42458631665364654
-0.26744631656138906
0.019453566603755367
0.14975838223617635
-0.3645825824810663
-0.24447727839282885
-0.33767393604224777
0.36818258587755787
-0.3217753234033545
0.5523858532321075
0.283567165601493
0.1849758566184856
0.23188235572312133
0.1327220081510873
-0.5040690060685229
0.15025419495627823
-0.28946660987162054
0.3728372939673059
-0.2598480602095694
0.027288028220206352
-0.19196152381261036
0.0824182961786347
0.3442526906652558
0.3304173267732551
-0.3239754139562328
0.10640451915350697
0.10601319279978876
-0.5426336467869112
-0.025890781208555494
-0.26041977039083564
-0.1464777390542832
-0.29913847878912375
-0.22748041963171917
0.5318971976024507
0.529452496956981
0.024946883911991513
0.31476626067758523
0.0521902541338623
0.4060622167216762
0.30844290670871755
0.2827664915133972
0.3861945378610794
-0.14979697968099429
-0.3491767790810696
-0.42722667344335113
0.13093752037456066
-0.07114327042994911
