1
40
6
0.11112671810086723
-0.3561659420860012
0.23282935738800517
0.39364103908872833
0.32303969818216705
0.3936040598236576
0.06525401445651151
0.06215659451249569
-0.09919607371763126
0.45203107151799143
0.33939368465933006
-0.1168666370788016
0.5725957320697319
-0.25820981731289044
0.2700143027752259
0.19445447918856718
0.15236025623506924
-0.2922009241272577
-0.16958226364307258
-0.3707511736278505
0.3433236686232905
-0.30336720159492514
0.032148476750926115
0.35600842206098715
0.27051401928430685
-0.03572204018637824
-0.32173999374753215
-0.047677761817018986
-0.004721975493270598
0.16309041444185743
-0.22837153214466105
0.653409715336335
-0.26306951740653517
0.3847047486966229
-0.4648376918522371
0.07383964078159086
0.008719955493774384
-0.049688063226410124
-0.5549798375322388
-0.37399150611892484
-0.7783920522258818
0.14160504745115454
0.368450288092277
0.4603653880830699
0.3514842309429887
-0.19528008781535536
-0.41408573496913875
-0.2593269103361407
0.1216769621315829
-0.3961814186363741
-0.31619735727092896
0.021270471631374084
0.24286511781528267
-0.39466998843465007
-0.1422565665194403
0.2251504182435685
-0.1359742780533225
0.023517410150663165
-0.4326248569522163
-0.21914996031630704
-0.2746519196069362
-0.0656615736857827
0.34775256435339774
-0.38781697424680045
0.3611190407378778
-0.3366968452549498
-0.18387093248271785
-0.33041604383048656
-0.27334036526945915
0.1405115937936103
0.40164923268407887
0.2141718918352434
0.48580489314493946
0.23950859959905701
0.05400335715586494
-0.16989837952536116
0.08611213776142697
-0.1652093827720334
-0.20728909136316948
-0.2342198262036162
-0.06052312461071741
-0.00846213471183932
-0.32860248619043697
-0.191973075340281
0.012789350201743202
-0.4056600734627401
0.18503357869990883
0.020565984196026444
0.3674714294094172
-0.10724172114847
-0.4522382973537318
0.21161203027702521
0.3483223647338469
0.4188302319087216
-0.44415394422224436
-0.11859357274509787
0.2654710890343344
0.24423375930374058
-0.4110385554875178
0.08382897136152877
-0.40422189613243065
0.11020374407910041
-0.4599550763577946
-0.16820134995903785
0.11032291704016597
-0.3269996635669031
0.3048440803772687
-0.22727693085996883
-0.20396067292211098
-0.004265679858442062
-0.2550367130558116
0.02740781180214293
0.5214934972129145
-0.498264969123957
-0.237754312844169
0.15129076729414354
0.450159081556077
0.22639505337163215
-0.4470117092250782
0.3919882259974318
-0.10605077375172638
0.14418661170102062
-0.05169667204613756
0.44468397406920934
0.31586950798218155
-0.16736302322355465
0.029486791533816892
-0.486479653216283
-0.33409279751464255
-0.2723201327911813
0.09181646650307264
-0.28555025388925087
0.3303507456748844
-0.34033829742592464
0.35892159357132125
-0.03638806434442749
-0.13208649307717293
-0.45941607045898875
-0.019770693774393965
-0.40816354055838117
0.0773207761127973
0.051954854193634416
0.4150631632413744
0.4348547061266678
-0.27033747811494435
-0.40844940025751897
0.0635956318351152
0.32815401069136824
-0.28148242151725184
0.3266793276002131
0.16577013761781828
0.14789212925885756
-0.31787192242989487
0.4196689432446826
-0.10962606464390351
0.2756517891886088
0.018649461940870707
-0.12103256698243701
0.4521262961117214
0.30677461183414956
-0.1491987771508205
-0.04933772331043009
-0.0482684409450341
-0.34348606994346415
-0.3950771703685846
-0.34796548198827704
0.026003528336805044
-0.08936828767693215
0.3208205540847077
0.4647506506342805
-0.26595537823110454
-0.2466460501452027
0.39211022965138503
0.41538400287228516
0.06149830906642408
-0.10839860863473363
-0.4263147992302052
0.49920516053635805
-0.03587409534274398
-0.06669299018664245
0.2995484121262292
0.011127599818435228
0.35838137699573247
0.4581454134981761
-0.09729149516530057
-0.26141299972229115
0.023679604277384903
0.1556753705460596
-0.13227377955945416
0.4025815495200128
0.30897659098458286
-0.06635272997621469
-0.45467198373539613
-0.055821557669193736
0.46419684857505855
-0.44819193933336904
0.333934786431538
0.3478610125925411
0.3823443328396654
0.23861923106889732
0.4328576867129744
0.4086122996083971
-0.13440489891275378
-0.1788435531578893
0.1006224622421344
-0.3369463722193409
0.263386662828092
-0.1434161180836276
-0.4380094467837917
0.05948686540540383
-0.30534174637634853
-0.19448025182866738
-0.48202193581431885
-0.18946852696198513
0.06068647773157546
-0.41357234496554374
-0.4279707244047679
-0.2512809847610445
-0.06775592685770024
0.45717498155131114
0.3076350675145021
0.2724398068901825
0.0093961550510835
0.22683215183935437
-0.2162503578849491
-0.4269341882860796
0.16590775777707834
-0.04207583706373598
0.48964476314433886
0.13991924042055734
-0.24304482464121968
-0.19681981803859416
0.005195662698775286
-0.029339772546954492
-0.4296271008462792
0.11220614781699553
0.06509565642086378
0.4271321337319102
0.4698093585647512
-0.04172619471455839
0.35858972205372375
-0.47768689005540643
0.01636882368849042
-0.24391277795759086
-0.42235880939003434
0.3471045472446057
-0.09580834377700508
-0.2508622728304914
-0.35057343839157046
-0.19297426357588202
-0.09554140564559757
-0.007481298324971227
-0.2865523905017303
0.42957119577143715
-0.006465628376944046
-0.0950394412219606
-0.2682831692591496
0.07627361833824875
0.32226619231660963
-0.11356650515045959
-0.157684328842948
0.04102101303085321
-0.3554671683286496
-0.30416371147302407
-0.5497467808184561
-4.776767527172422E-4
0.05467788769525139
-0.3742414588939564
-0.26831209585132265
0.18354863097011562
0.5022050283976455
-0.31290028152433774
-0.36568586363261507
0.14190879854828306
0.32276298135289994
0.016880622008665996
-0.027939270408549644
-0.19475367344194328
-0.07429102679797121
0.2509383357922778
-0.15794884422825006
0.07271810894572003
0.07541263305437369
0.5045565871647525
0.3262130067883323
-0.045278490844218144
-0.12464192528187046
-0.1785695854142917
-0.488715394181843
-0.2812236258995536
0.008011829768634555
-0.187900690472272
-0.03995935648435173
0.3553192660714642
-0.04063545995503315
-0.18797670704699124
0.4168760249138048
-0.4503767894242365
0.05757456227825066
0.12495157077320831
0.25529348826014037
-0.044380139747123085
0.4339536390375753
0.0689116083893257
-0.2975844048254069
-0.317653799651881
-0.2716926785954828
-0.1543320214082237
-0.11322649935271571
-0.3950751408630851
0.1715765533239941
0.400209818251451
-0.13562872158533926
0.427287655474359
-0.20134670242014185
0.36112822056818866
0.4929774669809799
-0.09761992583920792
-0.4272757324837769
-0.2795583477193027
0.3983162930406371
