1
40
6
0.2158806004719866
-0.012143765845561878
0.0203355740599911
1.3024670701799153
-0.029243153744819506
0.710556236024892
1.3697064492179944
-0.05491156581789316
0.07601775229014367
0.4773986984432565
0.094887117220036
-0.2887576218360618
0.047568251697026956
-0.7290532504877609
0.5718676733735424
0.40357144379834226
-0.044871147424474095
0.10561530185153332
-0.0486996453815527
-0.8880147269169203
0.14397465128117318
0.03925248707842523
-0.676690791905858
-1.2986487298580278
-0.025660975245171823
0.07844390069928368
0.8544097470503743
-0.09929787742998827
0.28762018820837837
0.08540470573719143
-0.7083010114320475
0.1927520322814977
-0.1778620486013227
0.06978930450497418
-0.03825067026626211
0.08623939745762925
0.566001134299794
0.04470215873681002
-0.1515456458074665
-0.051784039180082606
-0.7013657794824683
0.12425224016465897
0.5876416600041751
0.3636476835045132
-0.005648951395985381
-0.08767390906886277
0.34159019949446956
0.0728545847310175
-0.0876490932024661
0.15549171105100132
-0.15056192975292515
0.11444522820370472
-0.03040336747764699
0.14136993218447924
-0.23041683816190198
-0.18873523298827716
-0.16794178431198847
0.22255322741293693
-0.3423457802792879
0.2488848345521246
0.02897753608843951
0.227351865778227
0.16134140962948715
2.6556956963221423
1.9245516345049296
-2.233120548063303
-2.4473774089902425
0.05567184610637446
-1.8791200547617781
-0.1789513424176187
-0.06956849455134333
-0.01704982603571957
0.06156259978277136
0.09328307393297652
-0.026513591853181362
0.27682074337100815
-1.5320392133207381
0.351977396997206
-0.011863842596885006
-0.5227816437353804
-0.8554901627511748
-0.3480905031803717
0.04371061975051291
-0.11104950108279484
-2.170769244394156
-2.4949414710389863
1.4457076238338584
1.5437872537926192
-0.007731779969936569
2.046444421715331
-0.11765089659482483
0.06250916205083956
-0.04200633278461103
0.029362361131472496
-0.03852054150154082
-0.24086099794936452
0.0782289387479037
0.17268919883614833
0.499531428373872
0.10235627781650368
0.1904248859545106
0.01806221686114298
0.02942971119183709
0.0564416880351628
0.3594228596283709
0.6532545882210742
0.2362251901006281
-1.0435119762998948
0.0031159954423988657
0.6848301975373311
-0.4918174595918879
0.398211520968649
-0.01250580732124768
0.013089346630304154
-0.35776521942880846
-0.1448546449315564
-0.12996271610427582
-0.1963297060072383
-0.15223747982434055
-0.7452921089259358
-0.5125658865534926
0.24653632034873155
-0.5953509024247968
0.058139359085757576
-0.3830734705371912
0.15801072196595403
-0.2509353059925546
0.274702685133826
-0.14096875846895057
-0.07790662143580405
0.2690265868628493
0.04160284667220324
-1.4629573521399593
-0.6037417205720141
0.16851568999186728
0.18476266560491722
0.2985474679999327
0.4375401815162971
0.08355850027516926
0.6950016950743442
1.5747332174661148
0.23747288504187256
-0.2996356140322286
0.5577530726302916
-0.597022740690507
-0.025931677041674164
-0.37605353988946016
1.0942415896096327
0.2718012471087785
-0.4811639241542223
-0.39803903765498383
-1.145303651341454
-1.175617589134749
-3.052099870901255E-4
-0.3861113072748826
0.004142377532318524
0.1408589537869842
-0.2652200073440677
-0.0012898266760131072
-0.04820208500737697
-0.4343235694364832
0.17060732414666685
0.24428111886431209
0.37710810407826084
-0.16151501804695406
-0.09276337721078502
0.2940931200561121
0.09013853812651469
0.21998668702381236
-0.44480618730775245
-0.07771646460097845
0.42746804933982385
0.05242786099090627
0.06502840297402453
0.3888239787099455
2.7020840564466164
0.7940870010169705
0.36394374745729735
0.17340751425297854
-0.38369843536011666
-0.9262430565242326
-0.03345891723941133
-0.06966113364882423
0.6012639915975164
0.2810762426159703
-0.27278568444102547
0.14085676012696416
0.21254531408856606
-0.22179060768290318
-0.11359956300072264
0.23820639830001558
-0.011706367997131248
0.32646412612664516
0.22552696166156963
0.3948044992975144
0.2786337842555157
0.12215109693785212
2.951102200013063
0.023697832073049888
-0.11626055652099196
0.2640934625523579
1.3438783772199765
0.26745203049065297
0.8572041071001061
0.2726491632292846
-0.9818196337722196
-0.3767045353960079
-0.5592975128111229
1.4494143116201834
-0.09036991767314433
0.08217816673810621
0.05475344064507752
0.1199728908492067
-0.20595452266443626
-0.13642690466688437
-0.12507168020765533
0.35978471849997035
0.2248671491391746
0.07854819745651336
-0.19944793112541506
-0.15116656152103783
0.009803968627243314
-0.2957752664962414
-0.16497420954515735
-1.8766952189964365
1.4503287863022036
0.28840890703795136
0.41343030872047404
0.12121828804465706
0.12823774343553146
-0.23777705204584532
0.07336530981907709
-0.1444031279845228
-0.05296386729028611
-0.33203202271852217
-0.08082588861064434
-0.45238978752382325
0.18705930088390682
0.16207291757964057
0.3751368899120719
0.4103968656416167
-0.31861666305178793
0.5416559311206414
0.18924985178507883
-0.456923520468273
0.21300481738294613
0.2502537233586856
-0.18176600074624122
-0.19114089458836825
-0.04640936232268628
-0.034739721121830554
-0.3589846857682145
-2.1790630736644845
-0.5090884711328599
-0.9448296506791489
1.203035397200701
0.7332627062679576
0.22181171731080787
-0.004873923313010391
0.4714806649139069
0.5205789054390483
-0.2995247208458817
0.32227697013454887
-0.0022163353113016262
0.09677822452469023
-0.47767866282278215
-0.16650694278737088
-0.3663583380145907
0.2349960137061385
0.45568637927121364
-0.8405706370011083
0.31216900270072856
0.13301986173896665
0.17186978461371996
0.3215346655947334
0.4681525805116458
-0.16097812793586963
-0.08374287030266113
0.20716804140462827
0.039763417247641264
-0.06812164946898075
-0.21259957669446267
0.37842899125325036
-0.04342319212781301
0.1555176124751246
0.16622009485772302
-0.2224203203741806
0.28425440926501927
0.3478189563104736
0.09351225891723454
0.2503159375032442
-0.45239902042008423
0.1656751076409225
-0.5157423508368384
1.5559470008242102
0.28921072471742443
-1.0100878921246512
1.003072011097801
-0.5774173128809775
0.4721987480857739
0.30176571638778604
0.2954295162003274
-0.13281386486386276
0.2712307740966606
0.0537708661966104
-0.20206743380247516
0.017749074500107206
-0.2159072799730824
0.04547468268569525
-0.438147756155849
-0.1268522876113291
-0.023619857248012802
-0.33700215846915477
-0.2342228315925211
-0.37376012723443397
-0.045908919971402486
0.21172575795112789
0.00736267001693437
0.3352373540701837
-0.26968787088494445
0.4840751068703198
