1
40
6
0.921696509262011
-0.10415072232301556
0.9599761756184048
0.009165413428128199
1.1968537190325297
-0.30799501854471684
-0.29422174582045896
-1.1787587858080761
-0.8472331123658449
-0.5122549056436142
0.6729347071010253
-0.16452780972933656
0.05019493619519299
1.291876214279957
-0.0028858113951078144
-0.1986284338596874
-0.3222551484480293
0.11481533037117653
-0.11328242124212513
0.07552182318436972
0.053196154690090765
0.13100580673142068
-0.11921095372138463
0.45134554755503664
0.6508928306231762
0.01577720341537375
0.2418655497426167
0.316410231499194
0.11950659909569841
0.11865057880282415
0.01631391925554202
-0.023143360536033164
-0.17010401284149407
0.02731285691209926
0.1781822372992364
0.04231379331016951
0.02364074402158315
0.06543705840187056
0.22724970077777487
-0.06410270888048632
-1.0064684963756558
-0.04473051101933533
0.11274242340882955
-0.31373445912058495
0.7252902681272784
0.5833195520762802
0.47926227499770846
-0.70739449856291
-0.22172344851008832
0.0016649944794751078
0.23312847397878755
-0.17720776958073392
-0.13986737136084376
0.32903863763485225
0.007663174851993618
-0.1871359208332984
1.4779846100832896
-0.5565734719523587
-0.804682486792159
-1.0599883286587275
-0.3145176659602422
-0.8780758740934915
0.20535455817185938
-0.07625709919625913
0.17084642455047713
0.17523584372432519
-0.4140392435925581
-0.10815805799633546
-0.26720033655103853
0.2773225117731944
1.0339203399946488
-2.408236239487692
-0.31989133322092744
-0.2394708585157638
0.0239890727190777
0.7950382806315569
-0.03771695299032269
-0.5970787360497521
-0.575935440274687
0.19518690418413528
0.015837258233087317
0.24864486524877819
-0.057266580265161425
-0.28118096757911515
0.8365544117979606
0.5650535679054691
0.061231939398540464
0.46567860966737873
0.06982204754897
-0.38099520871332077
0.34775111454549057
2.4287618785184275
-0.012295435905920811
0.46340524802687666
0.5247664538914112
-0.1389424817920291
-0.45679139830676235
-0.07647132092550687
-0.42790422996915267
-1.6500550490721522
0.3971794664603563
0.4511349558888871
-0.41714008957420384
0.3921494562982015
0.48339579626441537
-0.33121258576879387
-1.1057578789514266
-0.3294829688312656
0.44541596708019154
0.11348044104522827
-0.32219187364655905
-0.16897436236120375
0.8643096607655157
1.014485509054042
-0.8839205588197725
0.4780570148031217
-0.2084882638126868
0.11278562723782895
-0.37810254651438924
-0.104356694542949
-0.5807574311661122
-0.45794157781300865
0.09562270825345229
-0.05497008937240822
-0.4571794315160121
-0.0795997567157554
0.0991570478845771
0.05250851661475141
-0.38514088248345996
0.5176790800115579
0.0024764390222850215
0.0899292330983809
-0.12253652633815754
-1.2210692896378281
0.3420724191816456
1.2278575755701147
0.931562899092111
0.3993176862218766
-1.0651419258786292
0.10340518749306753
-0.2652315288153276
-0.1969895848135275
0.06602178164141537
-0.4520163160646438
0.012180803237668908
-0.04989888494051533
-0.32205765535745506
-0.33108824717961954
-0.15648386313095053
-0.14034996261189248
-0.18794350850772557
0.5299954661582619
0.031227899772884784
0.4087769563252924
0.5891610900346592
-0.47397711364315437
0.3433225992055513
0.5132955522234998
0.4616813487321548
0.582431745624327
-0.36580813900216985
0.3241476174339536
-0.4988238158363707
-0.11221352112549246
-0.45572940042687693
0.27732937336560815
-0.12413033680808522
0.01355270851124938
-0.4651964292095114
0.16825728160184342
0.20287244821473768
0.005272935218663628
-0.21921724893047828
-0.14635284125227005
0.33151306118108415
0.33605602669276347
-0.13026901425089701
0.03011881580132936
0.14785424957396634
0.045320832800171275
0.33747266736372494
0.3775396479699916
0.27394798475762333
0.4614475754121325
0.12024898535688372
-0.27154429442985134
-0.027409986991894696
-0.28518193302683426
-0.330197194865762
0.43191403874542267
-0.17086248791020622
-0.2069959170436255
0.2611183241886497
0.26535141269988743
-0.27673517009534826
-0.2046440115469879
0.026308448493245012
0.09260554328647148
0.10942512622751228
-0.3125209704627452
0.3741274272223024
-0.052502013640956094
0.1879449963370698
0.6496269809504861
0.5799478284453019
0.3596727551564233
-0.3019278346093677
-0.16448942453056156
0.31982779250584686
0.659168932008262
0.9467727398818253
-0.6936025645985677
-0.512127700302639
0.2079659349169504
-0.5631190408023854
0.2119697471838473
-0.2240847567207883
-0.17525514241782986
0.3202653571583611
0.06937472979831046
0.11845838517990889
-0.42811249023497255
-0.35453149594164685
0.3390279334336484
0.09419217087283188
-0.3131534175673887
-0.6108182713913833
-0.5236441149726289
0.5813696037078371
-0.21267425397522913
-0.34943395621249035
0.08453892278658502
0.5492077814818703
-0.04781465089868378
-0.34677107108116084
-0.5398804477962339
-0.4041107477643071
-0.05275546997238047
0.3782425026875315
0.4878558943189364
-0.3274331719149398
0.2966915892629371
-0.05351696804812446
-0.12251744318097442
-0.2072238196548489
0.018382871398483425
-0.3190202207188083
0.16435656703198476
0.31812623376880494
0.33931753472079723
0.02073125908449468
0.32152132720692767
-0.044740539501678424
0.09877969081767225
0.13926173644037562
0.2139785711706083
0.20660882621091495
0.04848568592770925
0.1720972795602909
0.251679513635841
-0.047672186568086077
0.01613795600565669
-0.21225039642534616
0.36512922012324356
-0.029330422455388243
0.46622118738937035
-0.24827135806019215
0.27325202263973775
0.49585062088534043
0.20043183514845064
0.3792625097030709
0.41189235058368556
-0.23346781312863374
0.00776806849296
0.20425246110061646
0.2441004871148142
0.49148296302618893
-0.2081089053161345
0.5020558759933624
-0.12615705801220953
0.19036663256133413
0.14128380944061208
0.2214719460314001
0.12921039521003994
-0.4752724179308151
-0.038040842247942304
-0.08005389558533088
-0.33547797905491317
0.33603602728521753
0.09431370413829451
-0.11222161732031607
0.2500646096997095
0.07692980535504243
0.07253392035910741
-0.015826292158373976
-0.35100581685998095
0.11135206978422868
0.16543818243143046
0.15741538317233272
0.03308036434504173
-0.2401640062449336
-0.47242466385700266
-0.42365646392262307
-0.05150604106335298
-0.2010850031985697
0.04906945427496529
0.23421553866997982
0.38197101603757894
0.029013059011397016
0.439935717481041
-0.5254483438634325
0.4065707420916053
-0.351844845327405
-0.20055681773709863
-0.33429970827958294
-0.39741041384809384
0.2578715543913485
0.050027129477214695
-0.2813135116882748
0.19282285211309788
-0.15202821586701917
