1
50
6
-0.427522012483923
-0.03749915569637561
0.3562003114626028
-0.07149648790745076
0.8254188323915758
-0.29899065289062854
-0.3088065669517809
-0.24144061869569736
0.31169649791277865
-0.21499382946855128
-0.24025328158231815
0.00466847708192252
-0.24833908200282442
-0.5563008833511697
0.48232906317241303
0.0838224082649648
0.038827885442599484
0.11862469509373329
0.1977697107849619
-0.3841512439648105
-0.30288903816480167
0.32329705000524767
-0.279901226416016
-0.10003179241106151
0.2799238538935587
0.21068128053660942
0.4908152051147497
0.343634956997783
-0.38075149506016515
-0.3540091478130617
-0.010182613925765716
-0.21921562501996256
0.14824796129406806
0.3454650231870428
-0.4617662543130849
0.39947645008946747
0.13995691061236923
-0.2709964362616812
0.45136696461233794
-0.5037845576872455
-0.3829296748251603
0.15308266366401896
-0.3129625569832772
-0.19132716864192564
-0.7704288713821246
0.24757559495444473
0.10938237976581004
-0.29711399434025876
-0.27417862003345617
0.2663729700597344
0.015469539579116268
0.12482048612317174
-0.02821324124640737
0.336982023339196
-0.5168643584846904
0.15253401023588647
-0.12985331699437494
-0.14964190648176887
-0.15204662002520908
-0.024073748241359303
0.09472427752948553
-0.33564800339866163
-0.002733414780653499
-0.07390456876157538
-0.2983615226423956
-0.03432041662131771
-0.28860431490494814
-0.2952839290321788
-0.4021673914831322
0.02247354669560702
-0.38968162651523064
-0.20883345665663594
0.18914093073682972
0.016220227209245923
0.01335629789967831
0.017863750600098878
-0.2133454514422541
0.3626236946564036
0.13696743945817288
0.8352099419722966
0.8049970283344111
0.32789854314190275
-0.7854807420050545
-0.654132600418584
-0.47823252516798953
-0.09613449870302174
0.21070090294190716
-0.49070528375390043
-0.27472717241662314
-0.25788873951930275
0.11388405274736432
0.12118636596527799
-0.4158802062493721
0.24285597412365528
-0.36735384370839724
-0.2981693585235961
-0.3106724296715163
-0.4975227557032258
-0.30387719825770243
0.3907756423373175
0.42662462989034433
-0.5205013379148726
0.12467606217363031
0.2635268931644244
0.002318363679170172
-0.13311263670014833
0.4722273665028379
-0.12692110682288613
0.15639525972049123
-0.0026564863276761557
0.4034028070088155
-0.19644349885928594
0.162731515188997
-0.3315114226935055
-0.22127763249216978
-0.07827279079175722
0.2958577046343953
-0.028790497240765652
-0.17088572473104158
-0.3393767804820136
0.22183392595568838
0.45963565628274955
0.3566934587246769
0.32975533722056494
0.5379851803960097
-0.18498953301417556
-0.3768333980729206
-0.2546950277187882
-0.023415904550330238
-0.05186323705166136
-0.38281101748330815
0.3227753590205776
0.41269869718908564
-0.23683147534886054
0.29569760567317716
-0.365037450377532
0.2417142074490675
0.2364011204842181
-0.4014710271672855
0.25202584461422395
-0.18112467948400526
0.3734725199065765
-0.5992869735384311
-0.4980271245656663
-0.13860059212281797
0.325314687961035
0.5125154962456046
0.3531610051375453
0.0650620621715184
0.08617655014958753
-0.3561160469313286
-0.36072862867680755
-0.6131896572643204
0.6080160942385776
-0.11568088235979022
0.48806933916100026
0.4849915334474857
-0.09627652002394521
-0.3783496713920888
4.4001664069142173E-4
-0.21530338283346048
-0.3351945404235604
-0.0016903659795471499
0.11847859229289344
-0.10051773551052806
-0.4591227527861189
0.031917492465591085
0.3858290249786224
0.2886765059989014
0.2613878077199026
0.052621023539753405
0.08096359418809652
-0.3708229961292919
-0.4634034885288132
-0.05053462174631792
-0.15080538737538696
0.13341958920720498
-0.18624873357295105
-0.006215667582018901
-0.077868034211962
0.1674114862850257
-0.1571424526066916
0.17881663645071486
0.21361733219044202
-0.4660323102872717
0.17710901682162727
0.3340705002918367
0.0072282245556432355
0.17690005251053184
0.296123993711924
0.4831243225133605
-0.44632541526623043
0.09634931145663451
-0.45460299814501703
0.16397765438593426
-0.34842137165465253
-0.026314690196666938
-0.017643044086468277
0.34994188967825285
-0.17526663716647756
0.03420548630839862
-0.31416605346278953
0.08523866362358073
0.3508175411201081
0.2285110334459315
0.25855146617804736
0.11696355673942525
-0.27081328729740045
0.18685311524104253
-0.13271102804255439
-0.2361279127035337
0.33458551125827163
-0.38017891089992756
0.46839272801061554
-0.06283550241512892
-0.4421650921728299
0.3665740811487529
0.007392355338167069
-0.45136214213445186
-0.14626894805720725
-0.14272494635125044
0.3368720825055815
-0.09238199994448587
-0.3600172667315033
0.42415476909098243
0.34582971610882884
-0.20311548434698717
-0.07264538520719563
0.2717705181045025
-0.41425845467176686
0.02408293456992772
0.24680025936789043
-0.36005213799501656
-0.2861146299967338
-0.1826116584530542
0.0330325687138666
0.4518099143365174
-0.5221391625725447
-0.48168862375871163
0.33644296900563625
-0.16531294800582427
-0.05626110824845342
-0.2680756708010426
-0.45845035781590393
-0.5044618436754813
0.13648029087877267
-0.5136868146002945
0.065360509375468
-0.3489992915544881
-0.023862252453542322
-0.3088985033741597
0.5368965238334457
0.5268661925408692
-0.46313991857245046
-0.3034981142162122
0.11820714657457042
-0.04295935364951617
-0.1561101498363815
-0.2730755926200592
-0.4918277097388903
0.25919748273117904
0.16907698257571033
-0.3316003918171652
0.2020226137868145
-0.2452843397142506
0.04423490001016614
0.29151773745081655
-0.4178824579673869
0.05763367229211158
-0.06655149104821398
0.4597506529290332
-0.11005722309600234
0.1542080551923082
-0.32889817700448193
0.5002279493779802
0.10254540372768965
-0.07345817535901157
0.25875640276923767
0.009009930078504664
-0.0408382098598024
0.338396533271741
-0.2365757869370154
-0.34841354803883207
0.44128225337652294
-0.3479335176004499
-0.35184736356915025
-0.028475027992159747
0.29594164062200257
0.08229165961610975
-0.36447464333652313
-0.4375804163215339
-0.4759634990403026
-0.30413729115531773
-0.40710265490896036
0.019150876282273736
-0.197013055915425
0.09053980908058509
0.04976386367407744
0.2986068599006831
0.16244467186526487
0.5094266635850181
0.33443533702081724
0.09330608611775043
0.1596902404384566
0.34663049203626817
0.2297469739034526
0.4186850532222341
0.4466102123755231
-0.17179911859284122
0.3392782571541676
-0.3170273679792233
-0.38194611037426957
0.21890413247144885
-0.31122814437360036
-0.06231935017073361
0.1278257616134175
-0.254655435590404
0.2872236193563298
0.17884617999253835
0.11970893015693179
0.4522939918068701
0.585543591214423
0.3376055948227088
-0.05998423875290003
0.27324971583413593
-0.5226652120715842
0.3058110104296591
0.11291630727490161
0.06009444202960111
0.35218657501222356
0.31891741158553344
-0.043719444560468466
0.22921098735852535
0.1044162671985736
0.4201649468684679
-0.37845049655021845
0.47334934741185253
-0.21127212680474367
0.48568040352323
-0.3026925416874861
0.0919516870312642
-0.3279964258267363
-0.07776097879829141
-0.3397402804842549
-0.30969413744138535
-0.1484293244564217
-0.2248215570928168
0.4871547881790408
-0.03197896481626047
0.1931836556389557
0.22449307873709107
0.2519284371854602
-0.36836937655847957
0.1779172457144165
-0.32867499178477017
0.15038750268709292
0.21541809957109984
0.27286144245151894
-0.18147689528511013
-0.4297843055702409
-0.5820571327755625
-0.004809481897363856
0.7174371580055784
0.7919522238048221
0.08443680790836301
0.47999705220454153
-0.030965296550165756
0.41029262187901167
0.26543470515602974
-0.3094672489128252
-0.49248878887272846
0.32680930929600227
0.06743847177141044
0.18136172993729321
0.45120464472154576
-0.27908352882918375
-0.15438294163070782
0.48145340080806387
-0.08587364240724765
0.4813942588215739
0.44541348206977477
-0.007357427581789994
-0.2820590630039096
-0.46300204130980416
0.0976066666448861
-0.06855342002242992
-0.038693545596423684
-0.15728821983982996
0.4145230849852078
-0.22789635448108586
0.17470386904228133
-0.34427269129151866
0.22236455950227282
-0.21895417416201893
-0.24126279469549577
-0.4369626047104264
-0.23618208822233736
0.3388628769120781
-0.101926020548827
-0.046598245613301226
-0.22856555042911725
