1
40
6
0.07510164489025635
-0.1675394366584168
0.21496811756132292
0.04503288624756333
0.12315300324146584
-1.1865353079031418
0.011120902140279202
-0.053042342385503406
-0.7386192454117229
-0.01578964491474976
-0.03410345988247935
-0.12709699621147696
0.06187946904585096
-0.028568704488339508
0.1100273099629706
-0.6378853917280977
-0.10120589053960988
-0.18033690301120353
-0.02488075688860935
0.14602964286958878
-0.09858121892215947
-0.12976626178304057
-1.1027759362848386
-0.6833716275967606
1.2030358785503394
-0.11557558653215681
0.42180685774771076
-1.130411344427276
0.36764857515637434
0.009607426119233518
-0.944981268078532
0.09458556152486351
0.8445507332814289
-0.014727927430110935
0.036537022450915745
-0.1057426810119907
0.08354264738925385
-0.028914821632011763
0.33509595684798954
-0.2891488626075684
-0.900181170582774
-0.349372640107991
0.06097882167091848
-0.31106064646708304
0.15870198941767732
-0.14317336859491608
0.06572813077858222
-0.1789721624476193
0.15553979452344477
-0.775505020550468
-0.5319595856883709
0.4372017414377856
-0.6653622045160559
0.4207272330246992
-0.09089565516588151
0.23402220276995506
-0.44015944311859057
-0.5497506205225265
0.1994934723869574
-0.1685434622847788
-0.26927086305031805
0.0904724356444882
0.2606434592067033
-0.03394996539414168
-0.2511891492089673
0.2131886099720978
-0.268154768568775
-0.10202825708385937
0.19754820534085102
-0.09111921943080545
-0.4030919718687176
0.25440342580761605
-0.19505654533134037
0.012018446702008244
0.27949395256224635
-0.32963387360907115
0.40458373231519673
-2.258282350046179
0.2644079405479057
1.2245008673224416
1.159954117856548
0.5686597318913
2.25471749018525
-0.03795366959546853
0.08719906968331036
-0.15827997693695797
-0.15497288104518006
-0.2787930545795469
0.209885179261081
-0.16000827596913497
-0.0814555553067336
0.24673527086620753
-0.1527811283495612
0.17360547006322793
0.11066275878200399
-0.19458329769259244
0.16461780617323254
0.17824895485925266
0.7348968900708814
0.06655462866364771
-1.118396929451003
-1.0489551373080257
-0.7764307136260883
-0.306481465570867
-0.36782907339785637
0.21436585870405694
0.06711373360419884
-0.17640265501127803
0.1572056242574604
-0.24919294112505047
-0.12230776009266342
0.28340021350392014
0.3337606704958843
0.06483063839761684
0.23822847500484493
-0.26842328174763586
-0.09784028159195343
0.14334199955716315
0.05777111371459612
0.32281456478537746
0.12382096785176958
0.18791633438336003
0.1606223170039261
0.12953115070334328
0.09012114374913471
-0.22902428690228405
-0.04308054545928927
-0.08877567310334619
-0.19116654384669143
0.21849344232763504
-0.12366889300124863
0.03158933436623659
-5.938010789601732E-4
-0.06712429580743093
0.4576682585687526
-0.0143939190985982
0.4563997332204417
-0.24085543525717715
0.22111226591467895
0.061155376331660904
0.05563396471049379
-0.28602440833716014
-0.22262346718033554
0.06444528810549363
-0.2627285709692915
-0.14081365941471727
-0.175778413383122
-2.1051636583292317
-1.3565764336688015
0.03309785330717054
-0.36930946261034714
-0.20576670826409665
-0.8090753927688616
0.08553986945470232
-0.3923156691548662
-0.08800380641018342
0.26058959442468815
0.019516614006466454
0.4547294633413663
0.38088244933362186
0.26087966115078426
0.08577480103365871
0.3668126119901959
0.188289098035256
0.3219148414085521
0.33281023395286286
0.1074870634800176
0.10365368368931162
0.10984149861404865
0.05966196052596497
0.2725083163148107
0.11448766116261797
-0.10477477827426103
0.3476490460849177
0.10894503125344215
-0.45426986943459513
0.3225316652206824
-0.34362553253376044
0.10460206036885476
-8.834061930391615E-4
-0.22588127580889936
-0.19419375552514695
-0.06364012530902952
0.22409466586825333
0.14095196322270445
-0.09883219620591084
0.3324791494762014
0.031464587371647444
0.21104788855964068
0.03863367932079931
0.2599666811819843
0.25073821833304877
-0.06560876480195466
0.17395827719963383
-0.06350793373421516
0.0818683979701641
-0.4627600270091915
-3.1459776150706293
0.5363279435543297
0.5632306235837493
0.08193077174465131
1.7409464234431835
1.1610522506258503
0.08566056807802411
0.202547416358599
-0.6321052749649835
-0.30403299828486424
-0.16171719279533445
0.41878674720373227
0.4927128086138166
0.573147855948917
-3.1352563258923607
0.2009767993360075
0.13500341278867806
0.20383315347290887
2.2236888579028977
-0.15700160052468784
0.27037051713052096
0.0791475700866727
0.23328139964624378
-0.09551019116957567
-0.2837005578767347
-0.10980178886027307
0.6023047411253695
0.6216368609477785
1.649883883431696
1.000654168136361
-0.5520490168432067
0.7698111195656518
0.9722234949023479
0.2514060652401214
3.2881190537127423
-0.3242859997113075
-0.48955206984106
-0.251089608834438
0.004872430662987007
-1.9405608723716818
0.8070175467650218
0.23912091736198965
-0.10859021539657525
0.6978870794247853
0.30290344012058806
-0.4919512446031149
0.4351361530144973
-0.07594536835114375
0.15470508747072861
-0.14812824274688313
-0.09497676572082413
-0.03610861120324892
0.055287613045856485
-0.1093864609736841
-1.2473361019675941
-1.8899831878894169
0.8385197885198314
0.9110644434130871
0.48728659376873196
0.10463846526166694
1.4331931190991662
0.286885728963553
0.05345945503808286
-0.03129807837861606
-0.292576442121604
-0.05656664335494191
-0.2695875081268213
-0.4210953641898886
0.10893912407896489
-2.1590902574533994
0.1315999590598232
-0.6567304779456699
-0.6042914969675043
-0.6900502071310363
-1.0509276149488809
-0.25684232162930903
-0.3382895936840182
0.265355110613865
-0.36576028341944516
0.07391969336760562
-0.19629739295174511
-0.35334607549213726
-0.005455259185155439
-0.16737025655797874
-0.003300465524347475
0.18083657032498537
0.2730966559415441
-0.07797264938668962
-0.07435486841771327
0.11797632340849007
0.18936693731399543
0.16856838686362446
0.30512256423390155
-0.300733465058654
-0.0542624594355611
-0.04195561633224187
-0.31644136916891596
-0.3502374791787848
-0.2396437687588839
0.14952163268795507
-0.2508883406904295
0.05919415088154166
-0.0998614253962759
0.23919521801279456
0.25833919822973345
0.09434765487274599
0.10780511830413397
-0.13810156403830431
-0.15937645298248027
-0.19359486419200903
-0.4963936680898993
0.3693744166469222
-0.737394254229598
-0.19467950375635237
-0.20798746878588373
0.23012117549325165
-0.2665031283921793
-0.3566832800942684
-0.46389078500182584
-0.0318397174505447
0.7579654884470484
0.04470713756214527
0.19710254524386847
0.8936160268456511
