1
30
6
-0.5394019564070207
-0.005338692265626677
-0.18870036855960443
-0.031568368608331135
-1.1456119029158205
0.7627428571615366
-0.06873344248748357
0.10191493714727487
0.006567868614671881
-0.7167690207800296
0.05865782335617229
0.04330438414144069
0.11175284906487196
-0.09352707614936628
0.06580417815461442
-0.6542111356759193
1.13812311270989
-1.1367504987080286
-0.39776959690618807
0.05364484716734643
-0.6132989264803429
-0.743676057149147
0.5209124617445289
0.17393192925428475
-0.045661907104024575
0.09311711575539991
0.031700493295937715
0.19582564368857067
0.13373590383556844
0.7078894327767854
-0.4775569224813998
-0.4321565300126607
1.0667732950939812
0.14681761971609214
1.173892360454539
0.4817088495020813
-0.4712217222451807
-0.3638220099427507
0.11087753022635741
-0.06756124888501287
-0.09936114543497697
-0.02160897818126387
0.14221814579088735
0.331414373526094
0.442295102228118
-0.005352549760147608
-0.4479247308612574
0.18442167641628457
0.566139438035289
-0.1253291571515006
0.1842748513220561
0.3938678299173733
-0.40508552155050637
-0.16283326237630127
-0.20630475773627263
0.34072879843740156
0.2088871779706939
0.12577983577687246
0.14514276545029436
-1.1876494676605762
0.18141189919423867
-2.304608173513073
0.2679163773783851
0.6586516632665691
-0.4048470050706885
1.1905607719515512
-0.05003831487730968
1.7155344216541903
0.9024425481960506
-0.9556778265497615
-0.039868508506366966
-0.08646432542467379
0.21461852281608879
0.3048642703272846
0.3850455536970331
0.12587482638480682
0.25914526060417137
0.1593273454020608
0.20611972547043242
0.6033180907012128
0.383577480174928
-0.04790760673374175
-0.39190682818745187
-0.15113589617274567
-0.3207141652417474
0.3508373479464865
-0.053682292604436695
0.42906992153262896
-0.27380265474225046
0.23354607890174459
-0.20287700184989477
-0.06510266555235023
-0.33316322642270246
-0.055387692678100904
1.0332205952164635
-1.7503008090871295
-0.3994077529051979
-0.8046039236947462
-0.2634299076667546
1.1973502410789612
-0.2356792658995369
0.03796114897648634
0.1377424376307625
0.11359452735813325
-0.45427217343013887
-0.12113329113162269
0.20015153393966567
-0.4776142233251443
0.227746929710813
0.3563626572410945
-0.09824008081556823
0.03214208739960865
0.11139856683589232
-0.11433379336301888
0.3392664952179048
-0.2604500469270358
-0.019103393730942803
-0.35710196984152986
-0.1301054387055056
0.3726186469304726
0.15330273726541366
0.1477990002791114
0.4377876948079393
0.15883256546076047
0.29394559502680173
0.13824708606406574
-0.34779538696855755
-0.27529160018685517
0.1696005547459732
0.10591019202198987
-0.032092488522214885
-0.0687965156403176
-0.24143398891302098
-0.0714539034081066
-0.2511384350787364
-0.41897977598548125
-0.19445859551709713
1.3922575299033357
1.3284052641984025
-1.0985725953112293
0.9590920016897457
-0.1750949020539634
-0.4440873603195563
-1.1697106409757778
-0.6776598090797915
-2.2629797948054295
0.7600449612790003
0.9633943578866976
-0.05870771768650746
0.44433280527152685
-0.59262134770065
-1.8727842408638005
-0.26530180412722404
1.3543438346716057
1.4650335118877225
0.8949915028224049
2.8640002506572655
0.310841956303416
0.5746630595115573
0.15224466812095133
0.5880243410058494
-0.30246829256189617
0.5022545526543912
-0.20652606484287275
0.2187053782132412
0.21437620228329926
-0.2993629645720582
0.15325935574482422
-0.2287639568613886
-0.06389385237849057
-0.1800993991674375
0.4822508075575278
1.1766079251118575
-1.9758733353731277
-0.9809798257190672
-0.6881417452828542
0.21969621806449957
-0.7410872815388833
-1.07144289578526
0.6111052790101553
-0.7937251553396318
-0.003253776666784682
-0.8757748143003689
0.3804646484054038
0.28617420904559393
-0.3915089904255653
1.2899578317136196
0.039604379107986865
0.7911907462898219
-0.8459828948944803
0.5060742490765469
0.9825841915262429
-0.5807642580239533
-0.130077831284075
-0.6179071671337895
0.3727910223207454
-0.11558847032533653
0.49394456683405047
-0.23194851874682776
-0.27561097118418715
0.3846693713488948
0.2204025210609123
-0.11936627191319275
-0.1316487317184101
0.043546159761233494
-0.423272186192222
0.4148323162508057
-0.077437956335933
-0.4173479380628056
0.1378963078579646
-0.20068643500482797
-0.03843815755312073
0.08783026604071419
-0.40512744491941693
0.009680723369326119
0.09750499431797563
-0.321464177344622
0.21030712722413497
-0.06674758477933415
-0.3368910186539297
-0.27508819230017056
0.5429391558518926
-0.22043632732996524
-0.27458242383877157
0.5331629564968264
-0.27658000511700415
-0.10751788504092634
0.09981238253106879
0.12721223499305565
-0.4093044853840368
-0.21068303092352117
-0.45644704843896994
0.4573800889487436
-0.5070732871087051
0.34132573135040384
-0.4533287837340253
-1.5278243544499686
-0.6092230177184269
-0.47039578524552667
1.0525533241561857
-0.8533918408194512
