1
40
6
-0.021083542661945037
0.05260529772514935
1.0659821722241922
0.10174424970412531
0.1853444134396055
0.1641982097624214
0.7389861588804048
-2.050570950820548
0.29469769712113636
0.33426847500831697
0.08189901925064035
0.6137777069801668
-0.11519880788780033
-0.09510985538336611
0.18565229645781361
0.7378964516613125
0.07439342103492609
-1.996370614122576
-0.045930213330868434
0.04652140488943668
0.05598840976293655
-0.10434027195487708
0.39826255895747525
-0.016582148538784366
-0.6656428048544836
0.058724742456465494
-0.11969770972407104
0.17809013680543287
0.002983430814712115
-2.2210570175017974
-0.06392788688302384
0.1468924601269721
-0.7437733464033314
0.10833212395719385
0.28509456271283723
0.9059414531700962
-0.1844661064532735
-0.6436429197291054
-0.06886674645075583
-0.030055487596385183
-1.35153049629425
0.09357185430113295
-0.07307379431799697
0.06304109712109444
0.04556529383567365
0.23614167302589473
-0.18209064559963703
0.08458689253601646
0.11462246075436368
-0.31628869394738224
-0.09726721532387404
-0.287768752008426
0.15198427838744857
0.33606787447695974
0.03104397090709438
-0.2771641985749607
2.3698183494860356
-0.17854094920943994
-0.03822150008053513
-2.0451554241169823
0.3312186044003887
0.2865405363026036
-0.09055605340671982
0.06884684264801982
-0.2507409461214452
-0.09431996199144663
-0.3022649114681908
0.3507757346652328
-0.19025309486177286
-0.2255393207276235
0.3576886068073095
-0.14722189547322687
-0.3298015102477979
-0.061295468168636
0.3852358559349575
-0.15873725265995503
-0.11796665952737513
-0.04018762573064499
0.027910258017579005
-0.6227336128431713
-0.37443669699089366
0.335525206174439
-0.6521475549962137
2.8750053414598495
-0.19353353705329188
-0.6702747368832784
0.3130976478087357
0.2697992372932033
-0.17724483387616252
0.7194562997578696
0.1569464558883285
3.650427711360004
-0.08342768791450615
-0.5469361494405739
-0.19670701952162506
-0.03027165943952195
-2.0390248203287973
-0.22169706506034853
0.3765583476373857
-0.17685276124787772
-0.4853631323062441
0.26991173035981625
0.48012866910648705
0.30963987448013747
-0.5387232340985194
0.17561165658843395
-0.1738608323559003
-0.4907903453832046
0.1934442083709228
0.2050692219360737
-0.2856514376642416
-0.03546331019338239
-0.49314130659242267
-0.3356330724756323
0.0729297105836179
-0.2391972070028594
-0.02360885759461323
0.10535421521518902
-1.0181774809449227
0.2711118599721019
-0.4633381554731983
-0.3501642409817609
0.326338964919503
-0.561473509836424
-0.4328803414007723
0.4850555007140176
0.3002919969799307
0.042892550827418996
0.1312110229938268
0.20758620165746308
0.028659316755011113
0.017794139716733576
0.21888583053041968
0.20033893498116265
0.2319838847122542
0.08126212756565875
0.07384121504280018
-0.017213787334032893
0.09882146086377842
0.022060405232995014
0.20824549310711968
0.6277549198874914
0.17991254481389674
0.4723533994877943
-0.2178062241514065
-0.273804872695046
0.43319487216928293
0.498244213091071
-0.3888941438516474
-0.6018690971472781
-1.1678948906119853
0.3526894095095468
-1.255542491273626
0.20574611924896366
-0.7664770029474877
-0.00440778625104199
0.018974204143642055
-0.04142577076581787
-0.5135145038523709
0.23932238880549275
0.012182224713256397
-4.216323021728231
-0.2282466925320641
2.945632442238183
2.0471104956708808
-0.39420182053340486
0.9227498635994934
-0.08740147609015803
0.27633047935415944
-0.02849707479636316
0.19057265007314428
-0.2173232301251016
-0.07842472702894526
0.07154467148580515
0.20111798563421382
0.36734745482324377
-0.03517192091976353
0.07499835543213007
0.09936451122846719
0.034641936563549205
0.32856572741334966
0.18567384520762772
-0.22257854467771548
0.04903483026480295
-0.2154865069704951
0.4376292078703113
-0.22102108588946434
0.009828998876217982
0.4067570952973644
-0.21675874965363948
-0.23804629385560247
0.13569090550047994
-0.2464531486960117
-0.467174150853487
0.33001760295759086
-0.004819395341548018
0.2729942693926283
-0.34005972614593216
-0.1440831517368075
0.3623770084999625
0.7290045286167673
0.36135455347346007
-0.2688736146646778
0.2945274715457229
0.09440779700428191
0.0041525313589964585
0.5187179423177177
-0.3032421543038509
0.43285142115678404
0.5256914026428725
1.2555812341049783
-0.032715593599251115
0.41596753859943647
0.5853023654840251
0.5118927750040803
-0.4786697932219133
0.11797492272171828
0.2091520800484542
-0.039204902339628
0.21895721258978884
-0.02636543844114942
0.47752096344811484
0.2560664021289704
0.5372393780913828
-0.037289026465675605
0.0458936879517642
0.05400222291829943
0.017525873768105993
0.25835753940222106
-0.1290918969681233
-0.0899608776832169
-0.12285249163642138
0.2329061026619034
-0.46076461578455863
-0.03184098541771506
0.6064703995176176
-0.5036453344920203
0.40023702690866475
-0.40880368790828425
0.0378462944072334
-0.4619812563320879
-0.0571770112211663
0.16888516504313977
-0.29682825686215825
0.1334794323624676
1.6262286352913586
-0.1559088301660152
-2.6704888036693673
-2.5664993083851595
0.08541153928396233
0.2641005231329251
-0.046523747123414894
0.44809942350390086
0.023767273482675946
0.0928701424255009
-0.16119290820045765
-0.022352667346383245
-0.1332953266659152
-0.2718272152005871
-0.15460651184528812
-0.18086224692828817
0.12077035099924391
-0.03035278550612191
0.2726063247490598
0.22495306041950713
-2.1294378019944378
-2.3014034095329006
0.5923202370737485
0.831908437443774
0.4329077489165363
0.31121339659297903
0.8650649569169707
-0.22677872506520438
-0.09934448654343547
-0.18936081473310745
-0.18193323260523328
-0.10215492954746355
0.2518724942791342
-0.177692413954857
-0.7873568217066163
-0.06939822187055007
-0.11450754121225139
-0.30627003146175313
-0.015218851176651636
-0.3019716904752701
-0.03926174757916171
-0.4496979995419317
2.040015517354551
0.4206372969393337
-0.8426226927757251
-1.0063416986412284
-1.3159229270760968
-1.284261817350308
0.37756504406316954
0.24672414975733833
-0.21823194634261192
0.06469810063434706
-0.06288409621067247
-0.47638969293827876
0.20277437789287533
0.07299072063267491
-0.10124848734220436
-1.3161126049948442
-0.10889437668578865
-0.7173257301482986
0.09555966179062732
0.49233342777681116
0.10511729454654103
-0.3433706188675556
0.12283534748119662
-0.5566117391543541
-0.21160577911353073
-0.37180490059156757
-0.47072179169249684
0.41996408989894224
-0.08441264307416772
0.008009476454305787
-0.1647055811584213
0.0606891367322934
-0.044010937567902
0.22577987579010286
