1
30
6
-1.3081711122696011
-0.1944707555029781
0.17953797306133648
-0.13826570265206856
0.06377887120738242
0.5953124935015055
0.07081972360203118
-0.040094988573536335
-0.10385905302684917
-0.09367772201257435
0.14844726046847884
-0.47585408561252207
-0.8062549209661665
0.9925950710297219
-1.3251078701801209
-0.04966883470710263
-1.1604828808344514
-0.10750615059257641
-1.1047144587004976
-0.06097817977477412
-0.18482792853183985
0.8674528056466053
-0.4109852446258033
-0.18883713465960836
-0.08998819851923168
-0.11304390880463346
-0.0298961456831003
0.14514095705453028
-0.0879833472665432
0.037006905759449905
-1.6201324910289185
-0.05254982492718659
1.9909096885551247
-3.483800183717316
0.9779480795874604
0.8142344517673601
0.13405914725641657
0.7119482153101215
0.5174638924856189
-0.07407042513156131
0.3167783757930212
-0.028365390827036194
-0.31946366680788285
-0.4119111600419277
0.051874658727294964
-0.059401525937046715
0.8861493565677707
0.1181509475551173
0.030096092781028566
0.10456221678058797
-0.20769341593621213
0.07845245107267824
0.061522527444242234
-0.04445041544270281
0.13748670923777415
0.29112340214855215
-0.3853300209633266
-0.5057694831904301
0.05759434404126163
0.17645212315109465
-0.12604630556723548
-0.3013018981530497
-0.3213878581873552
0.08578698292937746
0.28818626374849443
0.21985692858968073
-0.7164542929398924
-1.457087565648074
-0.38782007998791573
0.3340911994314258
-0.004174989390545726
-0.6023242810177424
0.7030584542112644
0.37678546418893255
0.6916475788998727
-0.06787510770490017
0.02206851560824036
-0.03309277331097716
0.26922601372553473
0.19728453270750518
-0.02475677097355758
0.10969274457892288
0.3958977191971006
0.47864833913085747
-0.3751727367079415
-0.1505416141425296
-0.17004690175907236
-0.3174772908038921
-0.053182326602311966
0.31908110116233146
0.35308275386159227
0.06015540240145914
-0.034481875628906825
-0.0780096328106329
0.39943843086133335
0.44698378059132626
0.42368497266019145
0.09065592699961418
0.2899803270112775
0.059156076013230696
-0.09529851012691057
0.2058154448612539
0.27681798781380157
-0.04086508022610767
-0.7119093023191027
-0.010179239910307492
-0.39347060959105706
-0.5798512524250276
-0.04574778712629439
-0.6362609963602452
-2.3639961340382514
-1.5086000362299623
0.6604141590415625
-0.5124653718983144
-0.15506971010357
-0.874666500277034
1.9683942249964583
-0.23830756169559092
0.6966270083417986
1.1852645368419024
0.915585874977437
1.287758985646308
-0.2864263249049447
-1.52766821646669
-1.188900077368601
0.15550295164998715
-0.38077960194248794
-0.28664618112026724
1.4539879981889468
-0.24408986058524354
-2.3328534129507887
3.601616993752771
-0.33069038510608595
-0.4261923902328816
-0.1603196039499941
-1.6017518024868116
-0.19432472873126222
-0.08018453438469049
-0.15899198474427725
0.16417328023941974
0.07463508843921382
-0.3511503481317271
0.29397170405643125
-1.511802360884557
-3.7257402404546296
0.18292120347574406
2.970063990419799
2.8078564154051624
0.512799563755618
3.2719121143325003
-0.094789601694816
-0.16490098076722534
0.2751869043052794
-0.1597567320757224
0.0957413850863767
-0.16363504181650618
-0.2595271361428736
0.8936902184174518
-0.25410733687983417
0.4269510410321622
-1.3816119597414138
-1.347913233349248
-0.5855158737185561
-0.07078185572925044
0.45586963383376183
-0.009387642247926035
0.2355735382045281
-0.023920433424108954
0.09016913722408444
-0.0332832995311686
0.19898162459148327
0.24196244173282128
-0.28032780141395075
0.22838101693775972
0.06753656298571517
-0.1632468577547616
-0.36565166298465845
0.008147790591737317
0.1969019693910342
1.4884807462266942
2.0166196722851892
-0.9600894650995287
0.04635570793912827
0.3796277638710077
-0.6479495024700981
0.19335438274626787
-1.1436637425270542
-0.1253707143047972
-0.596761187244301
-0.6359523111003189
0.554778782028184
-0.6527846255929824
-0.33774157924025494
0.18051160173206646
0.4771624935159139
0.6257396871595565
0.267261337837324
0.19202574878424924
-0.22459377995339322
0.026963897361818145
-0.13850241369245342
0.14146474072067067
0.4625042824874894
-0.16251456937334138
0.014493974146338193
0.3073818330990529
0.1266667723910987
-0.1006279102902023
0.3561361012390046
0.5151415305777955
-0.03297585520709964
0.1142759205322289
0.09322514108665562
0.3424921419992996
0.021558468921593566
0.2040155724321308
0.21612300869845344
-0.22648527743020713
0.07517256941573995
0.1085813754358391
-0.04389052415830742
0.13775630606963477
-0.3716328005365892
0.18253735227690718
-0.13769239922308876
0.25157106432893106
0.2335927901997824
0.36078414821002014
-0.2833291244082095
0.006808835060479424
-0.15324967884250504
-0.3111665372073214
-0.09301314421723154
0.057369266461266194
-0.17403268680061978
-0.12902041042914505
-0.12504191965495026
-0.4153021666188273
-0.2583262135737469
-0.17485356083086592
-0.4959053796451035
