1
40
6
-0.38678716352466924
1.0830158589948247
-0.3543391221678031
1.2194119406384196
-0.07471105232167907
-0.0891590775587169
0.8997148643491641
0.2765152179506931
0.47805089604319434
0.015064322534526524
-0.06792098567918763
-0.22343954757617715
0.006802539765402787
-0.1118243792715021
0.43157751339589984
-0.4591812440891921
0.039167081675038205
0.016561311220899395
0.15951955374948215
0.08736205307236021
0.011330519183483134
0.07938171502492623
-0.9531001439566507
-1.080000715481999
0.23073790842763456
-0.29839735346799195
0.0764820227784001
-0.09128455707866419
0.08025229593845859
-0.2521436086403139
-0.13495077016125356
0.04003594930285692
0.874856493763229
0.021152833819203503
-0.10787731146281507
-0.1166032067010926
0.395450019656299
-1.23667992680365
0.17832157774663498
-0.1685993404934731
-0.8353967125791397
0.4740831517096384
-0.676718937495855
-0.15102841127528044
0.06948724197011008
0.4402606281854488
0.5534482569998108
0.5835490556992589
0.31030006895436596
1.3623867508721377
0.25704808392866835
-1.5063772046283275
-1.5058861365267948
0.045254561979357434
-1.8020948552607858
-0.9600195440306035
-0.11798921650651502
0.42267981962446893
-0.1951845841765223
-0.09976316984705441
0.5837431196528988
-0.005085336673278155
0.09363923360856707
-0.9996711481397192
1.8935848080329174
0.9226647008362214
0.37338496023704276
0.16248434546546922
0.9390573669647061
0.5040913095043437
0.32158782392443785
-0.06005108223006379
0.2922646884001289
0.15963136576741144
0.1476798380866371
-0.07976108513987794
-0.16770308937136882
-0.04898838681843414
-0.026035679252172466
0.3359759997979778
0.05882617241922475
-0.4131740613331883
0.01994931028171347
0.1151323941633156
-1.3652533760051775
0.10128673059519473
-1.6856501544300284
-0.2883407374070606
0.8679307467881446
0.571284656672214
-0.16301426138988107
0.29577154117973903
0.32243639776784616
0.24120721105386714
-0.5286692303200227
0.011086155275371665
0.280301296808206
0.5224754228298988
0.6300867404494216
0.31757069755832557
0.7396133388869383
-0.5974112366600178
-0.06694456897607007
0.40908270188305546
0.39386287574263434
0.05236136216737233
0.466918212562561
0.15254626114948525
-0.13146335926228608
-0.2108786119083711
0.34734614595407465
0.37336614067732277
0.4539259225000148
-0.04031720814453528
0.3528654220609548
0.1585256665347347
0.04724034499363452
-0.21785618436966295
-0.2237549662869682
-0.0892097090660009
0.062321598014540174
0.4432167837098087
0.46494437809320044
-0.37951061451950957
0.49553110300440933
-0.02777314635768922
-0.189965150451949
0.06362475362707971
-0.02490805159271572
-0.15327006663334625
0.0078724767329933
0.23193711332002112
-0.2561574864517919
-0.36938186379675714
-0.2199526045080773
0.3849611701865491
-0.3001359294022462
-0.053942727384329495
0.12392024314815069
0.15602082072918683
0.37417932299651574
0.6684875923315977
0.2843609136480629
0.024145083271318302
0.3893482102969072
0.09997208661593873
0.3572598600585993
-0.8822164970469096
-0.05534169148793019
-0.0910380805970817
0.4526886836601372
0.6897939445345731
0.7301662222320071
-0.01988418615811285
0.36315288857104194
0.012831222743373625
0.22416605332941283
0.21675277872761536
-0.08588002014597673
0.16819230944077954
-0.32246033297599347
0.07057196647127868
0.1372333887998377
0.23978661909625656
0.04534158467215972
-0.3389808049681962
-0.12801407163025683
-0.049532813221448584
0.350754868048904
0.3138365551421321
0.30119224501598224
-0.1396718280656818
0.05248762042479695
-0.041413370352052385
0.41580545861454543
0.2230395129537283
-0.3617684715746833
0.4134511160682308
-0.10776288322665334
-0.11953585936898535
-0.15738550665868184
0.16035322607155003
0.11577337267723402
0.14844977526920333
-0.3163437613625703
0.43888835742146803
-0.16145424984196646
-0.08750450590852124
-0.3452077201072961
0.14043884033399123
0.3249464546353848
-0.08997547076046648
-0.14988186515643362
0.08970393421982556
0.06957550075453903
0.24204299846540242
1.0043284049370267
2.0137168683914757
-0.6290697533297931
-0.8434674662797653
-0.133354942360536
-1.5281098055004267
-0.13029517002092894
1.2845806372567223
-0.06804389301587753
0.08299545949268226
-1.0215986976926352
-0.7595518252092848
0.8292444497032098
-0.10201919583104292
0.597504731340483
0.27488741480082485
-0.2729873451002529
0.2914904538483687
0.1922231737380094
0.40995659153277614
-0.6976149732632498
-0.18925255554103218
-0.028382667987337983
0.20703709542479054
-0.21592561814847142
0.6049898508387402
0.5408302900455147
0.5339321698933867
0.23486698792931757
-0.31743741818066085
0.2650531553924786
0.5888928182249585
-0.42538147399050746
0.27435843361067747
0.3822017729699256
-0.3184412632627666
0.08261954585909484
0.10628862810117348
-0.16723330860387614
0.255622600233488
-0.11544747755239422
0.45883082903603334
-0.10484998460522094
-0.3233127137284306
0.38425880679338914
0.15446779178588643
-0.35370286940503504
0.224094753106565
-0.01908509401117988
-0.0330456749505979
-0.560304625794163
0.3635564267101793
-0.20272332270582763
-0.0896699360936904
0.3837292093471753
0.07631961595362445
-0.26010997949226555
-0.029595398391284153
0.06203892933913469
0.4085633553031585
-0.029365646360629067
0.29450337747382466
0.19471070585657616
0.3016097900365134
0.006411522151819579
0.19803788721746407
0.08685107245013016
-0.013746018133267453
-0.024681833284912785
-0.2964769123300386
1.8671651067553492
0.157824726139427
1.036844874983806
-0.5456708909762041
-1.142873076596983
0.5369513671846241
0.2752351149464153
0.006938390628802049
0.09882437024917441
0.27062879916766336
-0.00937557676061994
-0.10950462646162447
6.974858318801003E-4
0.340763913466721
0.29038362923652355
-0.3746666641216718
-0.0526217944895569
0.13168407676536448
0.1573045310050226
-0.09879895321446379
-0.12778487115118006
0.19573106109779012
-0.4320955513503293
0.06860869072623346
-0.378134989691196
0.3369453986325704
0.16221685942595915
-0.7472127912856361
-0.6531668781804464
0.2814695135337008
-0.7141775703066946
-0.68002724143133
-0.5917643801539408
-0.1343357812997233
0.32877062292435355
-0.39053241456240145
2.4625903159274576
0.4086639518549107
-0.23708033865253322
0.02401168956191174
1.6103342017315432
-0.2551808328362063
0.3129513424080501
0.27833847415305835
0.3231117182280799
-0.4386417579056068
0.15377784766507502
0.12219528450335929
0.1957742125891512
-0.3042655099550892
-0.2242120849931517
-0.18975704442094044
0.10083025578956231
-0.1730808664911997
-0.39382923651638146
