1
50
6
0.03252409717849644
-0.5953798629333544
0.18147953910190706
-0.05340984649059163
0.016438984848467057
-0.5833199435708061
-0.209409010435016
0.19312999145721424
0.3929304101288618
0.05107170882401517
-0.4896588606480495
0.1782775002546296
0.2548083746766377
-0.3724676872091194
0.324416436659171
-0.2833333091421935
-0.1232169784884218
-0.04782304915206386
-0.15019638969956056
0.011650061405517284
0.11639993831163163
0.2759531615554376
0.6484069517106092
0.35287008235498785
-0.3143737417088349
-0.276297444405931
-0.09716057358095023
0.28231053730915556
0.6207267816726368
0.6427648717415868
-0.013230693601738168
-0.24282297992831123
0.4084529253746461
-0.3444900158881915
0.32579446423594066
-0.2675510367155937
0.3210140059669256
0.012947568043157309
-0.22044542359919705
-0.0150680380009053
-0.06178058145666811
-0.052178907754539434
-0.14834291595566812
-0.017479680320158605
-0.6105705950058925
-0.11801561364421445
-0.03369137178532183
-0.3682511529272809
-0.005501088595935648
0.11890140966356488
0.25560613626040457
0.3378235681755467
0.14749427816421878
0.021074427638955534
0.060356159385466346
0.18714340927379203
0.05279518185773685
-0.14923434370548533
0.020088216556553486
-0.55626879113946
-0.07703077856290258
0.5921935815216091
0.5649524529646763
0.015318143148903451
0.5560464680229598
-0.2598816809302817
-0.4290633279220229
0.17021188704400914
0.2316082514937586
-0.18652905864321212
0.2988192090099368
-0.2642047802952889
-0.13598957023330321
0.28589545745794015
-0.08360151207773854
0.2958384192171813
-0.1377190693130847
0.21211187771754222
0.05613038838957305
-0.2667934780313587
0.2536071748630318
-0.28727607135511607
0.41500107639791084
-0.24881662612950323
0.36266201883099236
0.19049797778120178
0.4999123589348291
0.4678600723566392
-0.13952136576767524
0.504618294903317
-0.5718470665476784
0.49027775320219985
0.06453201143694924
-0.18029087044518455
-0.41581434666418166
0.2115532211946829
0.4596918197217323
0.06222990512462159
-0.12087375690587816
0.48005244791901736
0.3134862844429203
0.4163653518887686
0.4834183943355606
0.047853451305292685
-0.2409742586856492
-0.3210172348016257
0.10704696335353299
-0.16350453093912945
0.39783486039502475
-0.37762481414957777
-0.16122560451833626
0.15738588197297013
0.14230507324692426
-0.2699079788930181
-0.3431262746256039
0.32420102683453056
0.4253460680812476
0.07397839608716203
-0.4576267238260541
0.4893446662772512
-0.39114570420272937
-0.4910548523454804
-0.04788537200119733
0.07893497781483853
-0.4981035144062854
-0.3730567693885183
-0.6229469893320491
0.38766398336433416
0.09386395275177328
0.11898741983602339
-0.02067941217240784
-0.007433138417034007
0.11898530044293498
-0.018221225838845743
0.2516559595679754
0.49619530404850803
0.40517094227605405
0.11313075302631842
-0.31825147719590946
-0.44116993063743826
0.13897432224628126
0.1523490765553257
-0.3399653307158732
0.1580300445045917
-0.28417225269399476
0.14946806310958166
-0.41180407777085837
0.15899981294781854
-0.36551802681112266
0.004501301761385785
0.3568515984085113
-0.36384827049434315
-0.043691917127745145
0.0011399186052226508
0.4164709391210332
-0.46991377730243045
0.3360452708512309
-0.04050042125645416
0.2568707052371659
0.06316667739102612
0.31971581816720396
-0.5492549829976872
-0.4533344010451701
-0.1909755908884975
-0.32878281697252687
-0.11781386366616847
-0.42867945139324487
0.08538338932148215
-0.37140216571391266
0.3345857909611712
-0.08252020325619927
0.05513308168160392
-0.4117531188995186
0.2474363394809853
0.31138282663935607
-0.168699021353432
-0.39262496604467
-0.24953631510010807
-0.4076148326240375
-0.1490774183511542
-0.16293143724024822
-0.07700317978981298
-0.025678985009803243
0.08604064810257904
-0.02606157936375474
-0.4332162255708275
-0.25047859890874613
-0.08065248295188161
-0.44942494506108854
-0.39520600815974133
-0.35451224894077976
-0.38386975862603606
0.04930021913584011
0.47186815499849566
0.4468793817902327
-0.4369537743842836
-0.29902726326574364
0.017887703580110315
-0.45522704702919836
-0.11020784976293213
0.27059105533830635
0.0304688792472932
0.31499422353319
-0.18002625698685595
0.01249206738450699
0.3104764561416364
0.6188834273270495
0.18659224403775057
-0.4011404406563683
-0.3690545650346093
-0.5986080010221112
-0.5538794894905842
0.21824622503760782
-0.062285161207266466
-0.2169404297254415
-0.40242102491435827
-0.2598337099224023
-0.49615012667162983
-0.5187695756002253
-0.2668612745765236
-0.47907149775095065
-0.36972300197376573
-0.34537480900480866
-0.4217248516192763
0.29227275969311045
0.24209644764199123
0.07468415603224084
0.16988484074922547
-0.1338282989146876
0.4958647416194813
-0.04818129993336317
0.19929765648399028
0.32969582001308656
0.4519225416336878
-0.06300060175130444
0.2498766335684429
-0.11522242891411764
-0.22760317248766282
0.07656793622895544
0.3093676806782956
0.3460870232621538
0.204147408987251
0.09167108416675401
0.02989318281804774
-0.28123758340959953
0.3978072598721412
-0.33341783913194556
0.08332225896618078
0.34386579702423276
-0.28706256304085576
-0.5858645774564597
-0.5001482002163768
0.16674392545877476
-0.4887827543015273
0.19811241535720742
0.33421395631186757
-0.2002616150342751
0.5465186148515772
0.6186843007397193
0.44952169512820855
-0.2973151168835798
-0.28369542942505954
-0.441151021585915
0.2943925656175423
0.2280647237364205
-0.1504318960702735
0.05532267376308992
0.04275873776842514
0.21641798163767687
-0.23673114843684562
-0.5203777712484688
0.02351830122198299
-0.16708086803219985
0.3696964753585829
0.4844929217836
0.1457151667654994
0.15417186260388713
-0.1503228786848145
0.005270389787301092
-0.21357084969870885
-0.19262971850383911
-0.21946902869381485
0.5132482197782358
-0.3636259738458239
0.1859366851350572
-0.28727055541774227
0.19183127695835386
-0.039352561894524844
0.05797795187342009
0.001078411478845001
-0.2765341422231412
-0.1364591501633879
0.2295743655077769
-0.43176241395326687
-0.45901509442172705
0.036343265852658645
0.09167856237037111
-0.43779582568442127
0.3931645303081608
0.4576151259196675
0.08835166195597967
0.3498810121295708
-0.004626178091424629
0.22074441984475443
-0.0121822044056499
-0.1806753316975427
0.05302116121876515
0.21432121502961557
-0.1187527209553343
-0.17740349091979465
0.47326951805550166
0.3188751838793425
-0.07644332327455118
0.4359612407214516
0.2951663431767714
-0.32671056981469415
0.13374172949809782
0.11075518213296463
-0.11340563075603498
0.387016861723548
-0.3542901374136022
0.08771615924175796
-0.3388285961419865
0.25460490982696893
0.25144455835613483
0.06543303914289557
0.055793310238204594
0.4575239327194895
0.17885943237802196
-0.08334899851773793
0.39093106000751227
0.4302974526463292
-0.2113578033889439
0.19051961395659137
-0.0020922927021246153
0.06362302320955232
0.3149621381992969
-0.1408846015285493
0.10074924092931871
-0.23813524363267408
-0.2071542580776822
0.36677745644872817
0.22094716456320693
-0.0535880683394665
0.10388616720152442
0.41451705151465473
0.38305553781606505
0.21011770176303182
-0.297406376151375
0.04151389004436108
0.16398253421979425
0.0930762455055176
-0.1637897216543054
0.19371713971669344
0.3228845034822636
-0.3591185551207009
0.18310250098418054
0.28629463738203786
-0.03031213424068401
0.20984671570064414
0.23863580602966622
-0.25294076956148
-0.6311543866236294
0.687684862503766
0.3320429313377501
-0.5634263952586854
-0.35555821544275895
0.11460897764543836
0.08506352204296438
0.35963360427943897
-0.13129199093361157
-0.3154085682855634
0.16637566957419275
0.10004868757779274
-0.3978320922754324
-0.29395827925374607
-0.033972996611891015
0.23036884724255083
0.09224700851119823
-0.4278261102019443
0.11755550209808319
0.20201313654320546
-0.4634012519077354
0.39742956174224897
-0.014762317256795911
-0.48132012847351574
0.23587507275795538
0.1792452532739432
0.27506847886206265
0.08715015607051006
0.3487805274843742
0.46186880522207335
-0.31853434108624024
0.5137222467665543
0.411136845617831
0.050301163151383055
-0.2834605102693473
-0.25726383249129314
0.017282347452272473
-0.22294129673676663
0.3862006024413474
