1
40
6
0.3323957733644132
0.3007264265985968
-0.4112667923365781
-0.13374419551090486
-0.056884405369016955
0.011387108630074434
-0.1669906833977832
-0.032533574923683424
-0.19577681930071228
0.04544283625411674
1.8307003855309222E-4
0.0947816972774057
-0.5039925522120615
-0.08747087961798909
-0.2873838777643046
0.4284857434533627
0.2167568248275982
0.5058179710089329
-0.4023261146867487
0.2347652606157459
0.19349189881712975
-0.08577911364568566
-0.2411065483182637
0.2831463537528355
0.22675335622919812
-0.6023416216921192
-0.16066765133978694
0.5515440095629103
-0.22383115639880286
-0.3501770868702352
0.5363564034911376
-0.15437119708301142
-0.29514651503780565
0.5061162209053112
-0.5415495511924089
-0.3130893898246825
-0.02908508966108616
-0.07093644208009695
0.08451550027259673
-0.5394777821143293
-0.5534605708243768
0.20083938871172577
-0.07862651048474734
-0.5046896062414921
0.08586399225363722
-0.24773283721510728
-0.21505525639619502
-0.5560542410318834
0.47463386212374975
0.2947014419891665
-0.26490963822717956
0.010095610510458935
-0.24201286111785034
0.4415213321484061
0.1085766865974528
0.2784448060709133
-0.31324831271945
0.19194476183503195
-0.3396142509089357
-0.25826023296902745
-0.22703717818931465
0.12346059809909078
-0.5112712482834285
0.3624523603734414
0.4004921656752731
-0.09810631742980351
0.1657219352731317
-0.17750518560556314
-0.26155877928953764
0.03663704009421833
-0.2991577223298347
0.40979951339187765
0.34826841526586755
-0.2945251773078402
0.42647060215857907
-0.019361007476084786
-0.5065906339942838
0.20067902275480487
0.2508201885754767
-0.21543085283468283
-0.0285810232039176
-0.41232152196622207
-0.184142107099053
0.13382456003248533
0.1734880967685853
0.06758387941064077
-0.17700625666936645
0.27414802715887454
-0.2752373390725876
-0.3031616573776531
-0.012103880121285715
0.1629215896917091
0.385368275083248
0.255680887720037
-0.05262128257502019
0.11289368617889219
-0.017026137625345793
-0.30158777073951293
-0.23854551980569727
-0.15102913634151052
0.017871753528987608
0.38489622248477207
0.25066244918826425
0.529082796024042
0.41178299882115005
-0.1281214122646668
0.17312713776975064
-0.5030882726100445
-0.42184956832801535
0.38578321827564865
0.374794452205056
0.22895743944945227
0.38473432295467896
-0.04243996803579773
0.3704414268037802
-0.34298823553750807
0.17773500062775882
-0.33910580806562546
-0.47416672260923404
0.06408542228874327
-0.010480115776474577
0.02281224241772702
-0.25708781869354425
-0.02866189180831771
-0.23904746394924803
-0.23638663966202683
0.0973917457962974
-0.3377705197658784
-0.25722584160915973
-0.45941592921123037
0.3500362610490072
0.38489789085263887
-0.11860381518431978
0.1343249356831589
-0.4083613482301213
0.3079323575772172
0.30714653145710874
-0.01007787319429491
0.2152611037337734
0.47917409756050017
0.0927083294167207
-0.11129157195121968
0.18255551520727742
0.3736292712840772
-0.04547421942227506
-0.2557944412220175
-0.23109817288651538
-0.15365818783033727
-5.758757854209218E-4
-0.2915559703383012
0.06585216115507075
-0.4528065101174531
-0.3586395469843631
0.038341380397903115
0.05222896350223157
0.34818180116727787
-0.23693051329336562
-0.15457759731282728
-0.26314456839140454
-0.5434838549612636
-0.13556125720263743
-0.13050292471915093
0.43101026960310107
-0.4243176232510143
-0.06916869399802378
0.43001793098718355
-0.2590663369918567
0.412296574595389
0.20691673418203738
0.27279463738403825
0.04166480810685885
0.267803292677689
-0.06825728755516289
0.40240373418263026
0.11725204443497252
0.18623723526523442
-0.3699269987531981
0.25406800903458526
-0.332028739762715
0.2737679556619948
-0.42121486910013994
-0.27742210399079786
-0.3044539944689165
0.05602967971894355
0.35087181836810283
-0.2677190523340131
0.4562874718287959
0.25675869814457924
-0.1853089383623405
-0.40659659878659693
-0.30138477869380625
-0.31767310493258816
0.31131721309686794
0.4929644919544007
-0.06356019384195091
-0.3576688277126433
-0.011604727646655174
0.4511775021973555
0.29838326514626684
-0.264423986239089
0.2211282020388054
-0.1512758867665965
0.2124664675660162
-0.38676300688818893
0.41892920697449326
-0.2731537296164628
-0.2453150486288939
-0.4317764534792142
0.08446248343263818
-0.29576779618135746
-0.15309191316614973
-0.31345420944413516
-0.3374234443061337
-0.09681339048553447
-0.02286468988162579
0.1029497100512948
-0.022808418328449216
-0.04850540562027842
-0.24851939184771715
0.2712018681805833
0.3160396264474314
0.35786717357303066
0.5170351365434608
0.16874060838309352
0.3693243702530177
0.28030596858208456
-0.20976303232756843
-0.15629282714563703
0.4226962927321575
0.24795618945450834
0.13308995692133666
0.47178508193765084
-0.4499764109096144
-0.3870930033310745
0.21340366537572178
-0.1131133460011246
-0.284622831329012
0.10881476983908922
0.11239708398554432
0.46861834865146884
0.12780370523938503
0.3001362444138457
0.22505668508453822
-0.056708892201429745
0.09500373028507746
-0.3183245546780239
-0.3180267908014998
0.5803238739253614
0.5005791353506853
-0.27766395880477734
0.3176143163402394
-0.18541670520511588
0.09819189015834187
-0.10733329952248445
-0.31020652122762793
-0.3885682949963927
-0.2373927884740997
-0.5697953588774312
-0.5149832722051381
-0.2817380289285015
0.15853765643555046
0.04664226800043282
-0.4648135186381664
-0.323261527289891
-0.25620988645104514
0.12994652080973013
-0.25741162518288657
0.36475289643827274
-0.21366199713006231
0.12563436646205828
-0.14450035704939318
-0.02876890991844131
-0.1617894706504838
-0.30687854978013696
0.5631875932123902
0.132793743046723
-0.055320337081107916
0.12969818465050661
-0.5772606175709388
0.04978019936533483
0.15052306799754983
-0.05829912960022108
-0.5464949355653136
-0.4441671363224997
-0.34310458230328317
0.5401116601538417
-0.5330274361937639
-0.4459474587328702
-0.4346056253632078
-0.20890346507631483
0.38349384795324304
0.48034658439459965
-0.20016528789985275
-0.23417811355866106
0.427462108128742
-0.16461152500788934
-0.10334206244936643
-0.44107029809441745
0.5052794698074193
-0.16499298262183987
-0.28747804481692396
0.36974255171039977
0.3792751785117039
-0.14125425546322137
0.3640609543372547
-0.29595171407055204
0.1973310412794491
0.2225279418513344
0.24979469952442165
0.05459813219710165
-0.36043232994490315
0.14940715875546676
0.1440487804480438
0.22997236461052434
-0.09079825664203953
-0.17585749122333938
0.45483195088074185
0.2041052513256802
-0.4431586773621424
-0.08877209719708555
0.21466677291583597
