1
50
6
-0.012144782166846873
0.7126756625689927
-0.06205203729102058
-0.3879840546765784
-0.3041427988720358
0.11097230428510435
-0.13629316400980168
0.031624330240625845
-0.2662621852133666
0.3071037985303388
0.3499586026654733
-0.3636550531805826
0.004932930155235042
-0.27715001020952
-0.4896670186894149
-0.25766768790040306
0.5751336804328675
0.2956179517337735
0.045005871590988046
0.5794656337163046
0.2702890869906384
-0.09345566734480258
-0.4752535030675715
-0.5749039789066512
0.19246317407625047
-0.00973947554457534
0.41701193385859814
-0.3056376941816092
-0.2529782576817426
-0.044599282693223295
-0.23975918873733898
-0.0021299713274571313
-0.2566438038803049
0.06061813387232438
0.052029073682469694
-0.3076231201641216
-0.26381357567768143
-0.18838439565613255
0.3369212043557097
-0.3288736627145571
0.38689253431031373
0.022087658782655013
0.4255929834470709
0.21938528072932414
0.07556691995502975
0.29348657374528614
0.2527427283424295
0.3142157952399744
0.7743899179666801
-0.17970643654208507
-0.1533723228305726
0.4038294259408994
0.23517926156509916
-0.08055676719509632
0.0013427943578001999
-0.03998274358962876
0.1276286494299733
-0.1250109688135536
0.5547909238171626
0.32611755707382695
-0.15933673617407734
-0.44564033730139724
-0.2929312161795069
-0.20071059055785023
-0.3147236413638172
0.13556565458820213
-0.22726916345918718
0.4288523225888316
0.38828988511073864
-0.2634912842867326
-0.07378641182494407
0.4843241982631633
0.22914940190737243
0.414197082360552
0.5009532921182543
-0.18229544215043095
0.24173099811684504
0.03202173084140408
0.22627572977811944
-0.023554501389496937
-0.25860537136151057
0.3672216904171171
-0.047524984283528256
-0.03591606876451026
0.045871436869982365
0.08447480637999773
-0.3318236060513257
0.32003239485750723
0.45992098985952146
-0.2232586192023781
0.00713221346322535
-0.4837125828782768
0.13439421978009988
0.19487130532729646
0.02644200875025141
-0.21857386007553015
-0.453854878823149
-0.21071596132017448
0.1991735800959322
-0.4129179800467911
0.09658275380015019
0.5034637974416337
0.34809844187387873
-0.3481534239581497
0.19095569768134119
0.2756061464960115
-0.19930461793472365
-0.44038563188926105
0.23657085246864024
0.4196079743795791
0.3352396742744548
-0.09486321387228466
-0.15753925138639135
0.31819156729328146
-0.21132028959469135
-0.11825414348821318
0.18504157292253098
-0.1388262788166846
-0.45603225212016246
0.05849116877762601
0.08353211871763297
0.06406369374202114
0.48391273192734807
0.009478566706947827
-0.40099206890441536
-0.2409650891679447
-0.06391745572350986
-0.10021273423806779
-0.37563521672282496
-0.38930958561915036
-0.2775440358307999
0.02696221213340325
-0.335488739507147
0.17939018609837806
-0.1314092968380523
-0.39786946123178557
-0.37731667380047984
-0.31125210893384203
0.010836684257918311
-0.19123911519223266
-0.23641207272102016
0.4310258202375423
-0.11579942798769643
-0.34307597193309725
-0.3575862446372456
0.18892569947901106
-0.3364453115832155
-0.019135556441024236
-0.4019815299507041
-0.29131453915825817
-0.09903848891190235
-0.24743866681888568
0.55856036221182
0.08499195026659247
-0.08414026572726421
0.14192366257643654
-0.4136832033159236
0.2306090404931703
0.15783580697481228
0.03174586185854641
0.08425912015587002
-0.033514889217473816
-0.33946759176375857
0.5636989702130798
-0.02175170587400063
0.2739109424349687
-0.44744162746375865
-0.1740558237188416
0.25405378727832817
-0.09011629967431663
0.33261328639748555
-0.0697550500213202
-0.44488339987707576
0.06517203903688845
-0.20301097121620934
-0.3049882752746453
-0.11406854073308977
0.3788634121531482
-0.18214866133639535
0.18058876602804705
-0.26236310427879883
-0.23237922702858294
0.2839825684627518
-0.03410060998375733
0.4252102981383202
-0.1405977309626067
0.2472526259774249
-0.5348751685775065
-0.4710790879789832
-0.23087693417122565
0.22584143298782433
0.24700775819867407
0.3763128606683434
0.36915240494691176
-0.1890643940211229
0.037219605334705405
-0.44368988452389324
-0.28568916500348146
-0.20869076166923486
0.36448781762700844
0.2726375689077522
-0.12550914965415405
0.3058903826724945
0.3197139071470421
-0.06745568654643411
-0.48993078194263084
-0.08308700534317387
0.09288051521912499
-0.21437780777465962
0.2610609466521744
0.48861150516388707
-0.13023866177301685
-0.3820626254470654
-0.31154796874700136
0.10301002471720536
-0.16256137647245356
0.23564234253789607
-0.13957894745028618
0.42055548776979845
-0.15190117316472393
-0.4262289446262063
-0.052119595054762345
-0.5281444081738218
0.19644466653347314
0.31796446177993426
0.25806123439310563
0.46152165071409124
-0.2012834108941437
-0.39866232540858354
0.11763347322508781
0.1385435408409939
0.4488330123990266
0.04441119538323017
-0.2345278303670464
-0.2869180814571786
-0.5452553977782975
-0.14617247215882834
0.2493977848924716
0.029819995678355964
-0.3400687604534983
-0.15808375808074354
-0.12304688666072704
0.4781679074050925
0.2013794051070182
-0.3559429345431901
-0.02047088633934955
-0.08911919718396115
0.23936006461818396
0.3693141860610988
-0.45805996344798705
-0.05290473782873251
0.4848923424473919
0.45637595501007155
0.23524857307693067
-0.3377206581444894
-0.03939507490183111
-0.1781912325944215
-0.4326855795424217
0.18952556338985846
0.03708859555382166
-0.006590615477237572
0.17926341179283395
-0.2686179302992433
0.14378500605639596
-0.2779517327665511
0.5224869677460323
0.0462306618781667
-0.4600759507062555
0.35207638023781285
-0.18499734281213007
0.48001022154888123
0.054004264272399766
-0.3376420129866567
-0.4593286321661368
0.3225199151094088
0.27609532362848815
-0.5039943359477137
-0.11769515043066285
0.3127101157602285
-0.2431929532254761
-0.031984688014497636
0.3997207061024853
-0.47908489443486113
0.10799772636749361
0.2315702305058725
-0.11925417838370493
-0.20587416478492127
0.058916542651815756
-0.40000736415467686
-0.3900957794351701
0.33787000355088437
0.42807190906170733
-0.3805760523344342
0.13930299540270458
0.05532708355126522
-0.3231744815649978
-0.23057402555775333
-0.40452701819385173
0.2906433405895539
-0.29039574026928666
-0.2819683818473157
-0.30712180034220904
0.5093708689742203
0.4046563486435762
-0.2723450144452331
-0.2863888550659265
-0.40415678627175117
0.23494603671008116
-0.33436047255360246
-0.21158938966038032
-0.39380698734648784
0.328451015218607
-0.34749604396453854
0.06323561197728958
0.19902963897968248
0.22204811594107407
0.30428519711947916
-0.2620167833418015
0.4442654897257
0.05542806421768549
-0.44133116600922084
0.08051707705969163
-0.14003762332176084
0.28446512751726577
-0.1710313690746817
0.18078340068509913
-0.4228926322466695
-0.26718052600971265
0.1569796691397676
-0.48011860123216593
-0.10940297910578962
-0.40913379488210616
0.2816886825560027
0.05847741317452033
0.21709608159063346
-0.5167170546227978
0.27977335605672937
0.19531327429227954
-0.4898456108939689
0.3621128268423807
-0.18473770114549945
0.3435926200565487
0.12282319725394457
0.145467152030588
-0.49037235618622715
0.15978278971497636
0.4831653930900169
0.22215345775739168
0.06735075883788977
-0.21771430286694365
0.3873057954709088
0.3461950883214656
0.11636327451577812
-0.42574455928226784
0.04811883140651984
-0.3275561831240812
0.2735414255229205
0.4078812946719606
0.33320367574920046
-0.13588691003255443
0.3731381830044777
-0.32315898606474663
-0.492702108695952
0.007474348818343302
0.0051485366979211675
-0.32977176859078927
-0.14868261445706818
-0.10517860062873952
-0.4642207675909435
0.17719792613074742
-0.014633859537332705
0.43942636566928983
0.12016575830949698
0.1148230121063225
0.4845613313327562
0.4313411455709976
-0.1623669612125923
-0.033132996236116694
-0.16683928251699018
-0.29909110956822543
0.03225400997319559
-0.3498497529404941
0.45072153096456957
0.15880831928314482
0.05170025420767838
0.012502088344279648
-0.45500841454317026
0.4534256317252866
-0.3724106771017616
-0.3872217402470139
-0.6131465976334572
-0.5144120701850681
-0.3832638424570212
-0.43288353917515565
0.33623518754431636
-0.17301076158822043
0.03785211342356957
-0.10532463001881633
-0.25813746575203866
-0.2759623133557401
0.32071877110167857
