1
40
6
0.4697860835328699
-0.1662199745345829
-0.04157656671852461
-0.04104456288050943
0.020320608606128807
0.02589613362893279
-0.910845804613342
0.017002777922840717
0.9582787643444058
-0.6777389133311775
0.044991717183818385
0.4393806158838232
-0.002055783155638821
-0.8864793731359084
0.11366383581185878
-0.9369229438579989
-0.012619171108407608
-0.04731075762282484
-0.819620622631501
0.10463589302639499
0.5389132584483731
0.048065651634021926
-0.5548655703282067
0.03597361916372246
-0.0917562107158886
-0.00790046233412513
-0.37533845918538356
1.7736624343665808
-0.6199684677791155
-0.089207008551167
1.1817674134376184
-0.12795362225407442
0.07850139789269883
-0.046581593456858424
-0.06762611788819903
0.646726805879037
-0.5295215224529037
0.05573116437690955
1.1471418591941804
1.4718326760728249
-1.004760884569481
-0.19248571681070403
0.7836152260413629
1.1626284579660522
-0.7174533944016706
0.45205471582748075
0.3802041436497532
0.1748683053032397
0.06017293835722565
0.24641769256608242
0.05282727198005442
-0.4324711649871664
0.022751191478274483
0.14160962627273074
-0.3091183103259846
-0.25332758763034274
-0.070758078975905
0.057298929827581314
-0.2717700508946805
0.011205212767054773
0.013740673959223612
-0.2265725388251266
0.047256575911564284
0.006296121981796557
-0.19501064474452803
-0.059342069390499394
0.17057139359563753
0.006456838855653718
0.24500675916688308
0.011098214247102715
0.19776463916462098
-0.0708261498709262
0.14492982405886567
-0.22965012902425902
0.014045379230692151
-0.14130548702278534
-0.1099123916394369
0.07816597688351351
0.16586348408709184
0.07062073319993017
-0.0025756435793108773
-0.04600047849893419
0.03570868793500894
0.5155841671196587
-2.476791575141387
1.4698990984723812
-0.6422573699175722
1.5713596174157307
0.14699770165453996
1.8753432809743253
-0.025465022409462443
-0.039244179372690376
0.055342109971869044
-0.01732318079036985
0.064545669766573
-0.11783000312021095
0.004144130060245765
-1.1129585217918874
0.3048538970581895
-3.3767285693117373
0.7308372184811391
0.473382204550676
0.26890038563402224
-0.346325197895742
0.4296985100737218
-4.684877252277367
-2.6858171968423394
-1.097468539310974
3.2548202573137517
0.17452822539367452
2.9653729220676883
0.08265519523773072
-0.1276662678018004
0.05082254975379268
0.027476271805697845
8.207679979771923E-5
-0.1110985986906384
-0.09048845701545637
-0.5235121538261842
1.2427858271767434
1.1429218769152245
-1.4454056393465111
-1.4426017744393602
-0.13559249413508032
-1.8961463604902344
-0.09815269712280632
0.17636091728440856
0.11705215263515245
0.01871454401318613
-0.22796669248266718
0.020330454953823955
-0.29270469445755704
-0.02134756380775321
4.022567688804542
-3.0954864255836942
2.399722785805468
-0.45790570935762154
0.1599126455577331
0.051892621006482044
-0.001911933752748524
-0.08700242113174786
0.05471364259319359
0.29795841245802557
-0.11480244700670958
-0.05339659464968536
0.0590738882614696
-0.3688418395422811
-4.334269776017236
3.658333711680893
-2.2999787895563895
1.3572506916743026
-0.13923566897332257
-1.1190621314179028
-0.1774223612678508
0.1262712862340867
0.24393639872513284
-0.09320934739495935
0.0968117177293502
-0.09676815015311202
-0.0039080333805853705
-0.08696047264914351
0.03651273348411522
0.045924219558279966
-0.21203463435882774
-0.011725599400376216
-0.023592134582423263
-0.23222548313718364
0.41180655480169137
-3.3493136951471345
0.4906187696431744
1.3283107877453666
3.650861731322692
-0.07388422144879148
1.5399738613072453
-0.12521524068826892
-0.20154215651184187
0.14087899174774562
0.11652946076938744
-0.03625514226440636
-0.11796892487847105
-0.07224858074253944
0.5034491859831055
-1.4989261528211402
0.07857081262357872
-0.4812765793165207
0.7024732692324089
-0.7292270377023214
0.019603536822210558
0.12335277209167904
-0.024924359404407598
0.03693577663491328
0.14508829119388464
-0.005810076775842193
-0.08643907270734681
0.05001107749461605
-0.12337704534644343
-2.0584265657596963
-0.26163609341169014
1.4760902620910195
0.2973051731468068
0.6739981801737575
1.4880935195745304
0.2029945280272265
-0.24043916908531054
-0.29658210735767293
0.203482776627183
0.4723820252030602
0.05965512543317551
0.9206424251293134
-0.10245229746189347
0.1504284766237603
-0.03598640366794693
-0.21565182812984
-0.02436922985130873
0.12010964831130978
-0.12386944821179013
-0.10673313043544494
-0.043833587328652085
0.14918289700865955
-0.13050443507502005
-0.019062313779473976
-0.035816834880779747
-0.20760927103339252
-0.1589060588873242
-1.6723733768713511
0.48322504137018457
-0.539183510917413
-0.687274966975369
-0.9649614155583366
0.6234285913772353
0.601283676477067
-1.135694167246642
5.352305263451438
-0.36296537858737954
0.12447910274764622
-0.862275534232349
-0.09039645140936015
-2.694514748779961
-0.5892588808975449
-0.5695312278001126
-0.12209303142558467
0.8989111021302204
0.20545716789137328
1.3074442646542337
0.0019426121674891125
0.20149663649794772
-0.004750113384621146
-0.19818258197096272
-0.01431167634888082
0.059050306964479
-0.15081922659072206
-0.17856110768561603
-2.5199349173366197
-0.061800651612649866
0.6272903732483256
1.8857734555342436
0.6434342744535844
-0.5974533538852829
-0.11941462354573973
0.1497870351232205
0.1417839125191188
-0.4031350217570504
0.03372981091455871
0.05096660778758982
-0.29785814062957416
-0.49915836632955457
-0.40966332926808885
-0.2641266705301939
-0.11165935683799376
-0.10583314618967858
-0.06182645501913258
-0.33611042886400344
0.04891402087461399
0.16702576257018434
-0.035551533220207626
-0.016295122233505235
0.04605044017064914
0.015775485823071134
0.09903394225600852
0.06789242417033983
0.17761210954163356
-0.027340801714841916
-0.11737106361280969
-0.06286877756172171
0.08224738697972413
-0.14828077623008248
-2.4311013274130295
-1.0933520602956648
-0.5852246470938148
-0.7988436043523074
0.3386324390539462
-0.03225322688347091
1.7348709957590382
-0.8105646092300958
-2.2014823550365152
-1.0292117437037902
-0.9156313768869778
1.281936846725295
0.476027513074362
-0.16601881310483077
-0.04439774623668939
0.017396862757849265
-0.03355286725726232
0.07625321033326066
-0.1532402623674758
-0.12238321955640616
-0.19706279726314888
-0.2138203126793782
1.8426026697768336
-7.349576395298388
-0.2040647209252637
-0.5119895412424922
1.5577209106402836
0.7940223784538218
0.6452497791148438
-3.7258017625416686
-0.2856175462975411
-0.6160251516449465
2.2305535068189037
-0.07850074680091917
2.7730153303991942
