1
50
6
0.38477028467049995
0.2654456245667094
-0.06582380432575886
0.44222749637025766
0.25284429348478227
-0.026536660004794484
-0.31558958170650214
-0.1362949207845965
-0.5486702742025393
-0.09638520270955968
-0.36236499270467476
-0.5354414992255665
-0.3273867113357688
0.04110507048484129
-0.4832437173485965
-0.9883946189031291
-0.2270078416588434
0.05372055175775888
-0.3300547203303364
0.4714965275000209
-0.08244971412810266
0.236473859927118
0.07300818834388874
0.42265585479701673
0.21994587652305397
0.45952304411548844
-0.2891740629722489
-0.3715091125469229
0.19702073441165932
0.07724976174629343
-0.11897488801005442
-0.34075253645277503
0.4072607295808658
0.4390206906437359
0.34951586580017047
-0.3261601614396828
-0.3418155161715219
0.4055817898850288
-0.035163958716197506
-0.22269037525579788
0.015094717769601668
-0.18933165613870148
-0.05359972394680742
0.08732620304797083
0.39032181583215186
0.31685543977805597
-0.13026876024547882
-0.40789909348407355
0.18690340104715641
-0.10410984454469496
0.3331322637579431
-0.34625541525767417
0.5613852553921646
0.40002032870646825
-0.36393618485664475
0.016985449219857708
0.33583574352384044
-0.08717231013583797
-0.09543172163790592
-0.31661705228232495
-0.04748653157685974
0.13236991394673797
0.08221247510649986
-0.5016583557850154
-0.10414475587988631
-0.4336906981715052
-0.4520551942617444
0.44208461786665737
-0.4015870382181955
0.3009963788310045
-0.28080167729979943
0.1143343157880351
-0.20787167057637834
0.6240083404230177
-0.06544396646225915
-0.21582980592774584
-0.32173849848428576
0.3963652860592395
0.09421074351729306
0.3891311296970324
-0.27282988437923417
0.3327269544935578
0.33735812354242883
0.05646451218783918
0.049109392076186184
-0.0579045711640261
0.48062180232202195
-0.4273656223254247
0.05984401081084683
-0.40267288351506664
0.13038302463507484
0.4069627272418883
0.216030017100994
0.24006498812565696
0.34260813868602596
-0.2067346252021812
0.23658938837910082
-0.14782764589856448
-0.0148718539931935
-0.23589250372623433
0.2088043663373776
-0.2729092304777381
0.10205333199200713
-0.4105217784200952
-0.07232137313404946
-0.35170026705443574
-0.10834664548818214
-0.17410689546347163
-0.24336887947898075
0.40790414718740026
-0.4230126902459249
-0.31457286769371384
0.040472376291274606
0.4739869089940572
0.3022137278871604
0.3514999410558699
0.40699477898634173
-0.20540905908426477
0.4050124640815463
-0.01802239419845938
-0.17191790623399555
-0.3496717677215275
-0.23410438729815078
0.27924716212899064
0.3603374022329546
0.48642982505756804
-0.20438008802791596
-0.3665395725439269
-0.3447102708893618
-0.6791506138105152
-0.03849623585459679
0.46135878974914635
0.2228028363276643
0.4217822172717023
0.43344246710375955
-0.2114115255713915
-0.5553453518649187
-0.18419264425292042
-0.056159637236266664
-0.0978316392572649
0.31663911145675416
-0.4988140625803301
0.15074050817026452
-0.2488552011261075
-0.35467358196562127
-0.04816750099288849
-0.08269493249968526
0.1291459267425454
-0.47984134137463696
-0.1007550834008154
-0.39331367745899953
-0.4064868702397766
0.26463794940130064
-0.511911795571236
0.5083505939488321
-0.5276360697579571
-0.2836746280051977
-1.1625868843898677
0.0788733305029823
0.7944006322146557
0.7151392661031403
0.1764578879010867
0.6536368693784139
0.2679585614540093
-0.49797611158957483
0.24799224479920284
0.2680284967670171
-0.18401487195254784
-0.4433870920134839
-0.11766558978829311
0.301021824575995
-0.0070193147101635135
0.1708852777158014
0.04759755989222387
-0.08011101757826539
0.31567711598424747
-0.2280538459381658
-0.03123006089242016
0.11277252417954939
-0.30868863795551293
-0.0854750821246454
0.421669085529093
0.44284592786609084
0.4537783861305491
-0.11561067702890863
-0.33932941790742926
-0.36036947459390906
-0.6163817290066722
-0.0965604066814859
0.2532246716390421
0.4436001049332698
0.30154184955040825
0.2452989876628288
-0.10124077372468147
0.24692120816765661
-0.22660965484795118
0.0584173652042588
0.3487586911657405
0.015821332084103648
0.3310983992499555
0.13925664453893752
0.2732312807806937
0.17486876527348374
-0.04920728861973528
0.06075160581345668
-0.3766206478023846
-0.4193968323721864
-0.2860459055331159
0.07968710089708403
-0.3413081743354187
0.4117092042604265
-0.11473122875991373
0.045039405998428886
0.3762243662063021
0.27388942686609075
0.23102083653205097
0.42024776276729053
0.3657391903492688
-0.19644696030750727
0.2615329080672149
0.46039822484094367
0.4439047896713172
-0.5039047317183677
-0.08604462573137407
0.13513232170934916
-0.4712041975913221
0.028442535666080324
0.5800340885915175
0.46111182176834187
-0.5616763815618526
-0.4162097026950537
-0.33537861350660186
-0.5245677601678654
-0.41980834970227876
-0.3911273344715397
0.18217441774815732
0.23645849987947215
0.5086452552859843
0.3209874218847621
0.4214084761582926
-0.11538022813403828
-0.22793771381434544
-0.11702227265187162
-0.09972042487336735
0.1874427430943778
-0.1309746916065404
0.029642772647997903
-0.039440152589275725
-0.040086117323433354
0.35582926174461865
-0.46960008490379523
0.04049557977036885
-0.07887110326143615
0.4244434885678673
-0.19380552220351938
0.19806728173011462
0.4828772529953058
0.4972983433112167
-0.22729068120223697
0.34596360228333134
-0.11342298705631099
-0.15834679835960855
-0.39319314495361624
0.1725563332689129
0.2046741565775614
0.15598151429445112
0.4647197067791022
-0.4319647274736111
-0.48425490261607745
0.2869379380477321
0.5519956523029055
-0.05640225928314872
0.01898843167485808
0.3265755509205094
0.20282028329741894
0.28368531345908027
0.02231381818046955
0.09546878761989606
0.6106445481062719
0.3545673414817821
0.5633353219819094
-0.16905674582359678
0.30433410839228525
0.31965557843746784
-0.17633617250063083
0.4737453112977354
0.47600951382168194
-0.12644130182984806
-0.1575770174510664
-0.10995156068522662
-0.42600097623595534
-0.2125385881505755
-0.1576933368981746
0.347907812270269
-0.5104079883159183
0.4125827214621971
0.023050813499467495
-0.1911231129043341
0.3200934776675352
0.5191901984919592
-0.319621447369493
0.1881449487019473
-0.47961399229773843
0.24020428274290043
-0.5394243655776272
-0.39758592240754287
0.24196538112388252
0.44115836240222595
-0.4412794589405043
0.045652031150532076
0.1678047965462815
-0.2392972503466888
0.1905642494769509
0.48310931020965286
-0.5394234206837615
-0.36989457004528375
0.13766669924866476
0.24545903636878807
-0.26216625201157034
-0.3349005357109638
-0.4717635332956033
0.19912428570662485
0.12449778402183669
0.3471122626498541
0.4415659691515474
0.12558770638910424
-0.09742025666037332
-0.3617257214909215
0.08868239077549357
0.4301476068684671
0.07033404566470373
-0.49528819046516653
0.2133438078543756
0.457249731943294
0.23751168958813107
0.012787934557946776
0.29908647682856115
-0.23482594607629312
0.3193396395314549
-0.4083575773872054
-0.30542544954487544
0.48250219465946054
-0.29287407792432985
-0.0189192123826569
0.23397277466247324
-0.0078756042833693
-0.2236922814219609
-0.030327490134150648
-0.43902892748881484
0.2962546041311755
-0.24246343383623886
-0.2303911518649654
-0.1359853054743419
-0.36700491156576653
-0.4562830449837568
0.3478702413017174
-0.21943132638432122
0.1386574300704147
-0.4786820889605494
0.4388292825843594
-0.18219355978178164
0.031063345649329405
0.3705521576076701
0.10186088305962744
0.24301759620940167
-0.43617497349692047
-0.4160435773646531
-0.34965495262210583
-0.35222663618493016
0.11345331583867596
-0.5381198596706354
0.4064229616879446
0.39991388537863
0.29853508424801617
0.033392512309201136
0.19492564516428562
-0.2977970224224539
-0.026090602383219245
-0.061579441401133785
0.33848898435836833
0.04142133845601364
-0.039247657425005605
0.3909701047031948
0.22360100264556412
-0.033354206494502
0.2978170247369421
-0.22286849974098777
0.3570771789191405
0.2531929494150265
0.1290046014947889
0.11780951494869497
0.1091866547056735
0.35621380962323107
-0.3220833284667517
0.05153779896977697
-0.4841251368431573
0.03674297275212229
-0.0803245313352976
0.10663231368653747
-0.24996792664068312
-0.02569934719979648
