1
40
6
-0.23573709355001154
0.6411232868965605
0.11022558534955966
-0.01750938452699999
-3.8333213796506397E-4
4.5333614522377125E-5
0.022699434027359595
-0.07115098786053471
-0.005874765253093594
-0.08601792447564927
-0.09179081075253977
-0.29550629739204176
-0.29576542380878934
-0.05376509301133838
0.5645456610360304
0.9341355674621511
-0.11737099833725777
-0.46578889207187113
-0.08006723924529867
1.1482173444291397
-0.1036652088885313
-0.06338598342650273
0.12565595319162406
1.3318745930061198
0.05232309737436522
-0.627762461959771
-0.1270553991500138
-0.03376221606544275
-0.04056545105855053
-0.07350384060240847
-0.05041107860091813
0.4233245256811034
-0.13319215439631288
0.06801286850754158
0.007908813136499077
-0.5022163553096283
-0.09458548547469268
0.619802291530077
-0.5468073966241294
0.5771736073032107
-0.3661572876990361
0.15716504602567924
1.1424543421759823
0.2813815885928953
0.17254372176836325
-0.027712302781454055
0.39654218213923065
-0.3613161951262057
-0.4797156072685245
0.46026725057577555
-1.0773579305764112
0.4778529955773066
0.004237457875704166
0.007376617677171733
-1.110165768966654
-0.04853922417219504
0.0356361607801091
-0.31640192807276957
0.23999623025408176
0.3265939745890745
-0.12408406633649045
0.4595550335170122
-0.16975284063137575
0.1313814233719315
-0.09471785369689618
-0.21090793868703164
-0.043494098905248614
0.13119276586582693
-0.15468000323632894
-0.06621257736246362
0.0030246644805019666
-0.02410094647622358
0.15644348254692964
-0.19985139302940416
-0.011380913472767628
0.014292439035143352
-0.36146557959662867
0.2969487941586909
-0.10728258271418291
-0.3614105291942293
-0.04666740077648058
-0.2517782014224936
-0.4173952862587914
0.038378235021806276
-0.09896354296133465
0.008595166203719843
0.17455699959779886
0.06263624511364627
-0.105928355071513
0.03744368546212555
-0.11805493434466019
-0.2633128820372442
-0.06134058736496793
-0.09959625869659265
0.025061321633008973
-0.10519322296017408
-0.03678583558778429
0.19676694128974254
-0.17509988371122207
-0.021024136071741063
0.18116929267082413
-0.09980982318713155
-0.26679479576282383
0.014067973899431168
-0.17202412814006654
-0.1757450830760216
0.31579471839599615
0.19264803150464063
-0.14588221281909197
0.47307889204226933
0.39566800131110486
0.10689931840964913
-0.4248684207961513
0.2075889622538481
-0.12951864721214842
0.1984364116910445
0.15656161346811173
0.27957047134664514
0.4934734288200729
-0.1141336533979325
0.45847025456787033
-0.527949751943252
-0.7427168716410438
-0.20761316244564926
-0.19511356804541446
-0.05762625997538503
-0.2044747157701117
0.20824674450344652
-0.17788896100749388
-0.7595010075183704
0.6519824442953108
-0.6069905275746842
-0.22986132739968296
0.24881686570343267
0.18372700636169034
-0.27799194644078723
-0.27766738725261564
-0.09071691273056737
-0.4833172197695133
-1.5894880591261271
0.5649609037478204
0.5273086722776231
-0.8209227790415442
0.016454210145852285
-0.15612095281606836
-0.3163150777271163
-0.11974473167522803
2.5471789167728836
0.11399093083083585
-1.5884472278078785
-2.011430711023555
-1.3423667691654455
-4.322171072968434
-0.2359002398848767
-0.35664149385322635
0.16022235742236143
-0.1563731126287733
4.215039685952733E-5
0.15626188660925405
-0.012635761509128941
-0.592415902477705
1.039471878984863
-0.9423788190621913
-0.3844575911431544
-1.0153637193782301
-0.3512463329734705
-0.5710986597655651
-0.3062946979503984
-0.1318175224925195
0.008349172557873492
0.04458988799576289
-0.060560798793689016
0.1701792924204585
0.23731695841423697
-0.12078903825145289
-2.2357420510473944
-2.9323184133831965
-1.163291158270694
0.9279564859232875
-0.09760992235194767
-1.2573601382939545
-0.22696206921691753
0.5014297258459522
0.3014837642115219
-0.19998737879505282
0.0648211220268517
-0.10571983483380333
-0.36927833837989
-0.18214659078040493
-0.11101659744705565
0.07362839222949309
-0.10410627386037105
0.12676047031066937
-0.14166858334952506
0.046576595033545484
-0.44443229447937665
0.39864825430918893
0.2773325572946662
-0.17062358018291054
-0.146935585563225
-0.1941009489017038
0.21148604784685243
0.2116231088631945
2.280261205196703
1.9018278130045145
0.6319682109034042
-1.2449300098088196
0.018696037617689284
1.6152819360860846
0.08491330643462482
0.35029155164003173
0.30851750929607974
0.07953356195903152
0.045973915830380185
-0.07193747212729089
0.16071377897712935
-0.42116281159901975
-1.8498382447912758
0.042730464812114954
0.806583186451005
1.6663998663832775
-0.2674886973239623
1.7217617501432507
0.4290833381814722
-0.3385069034889997
0.4398081657922259
0.2856427055966687
-0.4084133358637119
0.08485513842606209
0.14239306280666622
0.07284224025116262
-0.0836746502540708
-0.006452419737585792
-0.13327453833042913
-0.1219373785079866
0.33840506350148836
-0.14964413962456458
-0.30622637021713306
-0.15176167971074692
0.052580523325449345
0.2258728336769328
0.11295566309673097
0.14370433014103995
0.5296710455948798
0.22687260378582938
-0.30504265709031786
0.22958670091421665
-0.19664123528285218
0.3127696303818152
-0.0033714104750776244
0.2108444981649217
-0.4453619208624088
0.3532955261698081
-0.03284045170134036
0.2234860932299729
0.05157788468110075
-0.31664855126059643
0.15385526911953332
0.8223132727103607
-0.7816565622400314
-0.39547121605416885
-0.46927579779393735
-0.3571964018409892
0.3234803661821055
0.2661883974080849
-0.3800899857669444
-0.4242339141747262
-0.09079406896033736
0.10834490419689823
-0.0631131662198458
0.3554826488843395
0.054352192023871385
-0.3373405883328802
0.3723884562673841
0.03828900083102297
0.2662478539396586
-0.050708174918699826
0.31071957745246664
0.27461352326471183
-0.2922152447120374
0.20533147689158213
-0.19728930695173322
0.033870853245478394
-0.2859474589076621
0.10450829547068029
-0.23551157788850982
-0.9367261844505078
-0.12860353685744044
-0.17783660941998175
0.5607534049279775
-0.6008751568959876
0.202055605953693
0.5247527101096764
-0.2099546031898491
-0.17381083208981052
0.277310656783332
0.19479218121640096
-0.19464242120722056
0.41125677428506585
0.30964498005776686
-0.21180772173367982
0.6952989288463443
2.4881260378286854
1.1910154806070596
0.14392585123268875
0.14756502820650477
-0.40407144641334175
-0.057171052273649936
2.193091902608398
-1.1040404625463025
0.054723607529241686
0.2225875496592636
-0.21344920433554132
0.212607465841269
0.10054281312549633
-0.9265547436000109
-1.5471084517780538
0.370649333870647
-0.11300652260022329
0.42079376311733596
0.4397389483600664
