1
40
6
-0.050940048804271464
-0.05270079850842822
-0.9497376311434025
0.027946621403732823
-0.4432634739193019
0.04262276325027963
0.1265454491812275
-0.7035835387345498
0.02847823445869313
0.16661883383552553
-0.020603222255628374
0.9649706702857954
0.6398510201022797
-0.00689110030838209
0.04736547685644358
0.4082074106699048
-0.1509203710050793
0.8176628454537107
-0.10769015871794531
0.1188960151756733
0.09231241384550434
-0.08022643701467942
0.14838687018561444
-0.6000057526494078
-0.8950214699457776
0.08354317881928601
0.6284143897886182
0.10574168004598446
-0.08286624605317358
1.0780286601378193
-1.162778682414013
2.6988360149796575E-4
0.06695667536042833
0.5713912755490576
0.5445732484242513
-0.10727509018716246
-0.0268713332485699
-0.03374558624845487
0.0013760110742178477
-0.08466541788470917
-1.533905386600051
-0.22158031571024894
-0.01217165900286225
-0.012117233939767647
-0.203253090128316
0.32823921304868137
-0.12722234616198633
0.029812528604536124
0.11033876517127167
0.5644698382563547
-0.09758116044966592
0.38779169114675915
-0.05022047672346851
0.3975696952427554
0.25776385632349824
-0.1747828038955596
-0.38791496443869483
-3.63982907921965
-0.19148978392150764
0.4686793789616086
-0.19131942129644938
0.8076287063374918
-0.13981238068397933
0.1767891953533374
0.07612657253404659
-0.17874223929448962
-0.19156636959365608
0.13277642716907842
-0.19843258167091646
-0.48742647596264066
-0.4040556034182587
0.6381443289923564
-0.039989871858640995
0.6699109309296976
-0.7772269853998006
-0.14057346277492924
0.2942471194782426
-0.09676860778195336
-0.012190406749646695
-0.24822147690694732
0.030177652575920127
0.21646245847243487
-0.35011222413665705
0.06777278256707725
0.5026763797893197
-0.22748736789712232
-0.2386567378934803
-0.2958035076893843
0.21980561103598745
-0.22765612181410283
1.6027663453174368
-0.502730607164577
1.11167361015363
-0.38404187483541974
0.08136948217701523
-0.10556364474041306
0.47206943279711516
0.15293360275861828
-0.02347965786343308
-0.07318568076402543
-0.023508030917190306
-0.3857403589937697
-0.27054401367427283
-0.27043536021053977
0.18249946830214223
0.35108938762830344
0.1367406705399028
-0.14803146163298825
-0.3938507242938871
0.4395788000355519
-0.41931188481521664
0.09396103069857309
-0.23805639130547876
0.08024680167543086
0.1249046438320712
-0.03396163501515648
-0.29607192781395975
-0.039955894160969715
0.20431556664849668
1.235794126098996
-3.1684502936533847
-0.4912673742707358
0.4136073408667506
-0.13819975737002302
1.2041563308121193
-0.11012956428023458
-1.1731019136047336
-2.133363390297087
-0.8273737852176433
-0.07065986341170769
-0.21798627380492405
1.3703044863116338
0.08272677420012114
-0.10201869055109489
-0.22599505513066087
-0.09621736477054002
0.1736949148032566
-0.234908875354306
-0.029074445355274443
-0.111039066651818
0.2443272097119896
0.16244471801438695
0.25695333836532436
-0.41667832348902756
0.32221954646434525
-0.1087767444168474
0.22091468999378566
-1.1926114167806738
-0.014443185822023991
-0.18141294974042682
-0.6769079471121872
-0.5464285861182296
-0.1923165978805808
-0.35094403765045096
-0.3650143633892154
-0.060995708427973055
-0.12667516353379038
-0.09355541040850394
0.5254328566400046
0.10249180445386533
0.0858571648933027
-3.1034816158614698
0.44155079083438054
-0.974239775105905
2.391365042845197
-0.8377372691008097
1.3208017660514857
-0.30935609818062454
-0.1606118675268684
-0.20172034707418754
-0.010411136626283584
0.20692261169796689
0.17712877750775535
0.33407188672457006
0.41684088199311786
0.07488422036655479
-0.25302585961250584
-0.04652181455300112
-0.19610645735550272
0.4000368078035963
0.06505362880838916
0.1791654471701967
-0.5077351463886696
-0.11550630655611673
-0.10464749652738656
-0.3366126304370842
-0.34798741296945895
-0.3039229309129507
-0.34645571892207494
-0.039983728563624144
-0.13272407228502056
-0.029706166948976903
0.1167852929934941
-0.06300066221043277
0.16283924377716796
0.360693649805083
0.24982671957728952
-0.2964503633489342
-0.34752944519019147
-0.21907808797157177
0.42121506778713524
-0.23198886047973066
-1.3678223583404487
-1.191463428332542
0.8261043471781429
0.6774451020124956
0.23510112647833054
0.21452172279426063
1.2408960673875753
0.022314998849498936
2.899998866821351
-1.4053996602234213
0.48930087988218607
1.220743361271051
-0.03056691713728971
-0.41991707031665676
0.11887872904055606
-0.3565733497462378
0.3159656158613727
-0.14611840845989849
0.417787641307692
0.14956151024078598
-8.019324289129534E-4
0.25054739922778135
1.5093823052015447
0.8086399048360151
0.7778407947229001
-1.4317375786843018
0.3739775146715592
-0.3979613265174727
0.23665185871052105
-0.10009866298323346
0.30931341573412796
0.08124790910092518
-0.36279104045987975
-0.03863786184557466
-0.2836220353053133
-0.21727221753697012
-0.4012231388491562
-0.40300503652077935
0.2321696486698074
0.15915169238383658
0.17303982876679555
0.5234698706951925
0.16141923229173355
1.7331140140849144
0.26464418220147634
-0.41589589053287385
0.7784057462253275
0.058622844357311125
1.7371417606151978
0.5076014703055931
0.7691672970808474
-0.4393511793517626
-1.3867450283418696
-0.17604622853728527
-0.35383359386311963
0.648738552486663
-0.16328639336043127
0.029795524973137064
0.17930237197514046
-0.23039755126097616
0.278558427728828
0.008378913630626155
-0.14417786274539837
0.2673933555556106
0.28819808360962773
-0.11148928217247901
-0.1722659135049947
-0.07426027852934075
0.09494889148597346
-0.13095040494252597
-0.4541019964760067
1.4990379961437965
0.06597596154678477
-1.1884428529038231
-1.1038307734214643
-0.6127728539892549
-1.9735180823627858
0.002789156350883976
1.552544641089688
0.31375967258777376
-0.5575027825058717
1.2016277731564813
-1.032548532196766
0.038862831598558016
-0.3005409032911978
-0.2424723409609176
-0.025230864043026366
0.3492217256610306
0.0877280357189239
-0.07831713561032255
0.4830464418374416
0.08573204356124028
0.24799237415583703
-0.3553799607531622
0.08082090293842295
-0.1360958540003306
-0.13846252989625263
-0.057711083959365375
-0.05664297040509339
-0.28402502477610864
0.3481266085403319
0.39216143260227265
-0.020126222917504318
0.02311160377582344
0.3168160871439393
-0.06331092762626904
-0.1587038676281295
0.23930905295644625
0.04763599421879531
0.0031848122426563798
0.20000167267524271
0.08991328141459386
-0.3323310959255215
0.1999145327641754
-0.27942973774463375
-0.04519101663665358
0.049422179808217274
-0.12962931287108204
0.0770580526687372
