1
40
6
-0.9861180731042458
-0.015826806187675544
-0.028902058174108836
-0.776216439179186
-0.11340535445443867
0.07160906621196282
-1.081268034417968
-0.025985249834189376
-0.03173620373697077
0.7302785059607755
-0.022080499770970173
-0.07157858138536226
0.15425637478080126
0.03443937462689201
-0.0752323986458249
0.014821556378583529
0.2049316647830753
-0.026283433621431013
-0.6522287869234904
0.052263067320437694
0.06721872792890843
-0.06402393319720562
-0.2607496924679415
0.0711980117230326
0.4326537572887977
1.100537444546656
0.5491479670547297
0.14366050403685734
0.038699821500897076
-0.4848759820075714
0.021451813149912638
-0.004304678181619167
-0.02193461610744021
-0.3801674856032062
0.02554810003798651
0.328760263664703
-0.02219680072639433
-0.020265044180857755
0.03118925629462317
1.1191209545013086
-0.372291106004432
0.29352522503776574
0.04854951188550989
1.0052218849052836
-0.8311304286785143
-1.5139337008465037
-0.44998204812147924
-0.2622839531708361
-0.1795055682800672
-0.17249284358881362
-0.19504572096858308
-0.08466201052367074
-0.06207184056436728
0.24512122469688677
-0.20307662094112044
0.1543391835799338
0.1525403034651598
0.13190748866641588
-0.1507090649241781
0.07227529649148268
0.055619178484089996
-0.027144493390264573
-0.3871913913404559
3.8532823965866485
-0.012719503413346153
-0.4192636120877504
-0.43897302078713185
-0.12359619079421184
-2.2456135180716963
-0.319809715200553
0.3351367098902952
-0.2586695323195067
-0.29766881998493117
0.17838314671329075
0.1274271463114979
-0.1039454664083921
0.023006798037510334
0.06382753336300818
-0.00690714877433394
0.18045339829548895
0.15284733776998893
-0.016894417516871398
0.4504975553716736
-0.13070857223596122
-2.554125599048104
0.12259191496085452
1.7675677041987101
1.6655381659324575
0.30643965230785775
2.9523988979565527
0.196351416766879
0.2561290970746687
-0.18231431210703639
-0.1836003849475538
0.12141278278722008
-0.0655340283277345
-0.06123070919504758
-0.005108182961499331
0.438393952848815
-0.21946083746602701
-0.09278965754586717
0.06662030815240823
-0.06795557258498773
-0.08647259167527827
0.6572060731217997
-2.645708454419765
0.3729629638410543
-0.5728729737817916
-0.7697504163624397
-0.577205097096188
-1.310517496948329
-0.25265486313585145
0.17142492370177462
-0.04311879151200116
0.2088544823316999
-0.16783398630732263
-0.001541293545995254
-0.017068492771976248
-0.38891595231057274
0.3570507133043203
-0.2539198210574743
-0.22089381008662484
0.2349868812363739
0.07033078718933795
0.07564566855598276
-0.1655797536990822
-0.1711738253191906
-0.5245617326327591
0.3548120789497599
-0.10623801581152521
-0.2359163709180821
-0.14611893207169618
-0.003358936975396727
-0.20346373812067836
-0.11407933486177436
-0.09858701499112205
0.10881800136684225
0.016630511715283503
0.08859756759829598
-0.21342504062430234
0.0913989315055745
0.08544065847391374
-0.2041992172510201
-0.07731510935320354
-0.11348937791601572
-0.45289862534017516
0.24888693834350417
-0.0923735846168064
0.08360887870775914
0.06271413073879438
-0.11849779462293542
0.17444309864978277
-0.043732640548048415
0.44756988871661546
-0.6320297607235723
-0.36819334912107005
-0.2951284645360058
-0.10449142915364272
-0.008067105899144267
0.022242113003828858
-0.14292248017500875
-0.08656168368938881
0.10434598705806838
-0.3421441468951512
0.23853680691867632
-0.0908885940701927
0.027318418752057733
0.08518746429190649
-1.1756490723396886
0.12017932776189176
0.3460632155810048
0.5716973737211344
0.88486491513189
1.8612078486727957
-0.09353657254426978
-0.07618894938944841
-0.07546344286059914
0.3723410612874323
-0.2262989016017445
0.17303859068228233
0.08327104036493237
-0.10558276946141053
0.03095412381421146
-0.18979642605026334
0.3959107730508859
-0.142391347689672
0.13413726072463422
0.13830998300112807
-0.22236317845066805
0.267298485336584
0.23661791804895702
-0.2006874207779611
-0.0011300059881220305
0.14221534372022418
-0.3505545725049338
-0.32197923061433437
-0.3227527687907947
0.810473353458384
-0.048937950826860324
0.24355506429657217
-0.295646126114028
0.39133080831305683
-0.1737709185830395
0.01817464885707861
-0.3302843976682886
-0.014473619161433414
0.20995961547414585
0.2339029434421056
0.24022720746229617
0.6643263655104061
1.5986677872806805
2.012493128658594
0.5580931121354775
-0.8340810580703661
-0.4298335971646896
-0.2588754474315242
0.06998716190534474
2.098474923540134
-3.9844175821797743
1.0800110217493515
0.7347957786355223
0.6647046890865521
2.617844169244291
-1.5280120347274233
0.40229325409492916
0.3076367319360851
-0.6472355939478691
-0.3101654321469183
0.06458533460216402
0.18143579081837255
-0.03940619043400918
0.2048377671411393
-0.41985655275978356
0.24948332901023268
0.2896982044816814
-0.06870945541179467
0.16360761056203935
0.40483978626637984
0.6505052441419323
-0.00972874842198094
0.22226945360491898
-0.07047146645022938
-0.2544368396134575
-0.08949641838561025
-0.1492909523158239
-0.595566011837076
1.096772973111584
-0.12757141090104812
0.2691278650565531
-0.33037080797150437
0.5508384622704464
-0.19275824678716494
-0.07926450205584977
0.04902758013570153
-0.027649101772693693
0.15164825847624921
-0.017898231974799745
0.25892857996057195
0.22311865785387142
0.14577345278190457
0.044072591527373674
-0.13998692575774266
0.15443508318101107
0.1552295680970796
0.039140214670659985
-0.17126566903781307
-0.06587850013759933
-0.20338538797743821
-0.11750029224564418
0.0016589160421911892
0.11509740490686833
-0.15592791944241952
0.27351756725069204
-1.2163746842222052
-2.628166082523376
-0.29085478903954043
-1.2899793222275104
-0.5167994343759872
-0.7708806495249028
-0.2680465840584186
0.060167419315557295
-0.13407838566160152
0.3091136692041693
-0.20247405472569568
-0.22536473713806535
-0.08875988049141885
0.5331948618243499
1.2877080906356093
0.11287344216580616
-0.6449130390899895
-0.2470052934377451
0.08049995937865045
-0.6183069488373245
0.06803142456087509
-0.03867798203976898
-3.1421464509289143E-4
-0.07087296993695125
-0.10018758391713836
0.18907493515819654
-0.18568380226469755
-0.18223115253734257
-0.1154495882158085
0.11775038251037792
0.020836085184350425
-0.08030605625215193
0.05653730649968541
-0.09222525475758118
-0.15490667345920217
0.016708384396250348
0.016747199788190646
0.060713951333240826
0.11776287189154587
-0.04957723275048758
0.2968994655227664
-0.026928130912647272
-1.3483159403874079
4.057953816143578
-1.4477129781031253
-1.1928135125063624
-0.5286089905156696
-2.048229425817332
