1
50
6
0.31953498805743524
0.2703063184750472
0.0014438944524592225
-0.3071076392975725
-0.3194059371160511
0.3221130470023666
-0.016208892431455745
-0.2549397663462304
0.053968722925524945
-0.22260484103405664
-0.21736745529946877
0.21775339483895195
-0.18435242688628664
0.42800189066584116
-0.786832441523098
-0.18421263272781566
-0.24898741990305348
-0.4229822309310802
-0.3712569133038042
-0.08206218043405109
-0.28439046580439775
-0.3947445193714485
0.11570093388326744
0.25638591332087385
0.25752244061056717
-0.896393112796629
-0.4572692166803223
-0.30956589902697745
-0.4549022581190243
-0.2984769745440649
0.39346128690646165
-0.28961479464307044
-0.08518055524942247
-0.17666516516482839
0.42471998938688327
0.3702795653125786
0.38949950104258996
0.057592361168394036
-0.16781483357978946
-0.31775637430885134
0.2110731001745191
0.3288929026899684
-0.09762402615207834
0.5030377044484521
-0.3473463097507103
0.3035211754521304
0.09742568093679353
0.1438660984925322
-0.3460407528159913
0.05210591791187998
-0.34451308203005787
0.2773861247770477
-0.3316122341079938
0.5427438890024014
0.30175523783294717
-0.17623756144968664
-0.17159048253813763
-0.16093579111849654
-0.06974538416554406
0.3208683434043944
-0.35749770380356727
0.2337111168569817
0.22592202813631457
0.2237750246121203
0.07658912431716662
-0.2480200520490974
-0.1447208973928109
0.19700191435761183
0.07199672830006622
-0.19154875052890746
0.09178361805182993
-0.38104840091143793
-0.42134350738741105
0.13153275153410215
-0.3325124390047597
0.351540186474643
-0.3681524653861775
0.49273205149856836
-0.5020157602024011
0.058655813463756645
0.45684935741111315
0.3134570675841733
-0.1889504706488391
0.10124365904435052
0.5246570846630496
-0.3450988691130896
0.010359691276190559
0.2846530876289762
-0.19546483401682055
0.01852216810279096
-0.4589281137099006
0.03474140007803576
0.16149458555397264
-0.03707444491613591
-0.39158496117377484
-0.2910234028400608
0.3591929076488902
0.4387006101306212
-0.43565504127025884
0.3323086035687715
0.04132244625996454
-0.31680843618537025
-0.34299951350059227
0.03504666525832902
0.361972613801047
-0.3929733882183359
-0.15674918704358873
0.3639149012333239
0.22487512216498617
-0.37444109578602935
0.15776056068893993
0.12767287047939063
0.4691318179537121
-0.3069259793899242
0.3260808830359094
-0.37220697493654886
-0.42364813229580656
0.18918802624880465
-0.3030367414790002
-0.38842725652247506
0.4393281919902962
0.03284116671271933
-0.32837101455966267
0.03327552746783514
-0.3434344703917824
-0.15473077049804845
0.40128535856883035
-0.0720157552672374
0.026990524539267067
0.3888839852877145
-0.41840126568395836
-0.005290109552810118
-0.2897669084970944
0.3550626606155758
0.07249398386446694
-0.007959854522091737
-0.38441827942001705
-0.4884541872584989
-0.34017828784495774
-0.31955605491705213
0.04184834777199166
-0.4345461390998703
-0.2583319746924782
0.46204355183259177
-0.167857370217198
0.4320202035313485
-0.43256747543293317
-0.22733998719620319
0.2138188828561987
-0.36077470856741506
-0.19712964127770713
0.19859739946414573
-0.7595116175613522
-0.8112767815583698
-0.27305479134101146
0.5403864879082859
0.19279681899564122
0.25810660154423537
-0.10752029553920008
-0.18735091228958506
-0.18663595449090203
-0.12245844908696135
0.12110791572811115
0.425614145705875
0.46395367611372607
0.1725224550174622
0.3192795488824599
-0.23146910516667646
0.3486498359347986
-0.2632242904823408
0.10402465096412013
-0.44647993902306654
0.12004296032979338
0.008961624898217987
-0.34216549978969407
0.19060247872456246
-0.16654700143047627
0.3571077844056616
-0.16801161265034936
-0.09770733100022241
0.5579458726808096
-0.4773378647645326
0.3744257072782764
-0.14715060521754936
-0.08120050644751232
0.39356417768266927
-0.08089358079023637
-0.48903481815737526
0.14472710786508558
0.37740198284144977
-0.054280402648344196
-0.32786377415894774
0.2014344926268133
0.08722182008143688
-0.20130940303319383
0.3834984958789365
-0.1369994147525914
-0.10068435884302333
-0.4258844603893543
0.18487391464172287
-0.1411384917523144
0.5256728723376116
0.2977740474235379
-0.32862057194933725
0.12289092911972159
0.2529138250581206
-0.12706104255014902
0.3580112177627223
-0.11102434409161878
-0.3642358990964209
0.16988541021051906
-0.36297247910407754
0.09493789893769276
0.39883408814683347
0.39228570301113924
0.4023857939123497
0.3464687228377815
0.327562897325569
-0.31811744739538655
0.24708611992116164
-0.03456250981219515
0.3700134580354508
-0.4383778325957047
-0.048018250213073974
0.08257727222138547
0.10776283931768475
-0.7079568190566772
-0.621651916625366
0.07216986221474016
0.696615087402724
0.8378941187599052
0.5040919962998112
0.5035974176726659
0.17600123189871392
-0.3795380540170814
-0.4203702568305787
-0.45635613216367305
0.19188057338921735
0.3406337721982831
-0.5413290122040079
0.4153312055357117
-0.5033153194222978
-0.196600486862219
0.10913395806338533
-0.44019972230066223
-0.3220991525550691
-0.30442142698307384
-0.13238338030279875
-0.6731732879729196
0.2683351177993618
0.5467271302448431
0.327925934389177
0.11467347484767561
-0.27272404512259674
0.13886119672727773
0.43630685364343164
0.4392788144602065
-0.00972633613850196
0.08219472659854385
0.23005146192643555
-0.009004271758827821
0.13020990878451144
0.15202953353143508
0.07862712643147599
-0.2567815373449666
-0.08391693020728398
-0.17435506333502504
0.0831523310702548
0.1286974289431215
-0.28277963018867763
0.08494684304159948
-0.1174425925063618
0.04460197784685956
-0.4661514461243591
0.37875857286610576
0.4110550961331728
0.26760160003804123
-0.031256581034522515
-0.08923916597240956
-0.33770387077530584
0.2085747938132821
0.27207485479119053
0.11547799333589996
0.3105902394665146
0.009318621914486305
-0.1635780516987861
0.23962492096871416
0.1778652770704084
-0.25768863375081397
0.46460481930702024
-0.04338424190019346
-0.1854277598746945
0.11002789014967053
0.2835121559605485
0.4330820699205034
-0.1392097343674736
0.15770682348562276
-0.22743008207330512
-0.07614052105906417
0.3481416977298501
-0.5517959657000131
-0.37908221110201906
0.1630095969086709
0.12246240244755184
-0.21145072040046212
0.1234818634296112
-0.15957506170566774
-0.288730349742828
-0.44726293967434194
-0.5208849058336297
-0.2819252107030346
0.3685962265586598
-0.26010358622243
-0.26017693034726497
0.008373292374823383
-0.3392480214177588
0.40184130068264795
-0.17606031499381886
0.411424362239388
-0.24514453273230594
0.09478007085823684
0.1394281418785108
-0.299341884563307
-0.038315391268352
0.49737311162155073
0.08674916345967505
0.2504463875576017
0.2925240049808761
-0.26265633410177996
0.2692091869062468
0.0035376708722494807
-0.27481318479908695
0.02283125244761887
0.28213053506931546
0.35937760166846466
-0.14048735834600692
-0.2983280692759709
-0.323530111228515
0.40350947499560935
-0.0963951595176146
-0.02289470567757657
-0.09664900492972145
-0.1708794988401494
0.4967355775406857
0.39547695768481733
0.2713973948614639
0.023482483628811827
-0.3746749873970094
-0.3327712168463888
-0.3328518498920169
-0.14491278763802978
0.3362638092972306
-0.05127179870398312
0.21219290188378928
0.03155323805645736
-0.3770486967525399
-0.3343586837950232
0.592514505766222
0.4024035968361571
0.4553496679550212
-0.18314543712728976
0.27806034938922713
0.5299473684268047
-0.1387445196625978
0.009979728020474043
0.21131037923655382
0.39938395492428225
-0.17059173685161402
-0.06998730304804715
-0.15434116926025443
-0.14272420530043842
0.1300906337819724
-0.028255241038259684
0.272494321561282
0.054935916438756255
-0.17639781187190015
-0.44038820785584776
0.45193432167512987
0.15561412795093307
0.16743060788467232
0.3876006437122504
-0.12266191190150362
0.136572839691414
-0.4365473248293623
0.3626862157422913
-0.2756959320060173
0.04676516880214367
-0.4153146402907036
-0.42192173243771147
0.22665209917895304
0.46379158908833096
0.5157747316954088
0.32915390643249803
-0.08134502491310057
-0.03737329805807189
0.2888481560297886
-0.25674156901468287
0.1742446699552719
0.4126926838361867
-0.26937736082070257
-0.06840642399841451
