1
40
6
0.08507646818935012
0.06721900250298173
-0.9920590925496288
-0.01739472217030559
-0.008075769181576003
-0.004661424576930756
0.452357624357016
-0.9555531519507843
0.7588782904670546
0.08689084449633525
0.057096399495130915
-0.6058777590913043
-0.0652692297600807
0.7323928479873606
0.10762535348292131
1.2375747544038873
-0.5602988111611754
-0.14467092082402827
0.5961698429382195
0.1571040445056774
0.7063625857339304
0.02603345431736283
-1.1084081677049333
0.16794609612021244
0.831151611944271
0.06731143859375689
-0.24689268798090536
-0.071427019234924
-0.03433744789435656
-1.0875844096383434
-0.1861857358293466
0.10494159632782854
0.008235908728542254
0.5497082632256808
-0.1454712975060764
0.5877714091092968
-0.0089457475106935
-0.04127977821209159
-0.08678134513713598
-0.10523055941028749
-1.1068913187456118
0.22635574207498094
-0.43982930786755103
-0.18368312339954013
-0.3031957592743641
0.28668258869173774
-0.22739047518860087
0.052672472747094176
-0.3172362800477745
0.049632133625818024
0.7721119315998304
-0.21658010753580284
0.687378348538466
0.2582956475647637
0.3631361543714972
-0.7077505319245917
-3.0706133390723873
1.2740681155015747
1.6640681616378687
1.3291813683104934
0.17011759494444273
2.994786404825804
0.11255486291456154
0.20427323632281774
-0.08796705458277577
0.08690165326481877
-0.2930169018594963
0.11127349074801292
-0.049217032243151625
-0.22645500902299887
-0.13047362771843313
-0.06690289977728836
-0.030213237128270554
0.10520052812791872
0.27131577033896404
0.14089462685885645
0.0919646455607558
-0.2595677043505333
0.23019657099559288
-0.08438346355146648
0.12245821974246672
-0.09002664149758126
-0.07433151951792018
-1.0504982245759054
-0.16461672112316858
-0.34951422926300973
0.6474797813646851
-0.20783269281879188
-0.7590524217470873
0.7419697458931224
-0.3713515741554649
2.452784728525015
-0.45419214342086495
0.4810666100759429
0.6743287468434986
0.3906184651802366
1.4750506771057175
-0.11284609234046378
-0.056828672377270635
-0.5619063571019115
0.5351577693288924
1.0586720770587181
0.9464391909213606
-0.40892086870867583
0.1347569975578292
0.35810581107100703
0.034463076759106606
0.24506429136981722
0.1643157488674758
-0.16784620931753574
0.2715704055942533
-0.10931018278575677
-0.12859395264988183
-0.11332939708667315
0.3032486826919264
-0.19575599433210966
0.15402592306549603
0.09785153892548741
1.1237067595930772
0.4284700398265101
1.1379340322040083
0.012681131531093822
-0.1471439275536202
0.5486695605227979
-0.46706994244252104
-0.037553482072051066
0.14025996028638393
0.059379733339651186
-0.266972357754736
0.1206354538930627
-0.20349007995102622
-0.07992324386092711
-0.0455084532500604
1.7974857618291895
1.1956023379578222
-0.7023284306643811
0.7104531904005289
0.7618025579436841
0.9274722692452417
-0.10001087366527064
-0.11556751866467817
-0.10078685704366853
0.279850669981463
0.20357123913192862
-0.10941921974903353
0.30787957072439415
0.03694041017064998
-1.874916638858719
3.6370264275460893
0.06665928817690575
-0.6715318974349339
-0.133780614444292
0.3032385047823489
-0.8249573547797105
-3.032977055051469
-1.2856414005516281
-0.7157650174444974
1.9063189776117633
0.09413427972749257
0.18922527627407257
0.2934678549527969
-0.009285869910919823
0.4216461965812736
0.09386607159556036
-0.3593837742571229
-0.08122112529960937
-0.2654773142116319
0.32340040305608353
1.44594273386381
2.4830761122664784
-1.3305719329018604
-0.5481984649712983
0.9251930372085037
-2.351370712878384
0.12089477499705821
-0.4310713373574288
-0.3712017630051401
-0.160295823544466
0.46283498275043616
-0.030199528885584255
0.4761509166462539
0.047280792956788546
-0.5349990270425595
0.22183638796057842
1.1902207552315132
0.09880798922895168
0.7108697113742675
0.04982629925253137
0.12090493290121918
-0.11306132439642523
-0.19430267125949943
-0.09680772201255797
0.1454975332891923
0.11107746562386207
0.09708008621618253
0.18775776240449568
-2.811377044488294
4.40953179327278
0.5998105683997095
-0.2195114600380303
-0.30220849472977956
-0.6223429996161993
0.05736008955724499
-0.6093212371249257
0.3796338177096573
0.4670987487471406
-0.003055302127197363
0.4136542561249903
0.1684392260113948
-0.7814814533838008
2.5290479913143544
0.2912244125813369
-0.8625083789832747
-1.6867606683952678
-1.1646032983519545
-1.9333944508580452
0.12735311695366613
0.00845153284381515
0.051793255684519666
0.1879898003810103
0.0992379559945738
-0.188196638957921
0.2535532953151858
0.4215155703910269
0.1299387153178588
0.5786129301283401
0.17676818645622921
-0.404571084165971
0.018222380931489236
-0.42894328233238066
0.20226430900575298
0.1182986337766519
0.1351598937638002
-0.15739902976058817
-0.10834401860144796
0.19721630682946512
-0.16277109573570053
-0.16921407770906322
0.23247460176710588
-0.03444243571835849
-0.19509752199235558
0.16050445392677443
0.07923003465196789
-0.08657841045045526
-0.1897436345992792
4.100248488421855
-0.14959490882713636
-0.0838802690801907
-0.27996020329331295
-0.36720077199189644
-1.9481931362321863
0.09646397791517673
0.03385548429816324
0.4101732503108852
-0.21783155017340347
-0.2949603385151251
-0.1355483302850443
-0.4192855304822377
-0.0764105342260391
-0.23027090307946455
-0.2267571284826533
0.4893751908086451
-0.3289273676223307
0.2320323768872126
0.19858585542542154
0.28032600537327246
0.18549155210031212
0.2883131560258155
0.05227997454373225
0.202911316515854
0.03532985444787316
0.05649604717356029
2.0267624227873693
0.6206175362334753
-1.8239091423594178
0.054352720063914645
0.060136808186325864
-0.9857388179563408
0.5643425254578684
-0.13963694578820954
0.185764607556194
0.14278590884857498
-0.4291395222389554
-0.007322905463976156
0.12409248360474492
-0.37787037594150896
-0.07713514754579427
2.1146689650575343
0.1869684085923447
-0.9997949864018238
0.9527776770892323
-1.3069206945358744
-0.5410388300321377
0.0656561883686229
0.06209541533252922
0.21392365187579093
0.003204218966311663
0.07329920292258785
-0.1270801994113689
-0.055977650052486276
0.046873532589140725
-0.08183769727210145
0.24352730368741293
0.019707615238403527
-0.08196834660988464
0.10778421881893674
-0.03674811261128405
0.14812123678652503
0.08511712467437496
0.1297725572504261
-0.39198332246660544
0.06637380829115652
-0.13471250970656468
-0.28491488161705547
0.03417890460759217
-0.32883974731617666
0.2802316596242547
-0.1423766652722579
-0.27657844955566757
-0.3254632994754193
-0.49060329917844286
