1
40
6
-0.9920105509013772
0.09619022175774342
-0.08541976666652558
-0.3863132000838629
-0.011535790645351807
0.10869901794051312
0.029365170785260037
-0.06360040989377178
-0.05563979022812448
0.07821924950993957
-0.24223481298550567
0.03155089590170288
0.9622124367187167
-0.07532610208628551
0.7035243686388387
-0.1456208349085365
-0.11984756738820602
-0.4784987481284291
0.31735164395360055
0.7278347034458484
-0.4878721276312318
0.06415981734650815
0.039305843339650995
0.4095301605244997
-0.018806448560557056
-0.10323505230792278
1.1921724035944226
-1.1298381539183993
-0.5993991005853685
-0.11303960942102284
-0.17657867110337933
-0.8942728874369761
0.0198318990235858
0.09475280962602908
0.7614143508989879
-0.844458606558893
1.1447759743285
0.27660536010177666
0.8163994187101566
-1.1194971825392368
-1.5237549250204052
-0.41935036455978414
0.8682558150719619
0.13245279882814473
-0.3782016955507151
-0.4606299114663804
-1.5154783101215266
0.6152431425854326
-0.49826861175905357
0.3930457675042517
-0.12741314049839852
-0.5370262460486189
-0.288103134430855
-0.530500875503352
-0.8421873841765011
0.33972842807240305
-0.3725946037774467
0.054009561107512864
0.38976846808698323
-0.13886743971951887
0.11443102514089591
0.24674268463518326
1.0445967783934236
-0.30762219300916244
0.711820063431939
0.14450460019211686
0.3743852049108663
0.7069668371353157
0.4133117639870579
-2.3990707361805635E-4
-0.3735285559108062
-0.031076835672812126
0.21002477471447953
0.1314087876772566
0.2617972179996556
0.42499865384620733
0.0760179338271846
-0.0056095446820370615
0.17573960379394668
-0.19453609421908571
0.21187507891142202
0.15953996373523738
0.08720183605636204
-0.1414080137698446
0.05629006809655795
0.23519221397672854
-0.11941957922521869
0.14090277589757383
-0.40128918365170707
-0.23942364925600235
-0.009662190989012387
0.269187128469504
-0.15377173498779942
0.1662102864905627
0.020689668400540377
-0.04219946895990864
0.22244771678150582
-0.05351225112746319
0.3371329991463536
-0.105445310735656
-0.048611660193323795
0.0904695411019018
-0.2386633622653222
0.1466521810454479
-0.21302085416037797
0.5025148278445357
0.12115527936013315
-0.21234766726338372
-0.11579721855893152
0.1112999547669635
-0.31282047768194493
0.30636647608632966
-0.22720627860885428
0.1122495836288191
0.5604807935153755
-0.4040295556674007
-0.3937930153984669
0.07407942179794397
-0.028344467249923493
0.455760716880102
0.2918416186754379
-0.22790190502328345
-0.3366477455995002
-0.47175540098281477
-0.8154434273045066
-0.6038352102940957
2.7879583347719215
-0.631018244927246
0.6819541682230207
0.9837171328740001
0.863709574770892
-1.0387192305727957
0.02886910364830956
-0.03215743968919587
0.147472469704204
0.16370454398567255
-0.08103804818473184
-0.2164748584535236
0.24719504659708658
-0.22628659747684335
-0.45744561549789436
1.8796486807366846
0.8141579786779397
-0.6239645204870851
0.40612213368564976
0.617534313141675
0.4459377664528061
0.012955532892010766
0.021859854499528007
0.2450719146030197
-0.42141811311514404
-0.03219852431295013
-0.24593655009410256
-0.08313118061837779
-0.23200202305726716
0.12475260277172202
-0.22600065386515156
-0.17632867852493125
-0.4316968437084351
-0.45681190570563446
-0.6956865296959678
-0.44559962045261503
1.531130919139634
-0.6483463272504334
0.6598989079183044
0.02630443612872634
-1.0367921157519666
-1.149344065115856
0.44365954405898306
0.18457555093559974
-0.2013460910195528
0.25691560746231507
-0.14813126958166614
0.6216794806929741
0.24747867070205987
-2.6660165966899707
-0.027133103319260544
0.6868290555939779
0.6697696995354023
-0.03717146282133537
1.700539174060328
1.1473454376349175
-1.0385653287098258
-0.4265557379306718
-0.4614524464099717
0.9109697138849483
1.1493342320475286
-0.07754326695270562
-0.15055272114123255
0.20375164693188214
-0.030349177060574585
-0.32817761006618806
-0.013729696915545866
6.317436674616071E-4
-0.3149542219759854
0.11196054111104436
0.2604747237788984
0.4022693620432776
0.27169934413947733
-0.012910908010987899
0.11119053913842636
-0.049822021769840644
0.38789517641388765
0.23159289881370138
0.3013497978586741
-0.4901613439859711
0.6723262634378492
-0.7019459589743343
-0.594798046547196
0.1552991161131145
-0.3258085993374483
0.08525030456890366
0.1920406114450724
-0.3488481357218647
0.28291893317957684
-0.03871677758244975
0.03141561739869409
-0.10215782045706912
-0.21594677744167665
-0.057153952176318835
-0.09609321732288074
-0.3567442289445522
-0.037924727627018005
0.17579330752179015
-3.0985208613458606
2.376028687323776
-0.6412836232038772
-0.7740242109020972
-0.23251564028203064
0.7378702397325362
-1.808585774239441
-1.1936733750972432
2.2040849164754475
0.41990581214749917
0.12791569453978777
0.9441832878474498
-0.16595693008311116
0.7232665886106421
-1.983697286749065
0.3138953145660353
0.2729320216057539
-0.46230868698224
1.6854825079287032
-0.3481038137266148
0.3211013089140851
-0.1333980854505674
0.0793699481394553
-0.036504369702257226
-0.5029772248117167
0.054197589105889794
-0.38392296306808876
0.28089001541223135
0.3202055484664003
-0.21217699660367853
0.27726151111559943
-0.1325329752427933
-0.4028323084572429
0.03669903576425511
-1.7378064260920774
-1.6921824150194464
-0.5948361522156824
-0.17949788135057684
0.30518946982440104
0.5927190616604808
-0.1920820160820329
0.06444730071764931
-0.29026269820219774
0.16789438418868272
-1.650633918340214E-4
-0.00790806368065959
-0.05908211805082731
0.03684978099949116
0.24667461626207335
0.13850316013407565
0.16806331135243416
-0.07554504037118967
0.3523304990828232
-0.30554043863047947
0.09690363026680689
-0.12554676460842074
2.6674914429771768
-5.087830169881826
-0.642336241179353
-0.2726484576601396
0.19590604480283708
0.4774857353122447
1.8529194853802466
1.967389580473817
-1.1349949816428901
-0.6307127362247371
-0.5486833093707574
-0.9722381740693471
0.7128211898006681
-0.010646618458584355
-2.2670337702563157
-1.5759807082754937
-0.6907089351241424
-0.7281093464058149
-0.1573968770832004
0.8733873294502433
0.12210397229758628
0.43140998786829604
0.4741689738337802
0.5964964176508759
0.5339663706656063
-0.06691698569444529
0.3892760428315478
-0.574769396822485
0.4915820018224143
3.8721624833352113
0.006006034692010545
0.3824341633570142
0.5145493145510909
-0.4108114861443702
-0.08649339548782535
-3.7769369846665417
-0.017077954045399857
2.4430180837897817
2.5108929771316024
0.2714492778796786
3.674624420369648
