1
30
6
0.6036609713700929
1.4476640485254022
-0.01591808462054871
0.0407481138386891
-0.04636516736177406
0.037257495420452126
0.0934691920370833
-1.1400684600292499
0.765357100884727
0.10600318423657715
-0.025717267130770022
0.3544205412559624
0.07828071794867404
-0.12921432170008812
-0.09757728497360081
-0.2920390445316936
-0.02070280892746553
-0.023717255011552477
1.3640702913147085
-1.6315969320349726
-0.07796865319135309
-0.7198847557359581
0.033531227993577245
-0.06417032120820904
0.0899881220880721
0.02618837813814948
-0.7456466243761047
0.006653327768262958
0.0971289926833996
0.005191742094362861
-1.8012028525910553
0.2051052883443879
-1.0313781642500868
-0.5547683295337151
0.03608300023128203
0.2595840665104968
-1.078012236993764
0.746526753838614
0.30117760728002324
4.9941513039103
0.3760905288102583
-3.3024873111658075
-2.328907079037452
0.4187088574307135
-0.8952263780719978
0.3718069511443709
0.19791996960473876
0.1293119757167547
-0.06615349598227202
0.03778644252328901
0.05761064985309036
0.05343717035035899
-0.3203451864455426
-0.17303062821757956
0.06401407394101784
-0.4763035307738862
0.15319671784862943
-0.13499665676263456
-0.3637552594751667
0.027412389056648463
-0.50799835605836
-0.06316861476084214
-0.020601442372167073
0.0017353030425257816
0.06697466985530151
0.18034706236492723
0.09006430230776775
-0.23516890052942158
0.05126098544288397
-0.2518023235758045
0.24843990753365824
0.24058726453533955
0.13474394813733287
-0.20372030345887507
0.141060732565037
-0.005139213601260901
0.17708348749013536
0.18847057071359596
0.28212756101393965
0.06354514485694802
-2.6204584271039035
-2.139132764363337
0.21160722535892226
2.0135917203620948
2.7718007847079584
0.08379549096574762
2.078986780920427
-0.6961343433020684
-0.5534598602989882
-0.1361897950542287
1.1683873483614107
1.2996036621316562
-0.26214523770200887
-0.02595232771945367
0.048338626799408924
0.1474922344006246
0.004019216525324239
-0.2166346033208554
0.3188093867348412
0.07070277275190298
0.07988785304185853
-0.18184841932984658
-0.045626304974262046
0.05408428644170716
-0.0625779067741738
-0.05994209514633882
0.07185281118662838
-0.31283685152016244
-0.4039669421337651
-0.0768942794231845
0.051187944265622703
-0.1479731930760884
0.7069038502314976
0.6082104837638791
0.2815688947697583
-0.32696935652078535
-0.14393300074074178
-0.03368862952178089
0.05119471359345057
0.237450172328648
0.2745627724356694
-0.12104724711701818
0.1597301728957923
0.15472687712272287
-0.10503553953502184
-0.13838418096218968
-0.41836139017426627
-0.452464636305629
-0.17510811115442604
0.37203132577826153
-0.060123641830130754
0.10647932691191071
-0.14614845629698076
-0.2307165710551955
-0.005204349933759079
-0.02420347116491106
0.5114195006402945
0.08962518583229546
0.31421257790808677
-0.7119218235747604
-0.726290490547748
0.1739202266199505
-0.40080346761677194
-0.1422542512174767
-0.005485148807260961
-0.1620930400916801
0.12673432562848258
-0.3286664840938194
-0.4221090443128814
0.0798158509235455
0.4547371807825914
-0.05262753376450118
0.03933196662269303
-0.10945782789452019
-0.0473840410502915
0.43463885806692215
0.20983988874750203
-0.0838629458233799
2.919160112561279
-0.37509489208128677
0.5612852465878027
-2.880883173131531
0.15768446943042086
0.2818238740080395
0.6864441607395153
3.9297995253819877
-0.16031583941804614
-0.6241710538615971
-0.3855118468582187
0.14150438588381306
-1.7638282681038213
-0.7952102467958649
0.1260987506629802
0.7845260204979481
0.4851816771375385
0.9730747079888392
-0.07975449933520443
0.27763567982367165
-0.4272175453297521
0.6413773626213483
-1.4302506466421947
-0.07693975013424711
-0.6620061927327345
-0.2111371038989313
0.01803503866171948
-0.010016566615893322
-0.08876328360566497
0.02831839867729504
0.0565602164887747
0.12429210708308842
0.37345533875952325
0.1827996292225108
0.05168288793196883
0.0440914709896927
-0.09273607451162567
0.4529818392123945
-0.26160339310437897
0.16381258830255976
0.2359201575781419
0.145721208831783
0.007596297217442508
-0.0038001847515448843
-0.08910870896847779
0.40112650226326585
-0.12181291548582679
0.3585157589126106
-0.5913821658041915
-0.19948579962886712
-0.04244293575921452
0.09233347880608624
0.046132210857670615
-0.017904868727803287
-0.19419526501250484
0.15307027350261782
-0.4851135946782014
0.5018261869334432
0.7433027109953644
-1.2980247834837955
-0.2831067960771355
0.046124959099102116
-0.00259555661384518
-0.08190528347382815
0.0781062568119363
-0.13261546918606337
0.13359585528944004
0.1464667649460241
-0.22577339584599546
-0.30426590653675345
0.7376326656427785
0.025129892032851726
0.103178243631565
-0.31590998445234647
-0.3789727672953941
-0.6672965125437711
-0.04266127129763394
-0.23052339319303403
0.06338228129321785
-0.2443155905650075
0.14466406173719326
-0.020642778587230643
-0.0357379289226843
