1
40
6
-0.09032967316039424
0.055572977608278624
-0.06937449009693693
-0.16006131876808652
0.004516639557886034
-0.08647453129282111
0.0682265555589748
0.004394240257564301
5.859358077086235E-4
-0.017298108012775405
-0.6932679590681812
0.05664979708394695
-0.007486061214009441
1.0056562303096486
0.06779687426111242
-0.05483504980166256
-3.8193701051499773
-0.8330759989307731
0.6127497371593249
-0.513708145093025
0.0067194028783045655
0.01497324282765861
0.17671790605249812
0.29079820308720283
-0.6071917578744189
0.6167600829428838
0.5858099344454029
1.4661256752230198
0.015084979681214849
-0.50120223815938
-0.6780363176552264
-0.05589277451561444
-0.041765492641860275
-0.0059907228676895335
-0.012746962131573805
-0.09508328158509731
-0.059640458543836275
-0.9911319064812556
0.00395530697532778
-1.3045973573391965
-4.065851555641762
-0.2517538780097697
-0.29495567993105615
0.03487947049273328
0.24286330605426185
0.24968459266847315
-0.01240680257546899
0.42416277996692997
0.1095118057705702
-0.6780314768922638
-0.01082157889361354
0.09261878141215599
-0.029102733458166965
0.36742119759410763
0.008116503094986717
-0.10789326923457791
-0.08593729351511044
0.02814110739141574
0.20637667193734097
0.26444889479003536
0.0999133370240587
0.33615527353336006
0.18235233098692527
-0.4145584754125249
0.12722305146448507
-0.07001821694165425
0.43367993519130743
-0.32787368204434353
0.47091894014334135
-0.12529723998031458
-0.07632729756866939
-0.051572436476950485
0.0935100307222023
0.023533053060843648
0.08924643939182034
0.09338385159586017
-0.09971654933039902
-0.26193431627155894
0.12587717669496695
-0.11910161938082871
0.1614385078593435
-0.307107917024487
0.21455794756720065
-0.13204259311058505
0.40667614326285134
0.07711831232738464
-0.15799424392102995
-0.6544286821824286
-0.07080054856737039
-0.8160416239968872
0.13590354767495796
-0.13743154904481933
-0.049552307628101415
-0.037809434348542045
-0.026647093516871428
-0.0364250712718835
-0.026503738141045143
0.007602820780907498
0.1921831900644161
-0.06867910866626506
0.1358286013987735
0.09269043805487576
0.23646395919333105
0.05937645589771677
-0.07730814105054123
-0.14780475181541497
0.0027401671565317506
0.2380165057459205
0.06551294508751948
-0.13644081320376475
0.26102056763419074
-1.2441330933840329
3.885384530783106
-1.2814357530542502
-0.7548472375590236
-0.8226309386084437
-0.08741558090545684
-0.07243577093394143
0.0035340346119678095
-0.008230146395558302
-0.05866314969764432
0.1187479144594845
-0.14560392782455525
-0.148709645551603
0.010219909432898201
-0.14124142613110763
-0.1786561168147344
-0.0012358808429126674
-0.011031795556674377
0.009017103280824789
-0.05990944309447336
0.08534998467183987
-0.05090971043051539
-3.2197006292832313
0.3879908958999878
-2.011208171414426
-3.2144174690120084
-0.1577994568054985
-4.500247132563909
-0.005926059959678608
-0.337616069621506
-0.1123163704225188
0.11439643998248525
-0.14207878739536656
0.014460107427036482
-0.016269564397484317
-0.16090630313284035
0.38836860624177455
0.19805820755930165
6.60698243650803E-4
0.08578505013966436
0.051327609395099234
0.05588919516076419
0.24757673639427408
-5.948301978551952
-0.06950245361872255
-0.8074891541796555
-1.3754241339330182
-0.5865387344271479
-7.897144721724111
1.037129203015692
-0.659054291276778
-1.2822921431120287
-0.5860445102050128
0.16321937811142917
0.082534105715472
1.0696378426129065
0.24957122786975117
-1.588303542668659
0.21980862088218459
0.007905164087148404
-0.17780758836678884
1.000451866301721
0.4993548176011899
0.4938008013010501
0.3726956451078939
-0.17441771851245194
0.5111310443097122
1.3232608333265814
0.030829102326941367
0.7186196278838652
-0.01825522242494056
0.5075381300980814
0.08212252353548964
-0.12044922923105746
-0.07344707142492714
0.15303893404917454
-0.24802022432763962
-0.21367788756936007
0.2937124302970186
-0.0069266460267296765
0.26109212924036784
0.09696020928636707
0.1859693600052287
0.1832819164251959
0.197408938616272
-0.6857811103441563
-0.33649541903691377
0.1858235240739334
-0.13554888246561242
-0.08856023618685348
-0.01173486248955908
0.2123553939298078
-0.4911500640730599
-0.4842216428669928
0.27428385309003217
-0.2543530870855452
-0.16230924364084184
-0.19320571439566064
1.6404081096791154
-1.0839994970363946
0.5409783679876838
0.16503748848102967
-0.1558686635524652
0.6018869271574512
0.20653345863868047
0.6566657157445129
-2.7858421352803755
-1.7937553305797829
-1.6144834924154106
2.8036687078250924
-0.4965809458706845
0.5484803271172423
1.203314430680135
0.6140217120208177
0.1803156505833592
-0.6577556441332245
-0.1866942149714566
-0.20984421258805958
-0.4766658028749268
-2.4316733075692523
-2.5244729454364396
0.2800116151038769
0.09198064029766974
1.9392747247520186
-0.005225298512588997
2.562058870528074
-0.06334155755044639
0.045544298864932296
0.01323876119631979
-0.042059500165250896
-0.06277207327734678
-0.0606888403846004
-0.05736104890122442
0.749412665096896
-1.5215940108180916
-0.34059241170720844
1.9168640881841348
1.5618939764520883
1.0939228511047079
1.7456919028651348
-2.8331553997450967
1.2958205928523483
1.3984154183904098
0.09006077770829157
-0.014269235763996812
0.025699622824592837
-1.4367580421692883
0.10704479257856454
-0.0050962344527564684
0.09888903156729138
-0.24665681079000767
0.09509307489050696
-0.06567064188872797
-0.06749237294403737
0.006336426779787582
-0.1199221411029757
0.11413887442248959
-0.38071938783307413
0.010455133666306151
-0.08244239826733994
-0.2167791711651565
0.11872859047916125
0.30233371090196404
-0.0015257050856411
0.11961557395932462
0.08663499214865884
-0.0034895971935523604
0.09903271007099763
-0.06788447845897695
0.49313194801354127
0.083789558423742
-0.10266457485139409
-0.03334153286066321
0.020745394899908925
-0.13491472777833277
-0.17513009924168133
0.08219982333427762
0.12555189346665585
0.12500901281187213
0.2970288583417269
0.32207742202454653
0.20188109864577475
-0.04300324907329779
-0.30048213338836816
0.011502696429992925
0.14033471627087465
0.27340493546410716
0.22981794860420307
0.23683192519466417
0.8122058033618783
-6.8078063855071465
-0.0556022116482138
0.9209634396571929
0.5965985832891598
-0.16365705581897308
0.002279750001925952
0.032942759736188335
0.10905716335269748
0.0036915134427819318
0.19006224186079665
0.048728775449097594
-0.0819557685907165
0.1690793403655755
-4.124456752127659
-3.6248754537088397
1.2654076595992596
0.5800736073364877
4.3986787207204845
0.09508231103693196
4.882588450457387
