1
40
6
0.11425416113943711
0.2846591489123178
0.8734269803363421
0.21833469269087716
-0.072129064958147
-0.08874067951019422
-0.07592577519458618
-0.47888946445142555
-0.13427499320190076
-0.1938224920293688
-0.02053901540626469
0.7720974301081237
0.026100796287507434
0.18504254010905444
-0.024111240470811292
-0.3116048587444852
-0.04876727409865186
0.5905173530938872
0.05755979919509425
-0.025148420864080222
-0.10024181820958177
-0.8386777443917743
0.03995356705917582
-0.17597898191488304
0.021143724609599603
-0.51737998330478
0.4619544331887971
-0.11285222771924736
0.11063706807849501
-0.021797314077675364
-0.01684061003634099
-0.1568297878017978
0.034696104227335094
0.8244838921246704
0.8835724925992275
0.4020116196854447
-0.9877553956594155
0.37743238515357674
-0.16912718398276252
-0.39244062296874455
-0.9473635916777801
0.04116654700068351
0.3638480546198146
-0.14133374789674247
-0.5609294113330402
0.38974329474352915
-0.034264194703868184
-0.3698592290584341
0.3684891671983586
-1.5353815293998778
-0.4603937653562666
0.7440441345751667
-0.3672614259463758
-0.4649911194156098
0.7546373843572242
-0.2178725676402194
-1.2405165871641612
-2.2864239909680526
1.0427730919121514
1.0842939660149074
0.40415819711653056
2.4657790768236834
-0.1414151641457292
0.5264460960047331
0.08865683070714736
-0.5484713553931154
0.0011917155983539492
-0.16864919946532478
-0.2592560311290392
-0.3053829136133219
-0.4138782625798496
-1.5756369731659422E-4
0.02309715753857157
0.011966193395655817
0.08955155972852721
0.18827425084384558
-0.3504465683764793
-0.050508665440793424
-0.2218733477790255
0.241365657430784
-0.22403857805166041
-0.14571879625267176
-0.30264097086461167
0.141406792554773
-0.49038594315707096
-0.21076310211748517
-0.10575351102747188
0.31327456893881844
-0.08486630146247195
-0.25844997225823124
0.4639262962608404
2.041818318428079
-0.01134462149144152
0.3753216996644526
0.05994272392375055
0.5550966929964237
-0.009345270094322128
-0.1663931788523959
-0.09038555835453792
-0.34517725808506405
0.37996274937644126
-0.2317033749755003
-0.08994484567398474
-0.09417237902219941
-0.6383960559406956
0.41176673301965794
0.400690671175265
0.34224344217791164
-0.4052887629927038
0.31166448048171
-0.23678827079582232
-0.0997587506550184
-0.08960931908410451
-0.21047851935660772
-0.08420539284876405
-0.017996161223057937
0.32686272175732006
0.061094516706598545
0.3585474895882828
1.0749748953528477
-0.09669855420670145
-0.9437832258824972
-1.2471915175393635
0.6313390681127253
-1.3854032944577366
0.09993609031035414
-0.043550881664976664
0.24217980378196233
-0.34115160010843326
0.4070870735748314
-0.016256001576288637
0.3178094505788302
0.014895378603999539
0.08477900784190909
0.2057184655232118
-0.4181766102541019
-0.19806474080313136
-0.12611332681469428
-0.287336141771234
0.18070246506935886
-0.31578717949581236
0.10326566027765681
0.04335546633700125
0.29982994605946583
0.02834571738401581
0.4016767851329936
-0.2499780767542598
-0.32940744603393324
-0.13921699531292386
0.573837207304229
0.043637368395029935
0.2534945099041455
0.6512705153985588
-0.09165847393825631
-0.0175842333506568
0.0027272099229735396
-0.01939475579093405
0.1616567151111079
0.10404429770853826
0.24753471343727468
0.517763433093799
1.3196155599228985
0.39031028314743965
0.5712891764335666
-0.5430667472278015
0.3648393270070548
0.8169484907561941
0.010298879520590958
-0.46411044158886916
0.11386340399035715
-0.3281985016523018
0.30969923316115977
0.05198489042170562
0.1285190091891329
-0.1565403195892017
0.02883121944634678
0.006950229978194029
-0.0411778077262651
0.14914420483999216
-0.10205075168853739
-0.11924868244966991
0.05817339827532937
-0.07547968078677594
-0.23979306283452595
0.10808923596991142
0.31857581867724344
0.08786545300641002
-0.08199894237470239
-0.21267428595956656
0.5551897409217922
-1.7675268630468517
-0.32829957318550196
-0.13464838732435497
-8.005697339606585E-4
0.7822842855706374
-0.2943445825313081
-0.08165615594201278
0.3715590312634656
0.15954134863315259
-0.4183750598329628
0.04203937484016015
0.04319359708438339
-0.14840965127977773
-0.06224376501251546
0.8391283205448153
-0.34636664259177125
0.18997657742485213
-0.3117110600557605
0.41989018778266896
-0.18195547884754454
0.1710925226860372
0.11979144965208897
0.04589977915843522
-0.1280054366979134
-0.19275289275442567
0.15160578229719646
1.2785327344315913
-0.3699135869278303
-0.11741331903483207
-0.06387416746069398
0.08164950458969727
0.7399087864994709
-0.07782730095902518
0.416057573584581
-0.9010641442266
-0.28795447089111187
0.07617954246923034
-1.0270221635890806
0.9571731105445286
0.656589361911977
0.07657578604862032
-0.35534219095104735
-0.1693350294952656
0.16238087357411018
0.3416134262805354
-0.048007175571034684
0.1176473166974048
0.327036281647415
-0.12014196675628329
-0.053186602623065925
0.14732000085316663
-0.3316763310422665
-0.0762250966078779
-0.2595374234427734
-0.14359741724096745
0.3172854669296912
-0.039488081987733036
-0.14751819035123478
0.32472610639715727
-0.019774337191339857
0.19193918979080654
-0.06761726235451572
-0.08389926579531784
-0.32008948060878967
-0.1105003921493057
-0.08942840491446069
0.08664961172803641
0.04607187880013702
-0.22276883086759727
-0.5970470189400159
-0.3862326955028801
0.014089742687988231
-0.16761208937286595
-0.13971227592030458
-0.21515753890353362
-0.03280797734778855
-0.10802373298328588
0.06477102639426852
-0.12045270580426248
-0.09100654947442732
0.17440910472731025
-0.08556514644133023
-0.0012196227163690388
-1.1200915566709466
1.6075896018819604
0.9022072482290038
0.8030510399851201
0.14589590717074521
1.3767010230788712
-0.2837455415505158
-0.16198762526964636
-2.290225081879049
0.12557209269711297
0.292960587572589
0.012600651610830729
-0.9471007592927125
0.1960598677368184
1.1192293678797653
0.020426267211712756
0.5364730562244039
0.3203456204235551
-0.4550529913083087
0.8183985471249765
-0.01821092339542634
-1.854917942995406
-0.4505525873780948
1.5062607082205395
1.4420544370225783
1.0384573281452396
3.0198612722827423
-0.508288643076643
1.5240518819864148
0.04670890487214829
-0.6278296452223555
0.7473935088399789
-0.4633070728750936
-0.12266273661436838
0.3761589762694725
0.8532284714675779
0.441595887794561
0.49427297800100733
0.09906958009185625
-0.3678255664216116
-0.2574477591213928
-0.4141886352055918
-0.6726440258044949
-0.2702014958245891
0.6229640416577206
-0.5342721022298516
-0.46683488412471236
-0.27731744748101117
