1
40
6
0.07408024048166549
-0.062157723413243285
-0.09826472242094535
0.08926519604447265
0.9644621479265283
-1.6437505275411286
0.13828484894297302
-0.9377436772531703
0.5980800099661819
0.7083140790919196
0.8582496254005134
0.880849039900539
0.7903608856277944
-0.23452428729571995
-0.061062021388207086
-0.04307735702671757
-0.07281636763767889
0.20122330490136178
0.39197022227956424
-0.028082996426711027
0.9374639600001797
0.01759883060043569
-0.28120695318368133
-0.14428804095353345
-0.6970655510538301
-0.23971801456188044
1.0376984502662052
-0.05787134225865827
0.22984081735619577
0.16977860609666348
-0.004047682397150535
0.10446380239766713
0.0781210922303981
-0.19494819937241203
0.4625937048324126
-0.6440324891823253
-0.35243480893095425
-0.023139901500591465
-0.3605241075093613
-0.2486137932859715
-1.0761273404737406
0.03106819934343717
0.24600116338975192
-0.22499856055444806
0.23266606678440718
0.25594318100559826
-0.19013481696574966
0.20321351190168443
0.15544957887857896
-0.3911064763349
0.056359541348356135
-0.15813037956890355
0.34040363959939707
-0.420463987706997
0.06990710759021916
9.571786119358357E-4
-0.6575174766750399
-0.5738086800793287
0.24025286680178895
-0.2892107104408074
0.2469911719735357
0.036537341266233606
0.22701711281211867
0.10769598149695961
-0.16556040384901247
-0.23266477699482793
0.14668355111784992
0.2143577618146733
-0.1217810527455549
-0.05520043687036498
1.1428193102037574
2.2214518483118164
-0.3584586794599368
-0.6327211216070768
0.14649966225952962
-1.5365208195725868
-0.12346473962952262
2.2933477727508786
0.9101455609876522
0.0030581855857816182
0.1229038073736014
0.46453912078921034
-2.1414924836334492
0.04361148905799849
-0.10385214218719066
0.13239511756631253
0.08821166312817369
0.061722502188288696
0.4782883955643148
-0.039645485552019084
0.736746245813657
-0.3997110732442748
-0.16872856492669233
-0.7722753631805508
-0.7143648494115633
-0.587541239864163
-0.04192999667279657
-0.09091315002406664
1.2696430021880794
1.2825937603676958
-0.5896734866870561
0.6604838694433307
-0.10110606496151436
-0.16334904079862445
0.4567864587503816
0.02684856217052455
2.839858451611193
0.8413296196059207
-0.38215085060275883
0.4013624867572923
0.5322612185755398
-0.17830539842156792
2.233884519975422
-0.4949923383035352
-1.7357660523484275
-1.5512474441544812
-0.633987678999455
-3.021219541204573
0.10470339159407706
1.2767437120980107
-2.4727051494645984
-0.6881089484089946
0.029490910834228768
-0.05570447271999507
0.35393132164455576
-1.314156801199787
0.13760954546326115
-0.8087850665989815
0.24922849444961603
-0.05821314167063946
-0.10954275683571944
-0.39512120397059447
0.11472791923998578
-0.7091146463469897
0.27906047667428485
-0.3557769379900863
-0.19819000024759645
-0.48730609308046235
-0.5569622404330975
0.3910646649685422
-0.2781869506688392
0.3378499830308359
0.13101229255538838
-0.02863461685010025
0.21632368417414286
0.0767947930053774
0.2866910422416179
-0.40517297397239044
0.0292583654098351
-0.1736680375355939
-0.19580432532598585
0.2099073641861386
-0.24995979200210033
-0.2731200806056625
0.19200387694692503
0.2796653934618768
-0.20522635464628236
-0.13529605291890662
-0.05913978437037988
-0.4499556875927531
-0.10925264987112564
-0.19348081693997818
-0.0351842951783185
0.13691796464914
0.20685003765612742
0.4208540015589641
0.05644473443625488
0.7676939030104692
0.3841394512843881
-0.4004737480635029
0.5458988640985953
0.48316235222377985
-0.2455700706816522
0.391790681817552
-0.040415727341110076
0.009776081824652684
-0.024021154927188405
0.13766820867698315
0.09705243386797482
-0.18514464444300807
0.2020247318338242
-0.32552751096737514
-1.3635666265282707
2.5007741981673406
-0.28180709318159564
-0.14871075255884203
-0.15844113620006223
0.9460742176203222
0.13168551213399207
0.1661654962490916
0.004451011795706459
-0.08762627166912591
-0.4090823955937772
0.12162496574934283
-0.4164802833213286
0.056313158115935666
-0.07953050911854388
0.433080886024253
0.04126559536113391
-0.3485885810716266
-0.030162272862558438
0.4165666741601608
-0.2829675699684084
-0.0929534280042398
0.23213768692118972
0.10911341172583794
-0.2637126993635306
0.027657571507872198
0.30474429884909154
-1.1009486867722142
-0.48961247659077844
0.7921206541466558
0.3496549668589026
0.222870513666661
0.04705575973416265
0.6582602188513447
0.12854658604584168
-0.07299629533834912
0.3713472710515715
0.029539642249228074
-0.22263647244953969
0.03899072265084763
0.44938659699559613
0.15917716261918552
-2.503317066687667
-0.04721284745331619
-0.6593659928478086
-0.6284976675625981
-0.9618064851949373
-1.3411575628609202
-0.15507659122511167
-0.06963346760212438
0.14368088450044936
0.17195268271919217
0.27337983782915265
0.46592590327360517
0.7796191523414686
-0.0846387278647158
-0.1419220630182436
-0.3075768639384383
0.18120951883976436
0.1365725015956682
0.4660628975337947
0.27695514548228395
0.42205302135999534
0.03663552651989107
-0.1296833122632362
0.3194781388428477
0.15321274095688314
0.4159780449569407
0.13296537778674222
0.07636658051001452
-0.148795361989812
-0.3236724200984208
0.25122994857808434
-0.4988112999844508
0.19908576803539027
0.003911794679298886
-0.022050537501202245
-0.06109689058444282
-0.07950962897544003
-0.08628917885652138
-0.054696358828758805
0.25932457488933447
-0.010816528788525213
-0.15614202609025304
-0.3622156115823805
-0.27041740596627545
0.004354943865575596
-0.18132165536939307
0.17643230295622345
-0.03909362835296285
0.10956435191901065
0.02081006016605066
0.556809847494824
0.19825046512284442
-0.281936581379431
0.28658285166514974
0.05477790084237676
0.7578472505187711
0.5238623096971942
-0.15986201017726964
-0.49926907859947955
-0.07194081267813228
-0.043583222074790505
-0.9705137361363818
-1.105703832359054
-0.8048001875634184
0.625226213883868
-0.5807008976258834
-0.053173270298849044
-0.3317903811715943
-0.5884439629499589
-0.5302694825610741
-0.22590266325874792
0.47604716893388394
-0.48227336267617776
0.4871574095565046
0.6412552588911238
0.6127382934924562
-0.2846001805577662
0.5979981777418297
-0.2834953316701701
0.2809533512283288
0.40719683754279523
-0.48569181230146385
0.20625069356482806
0.6912441887186521
-0.4072116928521393
0.3547020244110239
-0.0014489895422237428
0.27036110114305856
-0.3341222224345364
0.14475538103364846
0.4514550568119431
-0.47708806462043063
0.10395804615994605
0.20565201317390272
0.024856710594555867
-0.3644885860890183
-0.08115089628902657
