1
50
6
-0.25250306942813
0.7122811660475152
0.22432146799724503
-0.11861447775345933
0.3224670768181426
-0.25873714887271254
-0.34054158034105153
-0.08769806228119298
-0.46950344313486986
-0.44002143876765604
-0.14384895241544543
-0.1743431244821417
0.16225751341750122
-0.4281808076246009
-0.32994040791155477
0.20636735134902814
-0.06614029621650025
0.8957446554329316
-0.19749382839665125
0.01488139677037168
0.24956284242347312
-0.026113569164765968
0.23408133462299216
-0.1253401399674651
-0.16033381104649244
0.2964611770375766
-0.6360563656456472
-0.2272315413913076
0.3345913135784817
-0.06023576045134406
0.5757426059807951
-0.3584579902377961
0.18969747676337412
0.4330465071014303
0.002145976247223384
0.2638585181816787
-0.13425254946018955
-0.22067187927767862
-0.2440427167536518
0.1320351320817599
0.22421700801962316
-0.1045385367192636
-0.32243839207275626
-0.009032611193329786
-0.2983403100357303
-0.1279907846587306
-0.2325505620314915
-0.4990564817206645
-0.1158673725881756
-0.26967457620034907
-0.2592251334863336
-0.064114343728618
-0.2642494116308845
-0.2646183966942335
0.3850135936970688
-0.0749270250070454
0.3318596066325788
0.2428255424938789
0.27105184565903323
0.41221192974060195
-0.3451861333604212
0.6482725324004996
0.6765351471440648
0.3343123459539523
-0.22895582723800373
0.1728925501614312
-0.0363965897703611
0.011018464930370885
-0.5150318197014139
-0.14630721771899483
-0.421975031927156
-0.2843784025498134
-0.031860311053735574
-0.2973795494170321
-0.059509414799673865
-0.15852280098190677
0.30234760004526684
0.14439445698011955
0.3198040130218633
0.04478318683097029
-0.32356769202858343
0.39361218452184005
-0.18380360326094994
0.5097956565226407
-0.45961784843860454
-0.07102022684743026
0.4560193652941092
-0.09660802477494257
-0.189412710725407
0.4236433785414908
-0.47845604011169757
0.4199560696277623
0.01904820019308949
0.19548125396716987
-0.26826178745112206
0.06890080909065886
0.18496002739352027
0.240704883345474
-0.42107881674201514
-0.07502493367732124
-0.2856131491452407
0.21298652049464883
0.1856085229914274
0.05194161953568287
0.20467093126618677
0.15686825651151376
-0.1814841227970734
0.061884575149761804
-0.541037535699944
-0.20192312560165693
-0.2522944155993358
-0.4229726944748213
-0.41083445416870235
0.23795885720539914
0.2861472305804077
0.32740781862497226
-0.002099684313446143
-0.45422225120337845
0.6040118765772353
-0.26870321199002856
-0.40574814725965835
-0.37185609111467577
0.21975163058023386
0.017277170728419024
0.3553336659133568
-0.27959410308714544
-0.12091645000145296
-0.4593754066047525
0.3820497571225803
0.2788370687114143
0.3673572043926581
-0.038391624428422796
-0.04861930749688982
0.399700074482724
-0.28148076208855005
0.3318715894846852
0.5008256665127343
-0.27940876554674243
-0.08390960880889282
-0.01515131814615287
0.014257602322952189
0.20430935575309733
0.44797162333122875
-0.4682614667819676
-0.4108327370124194
0.017815874045864863
0.30994889148425797
-0.4793134598310375
0.3402806174504497
0.35732943495328184
-0.18957306981731084
-0.07985483710698159
-0.33725024492836553
0.33910730164970004
0.10313121882395335
-0.05598505555484371
-0.33363009243196123
0.4101560238893879
-0.32133458390386127
0.1199551307886263
-0.25145303754626774
0.3951858637848177
0.15758596650749984
-0.46891044514096325
-0.2150208141424732
-0.24863823233060817
-0.07401323088307864
-0.44425321557767833
-0.3307676926768582
-0.108329294919299
0.6928033315024354
0.7379602588628167
-0.1523712495447085
-0.8969103811017385
-0.8157901455230937
-0.08275494404232071
-0.3299428395393837
0.22290519321372002
0.3629675488655056
-0.4167779961336938
-0.1485349484080029
-0.053683854115167996
0.3407929355273675
0.1401836866213694
0.1697562870733757
0.16422874751446676
-0.4540834615549721
0.22095634929437902
0.06828623921118722
0.062069218942195435
0.326760586218937
-0.23655459732642103
0.07418738596470635
0.49283728965644197
0.201978369960092
-0.29306949131224863
-0.3713805660868118
0.19572829672683967
-0.408567127199071
-0.2043017418676668
-0.48390326701630854
0.32386944669600987
-0.3156328449192463
-0.1611920494147597
0.3731025196928452
0.0976575533441369
-0.3789547438965395
-0.3558688755212816
0.0120677674090198
-0.5300508769809468
-0.4709755463695108
-0.3314910059978541
-0.16512438262767634
-0.4215114075151532
0.004424826772105
0.46142741712998286
0.10504102066248157
0.42824278295539653
0.09270421807462563
0.16229909678910875
-0.1655408802487504
-0.25145350600025806
-0.14298026769803007
-0.06506139025555119
-0.4615382025307337
0.030678411467087958
-0.47824592366492275
-0.37312871063451586
0.46890809119632126
0.42551453697611497
-0.2777594792231075
-0.44902923276149614
0.44610790051272925
0.25250919206269684
-0.7961823378583898
0.04284215499349974
0.5589263222053807
0.3933658190573316
0.11189590381964884
0.5963416108560132
-0.5015719951552664
0.3313060379987925
0.25407144562929973
0.09474360574524152
-0.02620969259142102
0.3829290657459667
0.31105436778961704
-0.5512981446408293
-0.044363749873077084
-0.2120837218376281
0.470548023388646
-0.5746008055783324
0.34344068379125336
0.2688593951286329
-0.4520029289982693
0.33981691167433864
0.4710195694612761
-0.09245834026607173
0.03781062548221576
0.42839546716319576
-0.30548021630204814
-0.5962727916294221
0.5016021088384756
-0.103134089866988
-0.5171061572805649
0.616183644765605
-0.5791416177988417
0.01632433838185161
0.43133271396718104
0.00834488571281254
0.32047780763331857
0.407320307580549
-0.007938887120562437
-0.378477681417797
-0.2017340463630293
0.43506085456835275
0.23044938276074106
0.027125601273915733
0.2192798300252369
0.1318908905824419
0.036466647268718504
0.4304916167090246
0.21573793771716224
0.38833368446453465
-0.2225428044810072
0.2163760769740106
-0.06754081095442882
0.4550114319338185
-0.3622056506801527
0.4464395802744618
0.21194527148393422
-0.11010989005063809
-0.06673480016626565
-0.27057426866044515
-0.035140800879889536
-0.38007477979616405
-0.395204411338108
0.16635434810736852
-0.004248071066595126
-0.5120463730459885
0.4372396932726431
-0.13275619217025195
0.0497941840381417
0.1328863459899466
-0.1351755900066914
0.1266464369419914
0.2638406012312544
0.2969957230097734
-0.22994329196076463
0.30440955971870276
0.48288347790156816
-0.5361105051735541
0.32961439088062444
-0.3154023700945028
0.26466982216834517
-0.3673277098114988
0.3928374221666753
0.39389427271947647
-0.0444741737689222
-0.2038545746004102
0.11452999007901844
0.22038419975503976
-0.5910012413930953
-0.14814166457129188
-0.2543387680878141
0.24253339050683081
0.09650230018775668
-0.35889516313032555
-0.20712362091411232
-0.268300306835142
-0.3498118771824881
0.04425431225600285
-0.08499182658789214
-0.4120386951741074
0.2072517213222571
-0.2778692146674089
-0.36611068910023936
0.30070665206127456
-0.031262211221672366
-0.5047673377669633
0.4208941223236011
0.30518498081856393
0.31850949680711393
-0.031799478953173775
-0.2263718671582028
-0.3990938813620929
-0.07044868057245772
-0.3999457889229432
-0.0882404071475078
-0.17314318305446305
0.19928808269294532
-0.27417780223003263
-0.4777959593210898
0.321726069164936
0.13915620002004514
0.35005892182163517
0.005738217023638866
0.4360335728667368
0.41205358583516544
-0.4451559846397241
0.06439073254728422
0.23026405711041284
-0.10886543747722892
-0.30552187933101155
-0.3345015261019709
0.22650350432004746
0.008653773687549464
0.40606546611218514
-0.5258952934085906
-0.054348889156849066
-0.03869046900314969
0.33133872890452126
0.2525186865383105
-0.40889115726634956
0.15086528054265974
-0.3062511414098846
-0.34480548679305173
0.07554027138923042
0.2679299721103443
-0.036921703495265086
-0.47402268698571776
-0.22202685740270514
-0.17140455162221083
0.3789186649434549
0.4055919418631484
0.48162906012457274
0.513019512989238
-0.3592791767234417
-0.4695346536056159
-0.12668214567619085
0.44463090720656306
-0.1279669554609123
0.11636492263648573
-0.20224555486857212
-0.07657816243299628
0.028867565653035006
-0.11440714878437697
0.2566214529582635
0.4056683725875387
0.019708575345582215
0.40744446448785276
