1
40
6
1.017874577820983
0.04444435769771249
0.6890930316911328
0.08741998219517973
0.18954348965799792
0.04398612599246704
0.6038582881784491
-0.10998539169686772
0.05141042260569864
-0.03269536708965688
0.19713082637496182
0.1688624624092426
1.1575033525526504
0.8840898037346059
-0.06451256155666489
0.0049616239003607825
0.04156304736169704
-0.01737763183013877
1.1022962153512004
-0.12991346725331945
0.033913598221661304
-0.0618516197998581
1.0629498083370534
0.2092172946925693
-0.06811460252164082
0.03352355832290526
0.22508460060975782
0.058490116897213264
-0.03884640165788807
0.5442963207727421
-0.3538712945775676
0.02904287734666986
1.6219760097710687
1.067262475753142
-0.21122814270093368
0.06761875183873313
0.06473909721666789
0.09139686055960254
-1.2355290565277273
-0.029153333076700816
-0.5263161156150151
2.754884405161664
0.5874095643583576
-0.23753481479949526
0.005819106753832223
0.27932896105635197
-0.17265168110646564
0.09228793846093586
-0.22600421069987967
-0.08762803284197676
-0.03584052802553419
0.0013273734073670658
0.013580793664574405
0.07881997576553529
0.08031694701560636
0.014877052528532386
-0.5182380617670419
-0.3478265386544516
0.5948660548664575
0.6733574236444537
1.1864204296819887
-0.2469852283909641
-0.04025612453234891
-0.11119053558016036
0.4229583307167485
0.16543499279772214
-0.20930163182125056
-0.015394897788587577
0.08068574194324986
-0.22971055687681438
0.4806859215805561
-0.04919777626082628
-0.4562673312459846
-0.5385109525813708
0.6309323211512514
-0.16913666395997656
-0.10667902475142745
-0.12316645911081855
-0.12670747749380964
0.14790774996434922
0.06607676339379076
0.18460611029710935
0.08726930037162377
0.28454685109385325
1.005034941881409
-1.0573666862374724
-0.6014364741372594
0.22284393668374364
-0.16881508501573958
-1.721265949531597
0.05112667861847659
0.2164750511165851
-0.16849084163622613
-0.2193437447452778
0.1868403485520289
0.37784127866726697
0.042017193998040166
0.12430681699617249
-0.25208469863984156
0.07515552952180782
0.018597479895730663
0.10500353279536216
0.10981856466701886
0.24144300332602178
0.012153911549710955
0.057873547194097166
-0.24581732787575317
0.112335116038083
0.02144961693843281
-0.3257627212585494
-0.05121160978333541
-0.244092983811968
-0.30874190780322225
-0.3994932956046563
0.23940319399087673
0.09168124864226862
0.46743400309318767
-0.17338914183917778
-0.5490381460567928
-0.2957480112168023
-0.08284309308264623
-0.1918675064139966
-0.13827612414333018
-0.2850812821293551
0.014732276505380792
0.1087427644058
-3.3345183706258155
-1.482397029639018
-0.46370850450389606
-0.21838887684602368
-0.15803260289485652
-0.7712469258336634
-2.322633662417431
0.1450857936096791
0.22408705206678778
-0.5401359429088717
-0.5893312630063959
-0.42152700022784195
0.30076231117945185
-0.44454670525297046
0.2489081451416824
-0.36428833790267795
-0.20827440007759734
0.16500834086217078
0.336929257851529
0.14090924141736472
0.01365535340321045
-0.00640987856861003
0.1597119534035308
0.08808613486387942
-0.17161947273920056
-0.04835965857459624
0.14271921431720963
-0.3060732929480433
-0.11898516588171887
0.2830575454439007
0.0924780358488419
-0.26951254033845073
0.2743919678768483
0.20192035333675962
0.13306180584532765
0.08449331107213978
0.20003179066228816
-0.004922349659269041
-0.03738465547019557
-0.008185499854059156
-0.03118356929388884
-0.5372826340724445
-1.434362398085432
-2.8109831993220484
-0.36833704037280246
0.03763750174970649
-0.05319779656597498
-0.10894810264876284
0.08856802214792284
0.2889694259759446
-0.2517038104842675
-0.05672697042245314
0.1856525967762224
0.04970630036090622
0.15446478387078055
-0.42462521854610535
0.14779447081986954
0.14386767696118793
0.36188851615681844
-0.3362796014639359
0.24407173476301222
-0.10378640594964404
-0.2936603800925454
0.35488346336380266
-0.011673170698245845
-0.1967892653869239
0.053147576262014946
-0.19430978695971682
0.005226250136004212
0.12772225303812412
1.7996487144942839
2.9284929573593725
0.9523454961796703
0.4851140298589744
0.01859078963016962
-0.472893419218222
-0.07920279130068143
-0.5656239250771422
-0.15397385336295868
0.5730424213662536
-0.344576909147846
-0.17057069561785634
0.1843113873770282
-0.2857585218469436
-0.2326776428315782
0.19381344075318144
0.4375511431915871
0.4096048782767408
-0.07871623392810789
0.7041247017302694
-0.31356826945211275
0.1882498929117597
0.18823543101447876
-0.15085615497228266
0.1128891847388125
-0.034909088010182415
0.1286749639136208
-0.16898814808749343
-0.36575043786001943
0.2311829160726095
0.3456994397291326
-0.3983338818211925
-0.09221135003238393
-0.21877448507400135
0.2739208404633234
-0.2426146316616711
-0.23257947101482612
0.1899238017589154
0.1562871368846245
0.04303222468736476
0.2618018241163801
-0.3036586685227731
0.37594533581044964
0.22292999116569534
-0.22102313699015727
0.03954538682175799
-0.21278072020774585
0.019345758777867428
0.32944872063346364
1.3853235864915403
-1.3497291657931911
0.805200068345825
-0.7073409116487996
-0.29162180823706146
-1.7498342286874833
-0.26318995125573974
0.020560269337027363
0.9204634449785719
-0.38712176187013425
-0.4308436201331317
0.4469509554037137
-0.4274530267550929
-0.12453423936885998
-0.07010082575896005
0.05101997941485298
0.03799812813088131
0.09837340485796221
-0.07075666796878395
0.22497113332662363
0.2015979058237211
3.020563455613457
1.1236368125503888
-0.2741074095144355
-0.200748616207288
-0.010987866036439742
1.532745992844194
-0.23720303717465865
-2.3075217944099924
1.5564803150938338
0.18781263087301323
0.5749692091529305
0.025745030386530247
0.3159807430790685
0.625909085741671
-0.28015411651625033
0.20898093395357642
0.5155266128428987
-0.5806655377661285
0.532102189816589
-0.35003514519593376
-0.22056769659444803
-0.08916000947658097
0.16777569483711463
0.49028289328608426
-0.11257036459372272
-0.1822533701246902
0.2917334620804643
-0.3420150089346831
-0.3589105621792382
0.09150771430967183
-0.11677257967910455
-0.26916489615504097
0.20801615172929502
-0.13968027329192045
-0.07998749320540263
-0.1669235774938281
0.20930135242234474
0.1478868491671974
-0.4261016258843533
0.10516812809284393
-0.35384836992656704
-0.19325400785572638
-2.48790757079532
-0.2516779440199735
2.176964795813548
1.6737530909418759
0.6100494729687295
3.2369837891892774
0.3056728601840566
-0.06585654185999129
-0.003071623770746122
-0.1273622268676064
0.1022766023419536
-0.3454190576721175
0.025093346927681347
