1
30
6
-0.19886723333066844
-0.6685542780892689
0.08495974982625173
0.0012948176743474505
-0.28978563613285957
-0.02291063573641397
-0.6618675883920538
0.35548814155848135
0.5910499337971665
0.3691291403025007
-0.0033074382579773897
-0.2142359220537343
0.11397215718014353
-0.21476751223960416
-0.7143190153261946
0.2720061822413266
-0.1867376095966822
-0.06698917478993904
0.12368806139158127
-1.6549424200996317
0.2892871198676771
0.23957261156049764
-0.06610219664824761
-0.5157980306774866
0.6285990063600688
-0.14588393482113599
-1.362246867213842
0.8868667080314616
0.9998502120232597
0.14866477436829834
-0.8588683380480401
-0.3904832522840119
-0.1536316356120852
-0.3717678832351722
-0.07512621285541163
-0.3122652020052534
0.15819110412774032
-0.42228898121270214
0.3339152520444101
-1.0928187089516144
-0.5871205189800874
0.1410132374451122
0.2917517657931332
-1.1940859469173024
-1.0304458330924027
-0.26327425924377906
0.22159442446950645
0.1826843405516877
0.26896105410783716
0.17476125088106964
0.015331300750916007
-0.03758377061595291
0.010891794936670652
-0.23954246360279705
0.04580979700348863
-0.07087839974101742
0.20684023161391732
-0.4422708546341426
0.14129388924251843
-0.33166035120196175
-0.7539558399208336
-0.25249126112923065
0.3225823569285758
0.2156911456407543
0.3799498174397437
0.74035412647507
0.14265895740123707
-0.047803258556934305
-0.06476976640464119
0.12925112352052218
0.00342953966862749
-0.13117375863630104
0.2741791908521763
-0.37231094829000233
-2.1188205331860908
-0.4603174046086472
-1.7593178094470603
1.6080341007430945
1.0164598627551524
-0.6102854562078277
0.9168931070812179
0.5432048864390961
-0.6426453160116212
-0.5415621278653994
-0.4239224513979308
-0.41102564500877714
-1.180594819297533
0.030754213936120194
1.2538147370323562
0.3112718470712575
0.06867524747688823
0.8128247972426097
-0.723187624447925
0.12899912008219197
0.578255040070588
0.44915401297729823
0.12371052774680481
-0.8502599587504871
0.6610931985104855
0.5034163738775554
0.10778288440664856
-0.3266543457149052
-0.24779305193310433
0.12092316098064926
0.051002951956950184
-0.025028954689321162
0.047937008090014964
0.0467345740358305
-0.45462158522902263
-0.6813820123036495
-0.09353721152775137
-0.025500328346709324
-0.3259124119826008
0.3055297118172993
-0.05038947695214194
0.02789356545124252
-0.048467057278252054
0.2763437177920984
-0.28787888734759115
-0.16606206425582382
-0.10589460107980905
-0.17081887771640453
-0.2996673989753401
0.046975483588542845
-0.525322816660305
-0.19154856924372252
0.5195418329750062
-0.16596793724832198
-0.3978185861986772
-0.10096605482965587
-0.6155898364375517
1.7630695164221482
-0.24715875385580793
-0.2581996025364736
-0.01620399818746615
1.6195683612609857
0.04586926056729199
0.06929338034785143
0.4958515175272828
0.19589852553680245
0.31503133130756045
-0.5051047929786731
0.2066380215975653
-0.17232926510211843
0.1070146922825925
-0.4684495256414695
0.12393413103018575
-0.15193027297779826
0.0799489239827245
-0.18708225332625913
0.48229659215802184
0.12155713792279675
-0.22190718750297753
0.05776078547872563
-0.241487177700679
-0.32695922714832254
0.2937674893871663
-0.0016117394520947842
0.24129389818557614
0.2854394009119201
-0.0712371027566811
0.08346155766763871
0.14059310528444605
0.01702839253747834
-0.2462735061785958
-2.7897665046802738
-1.6133083899756098
2.2165969025455112
2.7081558414985456
0.07989792221003074
2.2030635984350373
0.6173369720292204
0.7365608617753762
0.20931768902608378
-0.21938014095744182
0.3507026024772749
-0.2791003181179148
-0.037746656132725015
-0.28245947387381604
0.4541932898274202
0.5247567382751739
0.24062571807357758
0.09279632195544944
0.42850694420570623
0.11672826449053182
-0.13526135797957026
-0.22067901200069748
-0.12075961412613187
-0.05175958663192873
0.4023465623381973
0.28737285393462847
0.24862262025070725
-1.0657470907982893
-0.7557042584100558
0.31938042566612723
0.8177836170659093
0.2503312684566584
0.569451845783476
1.2591156198768243
-0.21858785756647994
-0.9336864242140843
-2.2629667224348395
0.16593369563098592
0.273556278935563
-0.2963071998622586
-0.9434655871884149
-0.3058713106895937
-0.47314905347579295
-0.7599022380961977
0.08024313229825421
0.7337197833371106
-0.14993067603984225
0.46680165048724187
0.9452957819150225
2.468241296046625
2.6883314294504657
-1.5103074826999219
-1.9517005785045831
-0.03236180713237986
-1.896313796486573
-0.8767818862676922
-2.4725575100112827
-0.34252743196424723
-0.8659929398069879
-0.5994010776413615
0.6599233291343101
0.585389875343583
-0.5677127625196582
-1.9352764699151968
1.208572078240297
0.25073139346367757
0.4262322820889971
-0.050159317987061774
-0.13906078399459496
-0.20140559373001404
0.12606485993499894
0.36069938347205993
-0.10851766708175808
0.42957762252198856
0.2973423803462297
0.08694038048451959
