1
40
6
-0.11850249971141541
0.19808328471073636
1.376981711364263
-0.06099320403888133
-0.24166434631106107
0.7858032615398439
0.14890168172741805
-0.016312569709665208
-0.039050710251124644
0.01672486546396994
-0.19930307279891069
0.06879190568299254
-0.15420820754808653
0.005484309840697124
0.045691783761604265
-0.4147026046808635
-0.06847729302791492
0.23167803101925055
-0.31475882069969385
0.6835156537001312
-0.10046984342674092
-0.39213328081219495
0.11354929999900203
-0.12652867411332208
-0.5602758725382424
0.1329824637796157
-0.15261904982459698
-1.2685048338636031
-0.17171203414694275
-0.5547008966807591
0.16819026499184983
-0.5257226848158693
0.3196092339366375
0.12326579982121372
0.02133112375456289
-0.04698137495249465
-0.2723169984554408
0.345662814306456
0.002895339559429152
-0.19948057835532632
-0.04317424248320921
0.11575825363957092
0.09726823001875194
0.24141104027088114
0.1451588548566022
0.1685184328387579
-0.1554466625521599
0.17049555085262386
0.34023964977278387
-0.4424688617147701
-0.16350276556896837
-0.4092867206901289
-0.2603873667301798
-0.23717329674587398
-0.02083711048628575
-0.006276707166943692
1.2272965503403295
-0.07003868258508443
-1.0245343818488444
-1.0020104750070638
-0.5253445861191122
-2.0876178592047556
-0.4866068483540578
0.4204960292256229
-0.3889710612703893
-0.2185413575353017
-0.06302688797437804
0.30462875302951714
0.29279297385197406
-0.32655656536647126
0.26449449230183963
-0.35419909912041114
-0.38250271355840654
-0.5040447507049235
-0.1682714757680172
0.290750724120635
-0.1849050678930932
-1.1858665539898612
-0.2895857482717914
-0.15934563461945273
-0.4768628188623496
-0.40992912589603625
0.03351795249255668
0.25849538018341744
0.44477626411255045
-0.3345660597641563
-0.3585289178185484
0.38491795372769
-0.33065570123279775
-0.45964769676618344
0.28812375772836785
-0.31716434405014055
0.3860467221039136
-0.14158329622350582
-0.3989579142741975
0.2646173920739334
0.3203264701384669
-0.29814714813590226
0.2901103949934011
-0.3640391666177069
0.36661490818001474
0.0613828655142122
0.3766081863056313
0.3126577310584927
0.151290068488282
-0.2371907105800255
0.11510873582754969
0.27457796623303427
-0.3132749936395464
0.22224649867528384
0.43146888192582405
-0.0679938026118965
-0.45346029225428625
0.24831389484583136
-0.2960133584317064
0.22650693841379688
0.3795265261052712
-0.13359315347209275
0.03160878226173431
0.13042497736057768
-0.24663814394584235
0.08535022451081167
0.3908065369691861
0.30108971722812644
0.019144511527518147
0.46904793825987523
-0.14857137560571643
-0.08316884703616391
-0.2847928824934322
-0.0807021954000177
-0.37760056729477237
0.14319332508538427
-0.029863211142328473
-0.31651479572895397
0.3127689327511441
0.05895199380772565
0.3892537209737245
0.24923234219394136
0.13019491621416776
0.19432226076975168
-0.3169388294794046
-0.34955966957578133
-0.03061233954143703
-0.06467486434808775
0.13796362979151716
0.2698550815453302
-0.3320605907637206
-0.1243981414872382
0.1265190095503702
-0.12502997605341584
0.5574804839498697
-0.21208755907950796
-0.47795823618409355
0.28785751952448846
-0.022756609668621114
-0.22952193046551353
-0.0020689727660706987
-0.10133428412691764
0.3372157873286444
0.14688161262969343
-0.177318649831383
-0.04616815847045131
-0.2207096849620777
-0.15591562115205396
-0.32638325891409753
-0.08858536845336171
-0.2646619627207562
0.485234784577172
-0.276308432755516
0.16391657860728626
0.5675433190445528
-0.3028160022271912
0.22707530674475
0.2690421214571159
-0.44383468476234167
-0.2544796700015082
-0.8027673978531257
0.6330530483979337
0.41178212917883417
0.5779098973747088
-0.06268306351925412
-0.4385972678754754
0.15806461275752376
-0.4802796137206175
-0.29070806125090715
0.13713028148524659
-0.03159732639134787
0.34556566952752393
-0.12873893120746702
-0.316556530859729
0.16174072885099502
0.4073169575398659
0.13244286193310573
0.18527691122147022
0.539851697671482
0.31266763423029653
-0.0258835550021567
0.27701174087032543
0.30917830358937326
0.15361091492105103
0.04601341700083536
-0.2404399574035129
0.15756409483890518
0.17236345274711742
0.12433323862601879
-0.13303372631297544
-0.32559591038614216
-0.06082740936983007
-0.0017427825168738194
-0.4407872276832552
-0.7236504666201374
0.2573118306061606
0.07204912705390738
0.6652608021383756
-0.3696441751815193
0.05694773039952371
0.024348122021466453
0.46832291519791486
-0.22471305025772614
-0.21271622633891657
0.05323822414905575
-0.4245694994585927
-0.2620090470441034
0.26410480051959456
-0.35151597516846556
0.13749301012075196
-0.018120027359433917
-0.18494838008924389
0.2752342027093077
0.1585368335837846
-0.11625193922464226
0.6284879695318415
-1.365974346582486
-0.5761485091503049
-0.5664635624427778
-0.2838475495447012
0.32155737981963134
-0.10745124260620775
0.304908633826569
0.5258339432737112
-0.21152177317387022
-0.3324081164510291
0.022733037206645147
-0.05282051354084017
0.05539759410034197
-0.38798650303076393
0.8048426496786226
-0.2611130944537989
0.07530744085340525
0.24017023837279275
0.5597512116154079
-0.31919760181478934
0.12533621601941078
0.10295800145657434
0.361906127955544
0.3316568088497822
0.4458649523916089
-0.38164798284200646
-0.006469008965940586
-0.7096261667920138
-0.11058118034436472
0.6447826354381666
-0.44200041720743993
0.24188699465225869
-0.3196537045961329
-0.2759115698848627
-0.2053658470724906
0.004088506608369408
-0.32890572406609886
-0.5240589965946624
0.4307216898767206
0.1712781585523269
0.153949840706335
-0.1954739781666436
0.22754395708991576
0.4350299035969338
0.1658614510180376
0.3986860618163863
-0.2762667262228516
-0.24271913654280988
-0.3912320299355656
0.09050531136132656
0.3119524683863667
-0.07743795914571447
0.34157422125049347
-0.3358755576987312
-0.3233298908397359
-0.014430128679691573
-0.0785391972924842
0.025542808616360147
0.0752984873171652
0.027692018011858333
-0.1728214737392298
0.18877464424214693
-0.36017984334268477
-0.052360469868589936
-0.17907854526252645
0.2232194739904016
-0.08637528214380423
-0.41170418013102156
0.3718324052733424
0.06715462641415314
-0.16826471241031193
-0.5545512590010248
0.24826678269325225
-0.42079795017944677
-0.2041188017502286
-0.3596833296178693
0.1805139726517222
0.18660578653421248
-0.3206045355535276
-0.16996761947426775
-0.2273835705333815
0.20703277496011535
0.2338865882204373
0.08740234276709975
0.11575890182288685
0.3359319290086904
-0.11621661431598429
0.32366202837385005
-0.11908428402794789
