1
40
6
-0.43110840344851914
0.06667477931123625
0.9313409403569426
-0.007598218884731798
0.08144434289578559
-0.02142577458176881
0.20375421223190368
-0.12400979335982178
-0.29615967432282425
0.06587482995096845
0.18463941496921632
-0.017924450147648475
-0.7107938261166905
0.2057972497965612
-0.3449014060368456
0.18726748965366974
1.6692583603915623
-0.8170597655564455
0.14178273324493634
0.05792589680143734
0.036970166817579794
0.6752591758802318
0.018806840906072562
-0.56602451435473
-0.8347268691174031
1.2136265884461748
-0.9883172344827601
-0.8438571094357344
0.014312257674378718
0.02826028784579076
0.9080770728423022
0.09416115926025129
-0.8649727410201922
-0.6020463011647907
-0.03762261900343175
0.041946338500561973
-1.2422369845088723
0.14485225218799117
0.049946243020082375
-0.20988983182416726
-0.8050083041831597
-1.0132421185541898
-1.6242223781425376
0.2609493407704043
-0.7540231455500043
-0.552284797602213
0.8829156920830525
-0.2690096462973945
-0.2096366065826385
-0.16816509510341204
0.2024949328087379
-0.05695275144409759
0.11836625635040628
0.20078573909518177
0.3342177204518983
0.10899587729501593
1.1149576134809405
2.43194366332748
0.6618065495131866
0.22661944766850906
0.13859592905165294
-0.35704480393585414
-0.1944125564556516
-0.25763594285240154
-0.45140180793033985
0.2639522692656787
-0.07579408811115326
-0.1521164782994718
0.10191059922254575
0.15904042509152072
0.10328898611464983
-0.003186597567033039
-0.48359117886474284
0.04280744037647625
0.1771884651747326
-0.2678049301840587
-0.19085676536719695
-0.2575757983727203
-0.550530484893877
-0.28255171789237
-0.05726294409870553
-0.3145799024026014
-0.49424813736346385
0.49983358724712484
0.4850698576877155
0.17309403473488957
-0.6187999019922146
0.11036382596212911
0.5853201080649713
-0.17470604017133629
-0.24579814684298687
0.46293452225226567
0.534304170607047
0.5066120375639124
-0.3493905132944558
0.007653524438901983
-0.017553869224555395
-0.07889702332491827
-0.38386855395139613
-0.928028784410609
-0.4347209333428281
0.6114235211060104
-0.7863303325932103
-0.2951713589436309
0.24432033923030455
-0.24297916153265303
-0.41998596420403117
-0.23839388602505887
0.3185732785341105
0.19427261287242656
0.19866076750979914
-0.36202867631904084
-0.1994894633526707
-0.06099754723133691
-0.17942808391603782
-0.2973192440408129
0.26808465227980693
-0.36272487854688634
0.3131680860916736
0.2742384326393794
-0.13192383128991017
-0.32040926785742807
0.02594772878768892
0.050302301573952185
-0.23658255431140526
3.299949455729568
0.21741599030663747
-0.34860879521532107
-0.06646817004898639
0.8789632542306209
0.029091960856993032
-2.026721922285072
-0.4616617700672686
-0.3699727979991138
0.004207515815118512
-0.21158028910184382
0.22169559088571164
-0.1872260856735758
0.18087922944929866
0.06950383014699878
0.4842652292190142
0.817108170868002
-0.18614619265955257
-0.5092475840364293
-0.5014470680335009
0.41786612586803784
-0.5911383033777794
-0.636423385372395
0.11390321858557315
-0.07601457010159805
-0.3234510094152821
0.3243040041670304
-0.1794630995709101
0.040198651910516796
2.978788968648887
1.2754967144157663
-2.0701736959266266
-3.045103113108959
-0.00878787645636969
-2.691796204827375
-0.37830233142915615
-1.7791996651126087
0.18177698787258453
0.9578884949407528
-1.0671928527536814
0.4143459013914538
1.2141123904351252
-0.11243130777573383
-0.27611813460196505
-0.2577925245766804
-0.1886246396622801
0.3230805767301662
-0.012263687789620654
0.39747968335064465
-0.22989871294517283
0.1095071871785717
0.5879381105540613
0.13348491567928816
0.009494095667434622
-0.1687537755384169
0.08130511593940888
0.04297056514501098
-0.032215564229377026
0.023053979690120668
-0.20975122637411622
0.010943171888984849
0.12630312049859896
0.08830624282732955
0.0642247298549568
1.3363956076012309
-1.3555268619480099
0.11346315050253743
0.23106546120038984
-0.04071930467610386
-1.7536758666988779
-0.031751189126571745
0.42098004116320326
-0.1940050224492917
-0.30386561169708426
-0.05545288356334445
-0.1343281474699615
-0.4969130393823892
-1.156274112225692
-0.769144046784522
-0.8434304154628298
-0.5977756397263004
0.5872946973650749
-0.3509939962628589
-0.9790787806904169
-0.07416791284227209
1.4630850201315861
0.30250559908496494
0.0014778261995791958
-1.1043487554357623
-1.0331125436885618
1.0310936208227128
-0.3804333774541354
-2.5162779196742333
-0.4649880903200426
-0.3784514302645057
-0.2957446554177782
0.4107240064925738
1.2086306746665878
-2.780428693229122
-1.297411438582264
0.17683149781068
0.24414690371877085
0.04312837860035592
0.35631144001441367
1.384414993207695
-0.13435302520103592
-2.5084869208641125
-0.6585808774152163
-1.3504542251103004
1.4801840500432548
1.2471550074830746
-0.46554966701697936
-0.23029347997685196
-0.17445172762570899
0.12797044859540127
0.23994439884971694
0.18881616441230892
-0.08876093017340059
0.43602027784660613
0.16629411352251566
0.6685745803362082
0.6927904481817324
0.2374840614182077
0.31974446100959447
0.2148024762024681
0.5525287945765697
-0.6162937017742619
-1.2945878971040121
-3.1250789928196006
-0.4599921628089302
0.20240793634670334
-0.366328240894483
-0.5197927772435228
0.39140237704867853
0.47342040781999184
-0.1454185520233602
-0.5972899104984347
0.15057605753540748
0.04533970316739491
-0.771649339102159
0.5095898636453566
2.4728602178015713
-1.539211331764901
-0.5499545291086132
-0.34992004111092256
-0.1398862671207656
-0.5713491415032008
0.6181465755461198
-1.5804029344286297
-0.2695667078005067
0.9844567244457246
0.44543435117238256
1.4488964402805475
1.1227400483564964
-0.010050133795876454
-0.033167784906063674
0.1700206828551035
0.278706980540422
-0.3325869887090057
-0.15351991445314392
-0.04226361648241682
0.009963671664498965
-0.24629463397630746
-0.2570093834717516
0.05104840563493095
-0.019333857794784963
-0.11805436304198202
-0.06340576647704532
0.0549327013274913
2.693280841595699
2.4463692053255803
-1.3561207361797323
-2.1935900760411937
-0.12749715395585143
-2.8598846522747263
-0.5809632791115096
-0.5944474303454734
-0.14985752526234294
-0.14029516038528714
-0.03679367415737902
0.05547377642143292
-0.19799932625133676
-0.011792354181922624
0.16672006297312242
0.0039610506507971694
-0.4043657938810187
0.16569377973410576
0.4252516271324396
0.01831776525364766
0.580153407371972
-0.1902375814102712
-0.23458735633341785
0.4157823550316711
0.09226373792336698
0.5716602745370383
0.3304357543178873
