1
40
6
-0.07855938459024661
-0.5684112012224309
0.9379532897093638
-0.0015335246010871617
0.25817550779777504
0.10167906678673615
0.6218518561928474
1.51405121397806
-0.03081376816699101
0.9315686339282854
-0.09401368978582854
-0.16986880023738532
-0.07160594967164974
0.025547024996094906
-1.4070862951673322
-0.17842432915856885
-0.048496867823286195
0.7436717862744899
-0.6523589263025804
0.01835410704334108
0.3872467593392384
-0.11677571537801702
-0.934304607342717
-0.06429913037550622
0.20173659480821857
0.08643007209348937
-0.6802141618022942
0.033634534173893935
-0.07304931004056765
-0.15493578406041383
0.10267241510068047
0.17493462422970535
0.06939083727418717
0.8755886451746582
0.05374696635279758
0.33781698059552734
-1.0298152053219323
0.057629182438720464
0.09264519577590587
0.024970390431869282
-0.4209072172916013
0.30030617261219306
0.5710250613107865
-0.12140894542492074
-0.5224491966349247
-0.10217529646601625
-0.22934252432394064
-0.6528595538468364
-0.11951985867379414
0.20087893812496935
1.9297920656811645
-0.3810952263566369
-0.7715022981698159
-0.680100574778475
1.688234035355618
3.0636718903217606
0.6539739404480989
-0.4231983129687115
0.11474885655792452
0.49705386553307207
-0.4734610015267857
-0.34175877647338615
0.04537861965896003
0.09746761112074788
0.07213427556406345
-0.07439338500108433
0.05966742016142705
0.07708662396018295
0.017164948383368215
-0.3171309154508873
0.2644590485734659
0.5319447691966552
-0.5745423254559218
0.03288898936218301
0.09358602523827812
0.021768002702637127
-0.384510935421139
-0.37959938744199556
-0.4013404232629105
0.028548692192355216
0.16789237948821278
0.011290975798659056
0.2893994642115856
-0.7378812445233273
-1.2396224665494662
-2.8160416055509674
-0.20708380051047756
0.36514277330414974
-0.40353508436242796
-0.5085964570843767
0.04996925224778462
3.131886517531848
1.4003454132347501
-2.3332814887720437
-2.923214661892915
-0.23007367332762765
-2.9113108930795315
-0.039104410370134214
0.3656730635189777
-0.13676973917165516
-0.008687093839133435
0.04528258100745977
-0.22427939404150313
0.01224032303358473
-0.30198131928865785
-3.2306099043190413
1.2434864768948029
0.9462897306978061
0.7401813401872771
0.23668854304734718
1.2489350726676696
0.03395178145065409
-0.4783805597804793
-0.345242749546875
0.38024799181065005
0.07410249909308102
-0.0074007968444008915
0.33461676095671516
-0.5113805823405922
-0.7086179092899294
-0.2888272074143028
0.7924497503860111
0.2902094129382191
-0.18735265359661954
1.2035846951459412
0.16529427923380602
0.33675790124104366
0.09254318230520951
-0.2908769566845007
0.09880567798381301
-0.1146172768450167
-0.0010242029815001972
-0.06592657228682074
-0.19515895181799026
-0.1683741697442423
-0.04453943566355322
0.0646483852522913
-0.02979691173740514
0.09471007340312208
0.27914871069451824
1.272317540336933
-1.0421791600894403
-0.20182765362009664
-0.3658189684827387
-0.3488358033601817
1.6885230216043292
0.2719660816203319
0.4255220756067888
-0.2162161677511541
0.20229446361489228
0.044455005088522515
-0.09011671486706418
0.01920634882420025
-0.8703397093241074
-0.18214901562648037
0.7691538199123167
-0.8902255314753724
0.30721301890160424
-0.0333487347839461
0.7095087007493415
0.28458550672307453
3.0380671444636334
0.3980165450501512
1.492503955949225
-0.7141100909055649
-2.3927157011675577
0.3609326363373387
-0.00994146645845731
2.386453913751891
1.7571445633980582
-1.8139294689951613
-0.20273121312704093
-0.0020870725981344093
-0.9175299980235629
0.08071291309867759
0.03294060143442375
-3.0921573722001647E-5
-0.26559006093066356
0.1656715381739283
0.1438877031754766
0.06432301810324187
-0.3920252306498996
0.7361725056867591
0.13612137898326915
-0.13970391103109359
-0.8154920050048774
-0.11702041489598822
-1.1473749599481098
0.26104883667709855
0.21723267221889497
-0.01614302254678662
-0.10098931237496576
-0.10561971092951931
-0.0713886001610126
-0.2954282867547348
-0.2167399406719293
-3.316958227902754
-0.5526554847157173
3.2158201260023644
-0.481885238438589
1.0803529511238104
1.457257766669176
0.16164395796852182
-0.359567441349041
-0.19920368139592523
0.06486049010105278
0.08245887372763182
0.07703830768017972
0.0880760304465441
-0.38088321748507187
0.17784906293751152
0.1524574130664449
-0.1331939073534955
0.13484095283802375
0.06461694693942176
0.14761230887075866
-0.31145661138394
-0.02204810953644878
-0.006305030786944096
0.08069249668051341
-0.13666208261754748
-0.18510761422567595
0.010791689168517044
3.660640552639787
-0.18895519995752433
-0.3005632950655458
0.4374618970007238
1.1896692836503713
-0.021087700240120487
-1.1657439399076417
-0.01078706654268765
-0.22647274358837122
-0.04723420102999328
-0.16145423092786926
-0.03639158583792827
0.0389253780681329
-0.10492601903568821
0.030402720820110626
-0.2504720775884996
-0.2550151886728462
0.14195195200771327
-0.10028617710528369
-0.23897517983064076
-0.06427169197019768
0.27892391774864994
0.1272980318754186
-0.16819946979133918
-8.340560428208433E-4
-0.1962859658869247
-0.06182690943532571
-0.4142854723817297
-0.16956879819344092
-0.2806369922158525
0.2674588279903861
0.16931743770994198
0.12546582917348711
0.1036957483229514
0.5146174206718903
0.037902580331193605
-0.8426324782218244
0.3311683417799838
-0.2982280973992737
-0.1590460451680999
-0.10185028272377845
0.05216653278120418
0.0938545956107673
-0.4041887368413151
0.13964631662748794
-0.2523101115286973
0.10285832879305676
0.22465000554212014
-0.1884685069022878
0.6581042785545653
2.1380408179401944
0.5765181481416909
0.26327887435798697
-0.7182451090721594
0.8906463976609654
0.8545289201320185
-0.18566688111565854
-0.012741826707438753
0.062030145803579566
0.09375482319036356
-0.3361516086140282
-0.08979476051769689
-0.3822162034787722
0.9628457539454374
1.0379223904974417
0.4031856460090709
-0.8301291835014786
-0.283184727543753
0.40116383798159605
-1.0996472118304939
0.06358208857936813
2.880282497590186
3.122546733329806
-1.7861922105965578
-2.4194568245341106
-0.21263972104756657
-3.4178784302540803
-0.07065139909128561
-0.3556127095091266
-0.3181434277442369
0.1367027955802438
0.11544276944717773
0.16960387867291613
-0.14349571175934753
0.006787556056395967
-0.11170409304475841
0.012465972864904135
-0.34731684263169593
0.11741702041870036
0.3145076489837621
-0.140341616968256
0.10649206100183492
-0.27356557723002
-0.09183714254982334
-0.26461446033661484
0.11322682258089409
0.10603771404289591
0.019255460195486695
