1
40
6
-0.14959215272670537
1.4186621491127698
-1.54636249701913
0.01774390245832634
0.05009505958043578
0.11061913428358493
-0.027624347730505806
-0.10453782481236558
-0.10181803777327936
1.6116717422304263
0.067830007693029
-0.01547881801071589
0.02422366635139418
0.05854501200111711
0.5843231285879013
0.09616237747430105
-0.02684148199158354
0.44345830858123014
0.034958174838349114
-0.05528391084351761
-1.6719290637075124
0.383915114561073
0.07491984492456973
0.012625576925295041
0.0030225392018240673
-0.1162310742465231
-0.02730112482987332
0.01796283269304661
0.029492456506890027
-0.16090375585684824
0.34532225883196815
-0.03623379677392124
-0.037807828845640434
0.005905252516265348
-0.03487228951830538
-0.6686305062585747
0.0954825710248113
0.5508528218059426
0.04747615705561868
-0.029032836594117647
-1.3621263902802412
0.24613221042863084
-0.06317293575548218
-0.13092225459538387
-0.3195178368515085
-0.11464421982459314
-0.35719288022234064
-0.45917554675701
0.2696428281509463
2.584949397743229
-0.2318558252705385
-3.3066732814970985
1.0100532749596676
0.22988447053589592
-0.0823265280549432
0.014602681085190777
-3.5448123461200467
-0.2550172942870587
2.4512395738875874
2.0800601279056434
-0.2953185098616508
1.2052591661267156
-0.18965241699341065
-0.09846657010657174
-0.15244364068380645
0.4288352300579345
0.21332729090589414
0.0946694297134877
0.6991551204082592
-0.022721622830943464
0.33446395432033454
-0.05476664809428531
0.11629452520513892
-0.31658033285714643
0.21549186611844087
0.15892502612802317
-0.3416582450484234
0.585499076072467
0.1222974206557998
-0.9158535481117991
-0.20066832092505876
-0.22506706874252602
-0.9846208301490463
0.09504022610896343
-0.19202915730182699
-0.13733553971552223
-0.24938193746967766
-0.08889508945377399
0.3455162220897798
-0.12192051456875669
0.16342678473306047
-0.6130783684195827
0.05532763858798238
-0.25960266302939305
0.5859372575173893
-0.02259150123801171
0.16771806185607255
-0.0017420431526583174
0.3346694004685111
-0.010323250688908487
-0.07315064871710059
0.1840898318935305
-0.37815307873513965
0.0518296351192134
0.020292354630791244
-1.0462470124014538
0.22379621147860027
1.8406244471541753
0.8340152480418224
-0.013848755361082456
-0.8123683435058242
-0.30019421558496084
0.4093426412732906
0.050293133269383845
0.42040749746129785
-0.31849071788175704
-0.20823838871368558
0.03372458579749888
0.10496717294675273
0.3665839957712524
0.02640759409452011
0.29494313051791016
-0.6295384773827973
-0.06275047257761616
-0.35742549106121946
-0.33483131546218187
-0.1939387414754014
-0.1993783512056709
0.22102198198612216
0.15132818495369055
-0.2868453522603377
0.21106789732174733
-0.03265272392723812
0.3125244223999517
0.12979966145240895
0.13116773039037144
0.10420914295512917
0.2661982735496667
0.371505376794042
-0.9945683074437197
-0.2051532617354527
0.3275418697493823
0.037583277167190426
-0.2158057311102475
0.2356193657484039
0.9417922351544618
-0.14556198466796966
0.11277818648788988
-0.008588725759051553
0.09171246261560498
-0.1629439053082202
0.3613461487198835
0.0896146824023205
-0.011060479861004805
0.13383737918354885
0.018934197855917215
0.05857380777120271
0.16516077737578555
-0.07799194266596347
0.34254884606184194
1.074655208714876
-0.5698829678239367
-0.3376719901542593
-0.10022303733394504
-0.0011711174703540061
-0.35121934810801175
0.37560994239027
0.3644952173769886
0.14650755142478356
-0.11802941087792548
0.05098372563916687
0.006232875290990904
-0.19465303733014774
0.346206548122374
-0.2706174516246803
0.25055618972313387
-0.26775047618536646
0.20327851572396002
-0.2577833024097043
-0.13746029474242857
-0.003978227340442746
0.08316649606639837
3.7050533535441685
-0.0015189247551966266
-0.8008955003858877
-0.43000375132158386
0.0827643115805276
-2.4147556513258173
-0.19606359469826593
-0.3815197055106942
-0.9990067501956122
0.24923985000139515
0.3176126836634034
-0.08450125568020246
-0.2082402706076434
0.062290994329756
0.27738783145376505
0.1824006899109367
-0.041874499734514674
0.18963863855810617
0.2866983057450833
0.06774687831791741
0.18238431781174613
-0.42549287199997576
-0.10078509924200024
0.42212336663413064
0.12018490775434075
0.13541243954560161
0.467930924519631
-0.20964486121249962
0.21542012323009185
0.10126789515879173
-0.2839753533873773
0.28780890350160415
0.035254852707436606
-0.0805968241380653
-0.04659921857201239
-0.12582479494591695
-0.07902998365253891
-0.36943478490242865
0.09340023379196392
-0.37189689951780286
-0.2347672197094903
0.20589336493494928
0.2718230959372041
0.01456250092196096
-0.0838395174757231
0.23001780198911312
-0.17200709872985
-0.13538567804685936
-0.2771226690444346
0.324193678401713
0.10863056956079074
0.1017689723816744
-0.09563471282888673
-0.2845295509403046
-0.2020912871729479
0.1619852011971338
0.34922445858611767
0.13019686734099867
-0.04874195484675141
-0.07410334237336107
0.09088473529723305
-0.20787277448606675
0.142851482045091
-0.1128062044485678
-0.16177149137914792
-0.4707547575539277
-0.012661416022747212
-0.22836329933326677
-0.13829524770896479
-0.03999239795884331
0.4319273313710455
0.3988851227029109
0.9213126754865847
-0.3138707231019652
-0.03282227720801098
0.10357431149687568
0.19311475764652428
0.4913292756013435
0.10889632554236105
-0.4532223207217393
0.08182443345562526
0.18783195350653703
-0.08467805016410451
-0.11384319121560811
0.19979666407278912
-0.09608082833472491
-0.014571343027798403
-0.20406812749009623
-0.10927844168085259
-0.1716682996295961
0.2859237759977352
-0.11691106928747383
0.1873806597971175
0.24810467380754145
0.16343826684489213
0.24531377807672253
0.3517552018331478
0.3413276713323184
-0.19829133930024676
0.055855729533374705
-0.4637714235515908
-0.5614459467370224
-0.27355332484989847
-0.9922272009440848
0.32274462846621144
-1.5967807449988134
-0.39114217572149174
0.6512110795353505
0.7300882951822721
1.0247334560230275
0.967539361195742
0.0021394130751102034
0.14794447203298533
0.036163446095929745
0.46902058674009095
-0.1580000776366075
0.004027391397358859
0.057553096253355675
1.1373980321596315
0.9352344492727311
-0.7120412847906785
-0.02150769977759575
-1.778631641113369
0.18651220542584437
-1.412268909570153
-0.26736398300890457
-0.1936326930798879
-0.01722228377042898
-0.13186089275507215
0.26679992017875753
-0.16968238052100784
-0.21307374051852715
-0.2842597503264587
0.2687070907033266
0.06467383224878659
-0.4221269049358313
-0.12911677490050205
0.06174014691794478
-0.28614938796379535
