1
40
6
-0.31259666151865356
0.48200505872320737
-0.21090764149724414
0.09642926322791007
0.23370519215711627
0.24269414565000147
-0.3159998539901915
0.0889195209157899
-0.2028034089652291
0.14276573631116185
0.027985023960536964
-0.17464636302656972
0.5174891344391802
0.1976757964030983
0.00487500447174504
-0.27557052419742617
-0.20407434547740777
-0.24011843945642333
0.10563053052037699
-0.14722597909972082
0.3334509333817536
-0.3541527943892582
-0.0027684423780511697
0.09495233838955515
-0.20199815559701342
0.11676291520138765
-0.056919556615485804
0.3059849201043901
0.3493291066000798
-0.36607096753541435
-0.13259037894792255
-0.09493883835029032
-0.5221485724470779
-0.18742221960056787
0.5382891990154138
-0.41600337598621295
-0.08559436262003002
-0.5741486596501006
0.23502968398823967
0.6390019029391516
-0.6810712537957697
0.44715734021482156
-0.1372121624319607
0.4095636432469215
0.3699840623430293
0.1799974899891797
-0.39839125796673175
-0.14902229465691297
-0.11597906127941289
-0.05103290091326931
0.40883310387341826
-0.43542410716294555
-0.045914041475851104
0.34703582479549894
-0.4306245850805806
0.2990365075500599
-0.30805857802693193
0.2689737552263364
-0.09326233964463294
0.09143738399291329
0.4027201339099771
0.5075332429718254
-0.38397077713475897
0.15224393700020494
0.20497370220515185
-0.48187570969907256
0.33794667046085813
0.25935528979877426
-0.09338473224370619
0.31255849754629944
0.41356668281382014
-0.3161581185561706
-0.30473218000305846
0.4670373953285425
-0.4247321360485138
-0.41288794899516734
-0.4488453771436341
-0.09369426963897541
0.21406887675659203
-0.3941469407922852
0.45901938821231714
0.4640001980891359
0.2831575818211288
0.05990779768223307
-0.008755075997489675
0.01670136183222198
-0.07523877037754353
-0.47109484264888724
0.29060376191052595
-0.15625034378057662
-0.46470919095650404
-0.47366555772828717
0.028343423393433206
-0.1778286524245852
0.1058355467167507
-0.2845953147973413
-0.3081473426297639
-0.1353619014818236
-0.10758484129119225
0.28058936056133227
0.37603729546358255
0.03137850764587726
0.3815659595254974
0.007201133889259263
3.4665218132677903E-4
-0.41440359301953233
-0.17147658147649766
-0.20286721513863892
0.4028373319829907
-0.2766470643128178
0.363954916468902
0.24711807673797823
-0.2182096113827439
-0.376660779297389
-0.004583708168349713
-0.11721527402366506
0.09283099662049929
0.3541655805004453
0.45790329631395105
0.12088326798835608
0.28577734902153135
0.4124038415203321
0.06276401342996692
0.08566746778337872
-0.2854237595127012
0.317732818332202
0.22458774744983018
-0.22823321457473217
0.030774802296465273
-0.3826127970557396
0.029221455561979102
-0.5229167244513857
0.3535226511771982
-0.47265170256261646
0.44464113824658374
-0.04226787146123586
-0.21755621466277406
0.5062267914980216
-0.09155524303495446
0.4005622737216411
0.3954645408552108
0.11479408372161826
-0.045632954224847054
0.36004876957642257
0.36292161872824347
-0.14949991090325343
-0.5053447744930777
0.06500647198474545
-0.21549430818723453
-0.4862130288477794
-0.055337435519972125
-0.1533065489074974
-0.07957697558365232
0.07834973115987492
-0.25843917242173425
-0.4607379864863819
0.14629775658400312
0.3050706391228272
0.03950963097887177
0.15537940146836607
-0.4009814224462932
0.2474654264214181
-0.40347795602606357
0.29683095352489175
-0.09612023776725552
-0.16365032260469964
0.019882223501767975
-0.13899974066038703
-0.15327269357722645
-0.46016066929271365
0.30367770897525137
-0.24754384777686397
-0.387761942719375
0.14392897126882417
-0.22907866760991286
-0.4244545699467674
-0.30950545900165843
-0.4228930950741774
0.008690987998367806
-0.30503697910063393
0.3725156244139905
0.05762020816982676
-0.037521095862873305
0.339252365794147
-0.12393622258390626
0.15177389041702516
-0.20358403844599746
0.07309396164946105
0.2235109377076214
0.39475994149788607
-0.044132413509565246
0.04680882462324854
0.24673849107190396
0.4040940757296645
0.35209806935648036
0.16548007646307575
-0.3104467541826465
-0.42275206952520605
0.20044342101459678
-0.43319994581799864
0.27279716728640147
-0.2577644412967061
-0.21396987898155503
0.4694885715306118
0.46219411989825715
0.021582752194790968
0.23974740970778544
-0.26739604769159847
-0.07883626097606539
-0.22039517712231088
0.21626524586701848
-0.011654982468452226
-0.38068591889580106
0.3337145678781389
0.43690413281302015
0.1298138775868719
-0.15944019190627506
0.29867975459107104
-0.06049556085270492
0.34872547116578423
-0.3594396802387569
-0.26140834787684447
0.028041403364689233
-0.20391873033188118
-0.16734303907873144
-0.19494810081065156
0.47946169169922953
0.16219031043141519
0.20050275119411162
-0.07240571326900755
-0.3831057337852953
0.4877101831748028
-0.12743869712392075
0.34021685104995125
0.15241631418842863
-0.3515007526064918
0.06556420647150384
-0.15546053902948656
-0.01792765094236156
0.06683039674340245
-0.386097643756233
-0.42076515105344775
-0.2239525595512828
-0.20257503969555665
-0.5074055767077609
0.03450111161299734
-0.423363857086884
-0.20038018869176266
0.0632447353849567
0.09344531402853141
0.23996421786278202
-0.22166156052857924
-0.3645172567377494
-0.3850494884794413
0.0643540022213194
-0.015278437084916857
-0.44199436159275085
0.3994851601874718
-0.3932623084139202
0.50379036437581
-0.08282105322532557
0.10573583882439054
-0.37401377961759324
-0.26092788789039634
0.4025679409106352
-0.2134176327296635
0.26063897759660426
0.12725097557360543
0.018433533025020016
-0.06424592132700138
0.3475762948218453
0.38990520637188847
0.41623953771616523
0.27451143158935715
0.26323750428442766
0.3502845943662131
0.052574908929859755
-0.4287603080304727
0.10948876260545447
0.36791390344831243
-0.2211820479070669
0.10090388923061472
0.026520221007021182
-0.2755276690208654
0.16787536973217926
-0.4414460615114496
-0.07376995533544503
-0.1263861606848848
0.3686923529988176
-0.13296162014368898
0.2374918762195383
-0.12962045917419973
0.12601899987607873
-0.2512461864661008
0.33228928189542933
0.2508681100782985
0.14824434010596507
-0.41504984645039844
0.42597525932775543
0.19271618046581449
-0.004679597662532264
-0.12362068553365341
-0.05240236248605935
0.30007530887786305
0.38413771892948484
0.00399885166110729
0.489926126298832
-0.18054307909752731
0.4577813965831259
0.043033126928656344
0.05114991297553843
-0.49749897479683114
-0.2759991723065002
-0.355531640937582
-0.185165794249709
0.3286055142896106
-0.10966060499475544
-0.03825340280949784
0.22326834188823658
0.12443105575953925
-0.47846773324007563
