1
40
6
0.2558873749052102
-0.061752806017773026
-0.11305686236980741
-0.09910370337407357
0.4326134671048126
0.4489821348331621
0.06415699241999943
-0.07356140632396378
0.06041228399948178
1.6435663076642726
0.015485748884818499
1.9046369084330501
-0.03691337318244592
-0.20514042591761916
-0.9229501026120871
0.09068716840672712
0.07381737052049095
0.5918219772796158
-0.07311179720742712
-0.02178318302620943
-0.05575431852895317
0.14155311203751894
0.1679215296725934
-0.00968594713569666
0.03081255342487399
0.2024130112299397
-0.21375958293822095
0.16434224892729976
-0.1017967485663916
0.019761648676517668
1.6947890453339634
0.08577861616101906
0.4878387633111482
-0.08530764584789566
-1.9446247868050046
-0.21020163147745
0.21910051594984875
-0.003494815226854684
-0.3047588860696627
0.03554615520854553
-1.5462456618180263
-0.4511891924157364
-0.01665246616038508
0.11076691070824851
-0.5383835538352202
0.015129671219073935
-0.12826745937900053
-0.29252821901913784
0.09777144993792505
-0.14163940150734097
0.11275483259215882
-0.20027626072044927
0.6532889952177395
0.00596229490278177
0.037185149971096114
0.08143801982344537
-0.15312139446527354
-0.022851130829255682
0.14940801713246651
0.33964138389110266
-0.18038127898566436
0.09639941732344973
0.3797965028795633
-0.33914204549569144
-0.007463176305797506
-0.3759049726732189
0.13785935040389458
0.1043544193104378
-0.3632290300963265
-0.910304286160865
-0.2151217551309045
-0.2478342225256212
-0.4896179230288252
0.042814841812037645
-0.18535786085854125
-0.08461312814433752
-0.6587127607555919
0.378182487936941
0.5122787467757934
0.14060414570427185
-0.29232832750568716
-0.46657364329452916
-0.31982527553833645
-0.3472204077880218
-0.08329815976867541
-0.06809797370627377
0.09810239738716964
-0.14616313459507607
-0.2063561200144124
-0.3059565308241093
0.25790461877814247
0.39401205698036856
-0.005491299887260655
-0.17832444891532806
0.12938423234473254
-0.19601420408418496
-0.3096552272728526
0.15885041705395356
0.005970744248476529
0.18912659312238944
-0.10277491089243004
-0.09724228851893732
0.2600741069224291
-0.2117424959392462
0.0021537771652950814
4.326688411044277
-0.019723232033677367
-1.0417698743051396
-1.5541960434919817
0.4142162072103538
1.4071011144707024
0.1676880925206901
0.15239204769896103
0.02619137481040125
-0.2099954843973867
0.018460412040586245
0.285772037977087
0.012967681033371151
-0.07384692885135972
-3.2638915674716285
0.0045553417934323295
-1.0430752169635225
1.0626175842953087
-0.17208852149156822
1.117188516917926
0.14708032901690948
0.19280526006310159
-0.027523084966128063
-0.03144697428174682
-0.3870230599642026
-0.2559552020626985
-0.3176145809398867
0.3066938146907679
0.5017103225862145
-0.16630870058535704
0.26027337766974573
0.13159028682190135
0.08945593172512147
0.09165382835887764
-2.7221946706592464
-0.9618850507996363
0.8675783448443745
0.2180288562196366
-0.3378748182968009
0.15790774335959148
-0.3662412062136344
-0.16156673360268026
-0.039357437227459886
0.2765890680055137
0.40848567748476533
0.12911886966247235
0.1815976384322346
0.2575865413160401
-0.3709291208316513
-0.15130940464315837
-0.09019409146848993
0.009103538595664805
0.2622264086181196
-0.029798563534964084
0.4195365331659657
0.9737435055643778
0.7076201796052133
-0.6367224157501126
-0.07741514363432915
-1.4295226928740672
0.408922965432462
-0.9771205160278401
0.01566588003564094
0.20840700446283855
-0.19136109892866413
-0.29511352545320835
0.13135790298644726
-0.10888145218791011
0.001217965912924898
0.3078554745964256
-0.07667639581612387
-0.0502196462513572
-0.39355069751628957
-0.08817172046387226
0.012486891705325473
-0.28053257576031626
0.1748693436718559
-0.04336752660179918
0.14547045170836045
0.18946124734111489
0.3307118136824046
0.2164343836693257
0.28307860476321073
-0.17773193582036495
0.06470413032492693
-0.04909965364175696
-0.2507692791928253
-0.25491023901162546
0.22506377383408135
0.05158009814464276
-0.28550369420044125
-0.20030693981519163
-0.004098771444830846
-0.017930042581519274
-0.263733238228787
0.21453443334947928
0.15664002703194368
-0.18271819425562175
-0.47493469961568635
-0.05245105991810452
0.170757275106976
0.19270204595249998
0.33924244086763883
0.23922753749186781
-0.02871993303651904
-0.1993609418390982
0.00647302718994993
0.31290835161263597
-0.25546560128960993
0.2909651682017746
0.07482401591861762
-0.2574254776142383
-0.12848328123403385
0.15048112205876418
-0.18033554862677453
-0.35212612323043446
0.3601567738138931
-0.3042008371906584
0.41288205923401766
-0.05680152565249422
-0.0461465128965428
0.45005888165601887
-0.04375004604588579
-0.12972943251063113
-2.804438684462783E-4
-0.4194256981733703
-0.15730896651232093
0.27674731470829234
-0.31713213525968237
0.35363537673093093
-0.0711910558376231
-0.4474644614383631
-0.23222943526815565
0.07290982121025699
-0.0687623936433935
0.3160215165551937
0.45059662274038764
0.04670304613857837
0.4744914588920875
0.10697916766834478
0.03532640841839064
-0.05239709451476157
0.06652133196545792
-0.2868003721855675
0.23634364037675146
-0.04197482119893266
0.15475491296933017
3.0210718550500664
-0.03215966649581351
-1.046801725087091
-2.660046894463172
-0.029142273742660405
-1.7868864457524016
-0.0886289288235827
-0.45974078299107674
0.17103066863543315
0.17833593725699162
-0.0975430488482389
-0.19517241923093004
-0.07640658141363992
-0.8542176837444153
-0.47829078281014786
0.10396883751101818
-0.4252878909929004
-0.14034407183600628
-0.1290601521344521
0.17744874522212684
0.040757998436033026
-0.3802708832670204
-0.11034030504512252
0.08351492472252844
0.3848431145233406
0.09623359071023797
0.14024174344640034
0.13855570789954233
1.681157930982524
-0.4227604430043838
-2.011515684027468
-1.7828435714022637
0.10348655355619665
0.39377235434582486
0.25014695213247473
0.3780996267341583
-0.23575925389462443
0.1988008567273968
0.11191545836915512
-0.13646063308737158
0.205641730559997
-0.7525503780148289
0.16919352360803566
-0.255824985632204
0.14725462198100123
0.07487750288442972
-0.3844576741874476
-0.05338633825734848
0.13659448068842764
-0.18218370149508914
0.14486708025811681
0.21599516547377565
0.2483570911790086
0.21831203981658237
0.05532547260900216
-0.533325457192689
-0.3662241474653152
-0.24966841650026256
0.843978666236247
-0.5251546373045716
-0.22379833268939972
-0.1754475119059372
-0.26140450305159263
-0.24629520831394328
-0.159233485832401
0.09049745173912166
-0.09770283881214122
0.05518556529967674
0.12982994260444214
