1
40
6
0.10807406727147911
-0.35758192406710504
0.2328324823572129
0.3931362280980168
0.32070441586146264
0.39333268864935217
0.06601094117545897
0.06255698943141669
-0.10022455892613961
0.45267866742516316
0.3403099201442554
-0.115145356144032
0.5730417598018612
-0.25900008993774865
0.26710285958362184
0.19249231944565723
0.15495667869622
-0.2917799114865362
-0.16704928403603422
-0.37050847106762863
0.3437659490885285
-0.30184783437270907
0.03351571098835868
0.35468585812089365
0.27123088158445613
-0.03521324545377346
-0.31945914646754736
-0.045609401682668936
-0.006482623800243002
0.1627802217052227
-0.22819412369910996
0.6513060743860367
-0.2623282518832111
0.383758844481218
-0.46485412599822235
0.07396260339646424
0.009427690812186468
-0.051172248470501946
-0.5547894711669193
-0.37321502215406765
-0.7720588546172854
0.14156095696946044
0.36820776718618614
0.4604509007823948
0.35138125799995534
-0.1954163899532881
-0.4137850240672681
-0.2590626543598673
0.12189117387583959
-0.39535920367784105
-0.316216480525764
0.021668989495917494
0.24346164994413372
-0.3957802351374507
-0.1432742592780656
0.2249572852838339
-0.13649260621121154
0.02351948734697594
-0.4329623515274603
-0.2196331404460603
-0.27384434469765967
-0.06491398390549362
0.3474686490530508
-0.38875408402125095
0.36117858082648274
-0.3372089601755117
-0.18458414591026454
-0.329019105447787
-0.2721977403837407
0.14034435059342507
0.4009455078247798
0.214201190393845
0.48556330340616793
0.23908414441232426
0.054920121171136385
-0.16911278410936065
0.0858071011269653
-0.1662019348429141
-0.20726615458410733
-0.23479504562708764
-0.061286805651621416
-0.007013163997296959
-0.32738428272568315
-0.19201683505819356
0.01264758569697343
-0.4056448540705668
0.18494649564709667
0.020430119748176052
0.36769837000979144
-0.10704342579686883
-0.45227325315682565
0.21146702035738962
0.34832203053566807
0.41872640925228427
-0.44426241759661245
-0.11836900627850035
0.2656504223060901
0.24430121160946042
-0.41078662330120785
0.08382459232020384
-0.40410677903393294
0.11038362113630597
-0.46032354280185794
-0.16848275361631626
0.10994416542345592
-0.3281304286486239
0.30482025448630123
-0.22792718046708935
-0.20483135818721337
-0.0026315225275631523
-0.25366582593359505
0.027172748647480656
0.5207376168859847
-0.4981978750505381
-0.23810820173134342
0.15077640986322394
0.45119057274153607
0.22729460938531634
-0.4469575878342608
0.39226343149171883
-0.10607160241652804
0.1442977159190635
-0.05152817449083525
0.4443209750457899
0.31556463353200265
-0.16778964750145026
0.028171462296304482
-0.48642769029989863
-0.3348057649213307
-0.2733600138306538
0.09364623175682599
-0.28390173085514026
0.33051726492290756
-0.33974506650678105
0.3588682147567139
-0.03608850884688283
-0.13164524122748192
-0.46030588463446126
-0.020496603861053304
-0.4083361136982622
0.07681767225271781
0.05202909779599004
0.41496438537444397
0.43460578856756554
-0.269774558925863
-0.40788181202977786
0.06348314599805095
0.32773791896112214
-0.2815071357624132
0.32648771823848377
0.1654542363234598
0.14853641527592787
-0.31735121169528935
0.4195247754476091
-0.10998269532901248
0.2756196466222891
0.01848163260357434
-0.12127662659805416
0.45260787156594456
0.3072057033534842
-0.1489821467051843
-0.048791565439609635
-0.048230715030992626
-0.34301340465962504
-0.39444851801505065
-0.34886700762271877
0.0250350870462259
-0.08930146750570919
0.32113385883519013
0.46472799320354585
-0.26582648119875435
-0.24643102747670254
0.39170862448634125
0.414968897716108
0.06176381957387333
-0.10747892138655976
-0.42634312693595594
0.49976087946813147
-0.03517019292977405
-0.06804245468467054
0.2984440641411298
0.010902072392644348
0.35768421708171355
0.45819196413945007
-0.09782514135635913
-0.26212784663799826
0.024763205743068797
0.1567788848181519
-0.13211762077627082
0.4030504283595321
0.3089864883250112
-0.0658371394743142
-0.45408596935017653
-0.05660402428668985
0.4632688779111937
-0.4482153740984054
0.3338534400981072
0.34785674698714136
0.38230279621542584
0.2385610801004307
0.4329738453708512
0.40871089734723237
-0.1346863997292826
-0.17974128868630646
0.10065668210325679
-0.33745985063575956
0.26276366062403084
-0.14214667427281114
-0.4369843494774583
0.05927586227105498
-0.3060510337982076
-0.19443525753167054
-0.48240911708712714
-0.18994768276783813
0.06168599702653548
-0.4128042562759849
-0.4279375691681302
-0.2512177180582975
-0.06775980044054199
0.45724059778814974
0.3077229311011779
0.27233116755718434
0.009268339786170617
0.22703375907160295
-0.21556852964447437
-0.42705916529032467
0.16628913531879005
-0.04144906159943439
0.48862058892532334
0.13898121502482305
-0.24302019846466963
-0.1967078225857616
0.0051925075851655305
-0.029295196173059417
-0.4295548622072334
0.11205394652012793
0.06497309805314969
0.42713579978255284
0.46982515628206833
-0.04172635552676267
0.3585956524065116
-0.477677131956391
0.016346256139127605
-0.2439279673455696
-0.4224843713050401
0.3467975550863575
-0.09583154300765766
-0.2511543026379054
-0.35094136268703646
-0.19249173915795303
-0.09497988823321063
-0.007318399650978177
-0.2860141587526619
0.42956577762826154
-0.006172805500202661
-0.09461636901145658
-0.26910452217487907
0.07559777953567737
0.3218819881373293
-0.11518089987277907
-0.1576677056501328
0.040339526407399746
-0.3565527934044101
-0.3019079521587029
-0.5479091332811936
-3.1026601826764793E-4
0.05526810208951719
-0.3743057575921764
-0.2679067066485653
0.18401546088042123
0.5012552650845014
-0.31364478713699345
-0.36596976831502415
0.1409833864949029
0.32280891598218897
0.01638140832291457
-0.02866633169936466
-0.19340677685118565
-0.0731264371625339
0.2512924383846683
-0.15706634993303387
0.07277352260028105
0.07630330369049103
0.5055793830797937
0.3247527768962247
-0.04686779000382266
-0.1247016291628993
-0.17873962090283801
-0.488719582202598
-0.28133050042178775
0.007865722640179533
-0.18765653706428798
-0.03972570971428077
0.35531210076156367
-0.040658448311166766
-0.18797713400779137
0.416864525338585
-0.45039317973893267
0.057608359705179205
0.12497673389050111
0.2553246016170283
-0.0442649022002587
0.43393394729877105
0.06897245359881181
-0.297497833808757
-0.31781797270152
-0.27183758496308014
-0.1538868924724696
-0.11188921463522378
-0.3951100948324771
0.17236358262506626
0.4013362711855015
-0.13756757006158118
0.42559230610974685
-0.20115530487339314
0.3616820286349612
0.4930285798301282
-0.09690322015905296
-0.42645122533145335
-0.28063630717558413
0.3971118950210812
