1
40
6
-0.3903758030387833
0.6507966061834861
-0.00910201775625465
-0.440635792510252
0.36917076462519377
-0.1367006219078759
0.12554240557397178
0.1979018371862324
-0.6368761687546061
-0.19567948228185864
-0.5966321843718805
0.15620181575600564
-0.24560685840795293
0.3869166939055731
-0.10720520262008602
-0.41003063579230037
-0.1401844109542908
0.2373539715546822
-0.15078100292865973
-0.2983153460743683
0.04130758729672447
0.5885559237104455
-0.0885163005091382
-0.01111140119832428
0.11283020695575464
-0.12771453684575268
0.19407476937300705
0.47703548959892494
0.2584429004255699
0.2831652760114122
0.47167417921450383
0.11068146734591158
0.6349535279035566
0.04805118612972697
0.5617381205485352
0.12592050306003233
0.3429654866181184
-0.38339475740169227
-0.15224715877544165
-0.4353575745116856
-1.3443399232591262
0.12496884166668626
0.11982739396813802
0.42436810476806197
-0.2562322006014391
0.13475994751985215
0.44574169850528017
0.36629079000857684
-0.21250077902608114
-0.48849412489705346
0.255532317367688
0.3789107677838849
0.46620749819399276
-0.44158290444242526
-0.5296433801112416
0.16566435912275107
0.28658010334841105
0.03715955815708393
0.2558428167040988
0.06670628524978554
0.012831337773918228
0.13969023368670752
-0.011941595439367486
0.24858185421486556
0.16317918410082508
-0.24305756371373655
-0.20928684916083837
-0.040481588902459696
0.3713658477575988
-0.2953551060319684
0.34383546923566566
-0.26758023789740243
-0.12791069071865532
0.07133813224964884
-0.174394548918074
-0.5485873928382652
0.09491056741161809
0.3513988593372901
-0.13070531377247654
0.07085217088197768
0.3811975059482479
0.1838350561086213
-0.22149449815976519
-0.08333335858781417
-0.059272519108363675
-0.037768108637280196
0.13071181850058242
-0.34480380717537745
0.23684494766388167
0.22144350965553544
0.2927423471666422
-0.06508348125969857
-0.31290671905729206
0.4766245004743954
-0.41404301526977705
0.038712844073853586
0.3410233014783357
0.21545108147604758
0.18364391943504754
0.18361270959630527
0.29932267285070346
-0.09147897777876006
-0.06344966814685318
0.6745723775641262
-0.12055843189895983
-0.4752945251654332
-0.4266794557821912
-0.15436335039152793
-0.15665037755688788
-0.1864641352264158
-0.04437429072333615
0.3621687832550688
0.20018019632676395
0.3917487288263938
0.45038903423604304
-0.07902167641189085
0.07775894101658093
0.49997790722063595
0.24563311739568933
-0.0839313960478097
0.10615509851345292
-0.14469765321229625
-0.41672545416891643
0.28376759068014057
0.2531615907076008
0.22111080960509477
-0.34437521572580787
-0.14048232180489786
-0.4000324612830683
0.4215276317547851
-0.40931070664786007
-0.24595079778031945
0.19140820451748883
0.34710217915577596
-0.028773060442598936
-0.12668460984047217
-0.2797290722685748
0.11604359402786822
-0.05242743696438478
0.05140631981155473
-0.2642341123110141
0.11060030655829615
0.09515634551424568
-0.038391718384653425
-0.38749872382084727
-0.10586893164952767
0.38174226024402264
0.23300485704795695
0.3001367927607964
0.48651775567551514
-0.5077876569292755
0.10064110022425772
0.2683893337175425
0.2295790769775019
-0.31090147557788084
0.336030996715385
0.4756558413674736
0.028388510517593734
-0.14478994785987884
0.25942268271237817
0.017990949333605597
-0.38251858150975165
-0.4824016624467358
0.15500470983270875
0.12720888149019083
-0.1339589602926083
-0.05523927932457557
-0.40106899166229615
0.1621213325076057
0.36484826310113583
0.4711908368471661
0.003719282714076053
-0.3816209223581383
0.06738535175310578
0.42342815014437035
-0.26739546386843654
-0.3714141856985009
-0.2638956146247337
0.3391026886136139
0.4986219283189138
0.27503320535344705
0.43195255296964324
0.4957073529600033
-0.3414710347867083
0.13638839768241512
0.13537571752245406
0.18512317746708443
0.18010205399903514
0.20982786182961008
0.43924390909107347
0.24368627610472798
0.25123092284220944
0.004266744128609697
0.38652976381120774
-0.2898870164387085
-0.4969068226269749
-0.3411128910491265
0.34932741074360407
-0.18025803546983615
0.4857796147847527
-0.4669647362645759
-0.3326336685766906
-0.45678431622273613
-0.13293884013175894
-0.22836724659476965
0.08981507273609697
-0.1041318166547175
0.270533482252307
-0.17287113256882156
-0.31030820166647033
0.021330602216502462
-0.45875054828009215
-0.27918067517478
-0.35594605224716525
-0.2952153336107207
-0.020821606304700667
-0.020971165993652795
0.35030181278904104
-0.11612973303530698
-0.1820095268312543
-0.31661109121019543
0.2763444776382897
-0.13223722255950132
0.01585238888638101
0.08484052356330922
0.18575676626552323
-0.2765097165898644
-0.36332676094311267
-0.44168137012148573
-0.06219791055163421
0.07122249392247135
0.425342135995771
0.3956409797302156
0.2000465371488237
-0.10723059408496596
0.40610827095200036
-0.5676905964629104
-0.12277684507767989
-0.16938994910885952
-0.2033992046877531
0.3845699029044062
0.0631196074757576
-0.2946010522074354
-0.15511186937932264
0.5206751823925972
0.1958907671391348
0.1379246907387944
0.34177696338220415
-0.4427008484654497
0.20018740559184475
0.14989214257261502
-0.12246593478304094
-0.39675497596496084
0.4653128400910379
0.45663378148667266
0.48850859969181387
0.20238555666523897
-0.28373110291386405
-0.2982645380163961
0.15425234497400986
-0.09732315965560272
0.21509000988266497
0.3079330686074743
0.27302478379443523
0.12851532562504597
0.141620133955943
-0.08740771261316777
0.16808207891115437
-0.40807347684238887
-0.22358805042422022
-0.29391726277670516
-0.5556496544408307
-0.15357372165323854
0.24692578361312775
-0.30270337722164026
-0.1589376342370276
0.14958518400456713
0.3506219794761821
-0.1536651591314702
0.5155334767497244
0.12555885049169446
0.002051254213449801
0.2507824553075557
0.06681237044624688
0.3283009614857781
-0.6829132846880359
0.3931630254760585
-0.403193349847385
0.27802131314236167
0.4878429624536957
-0.3260505130586673
-0.4730638987127705
0.1239180267067734
0.16703911102323743
-0.354380288643064
0.04228125238019112
-0.1766470987234677
0.15454113051351137
-0.14202275863169606
-0.42547720345588574
0.299955296589624
-0.10828043836366938
-0.19341401068689015
0.3095275724344926
-0.4792915802166398
-0.19248583067202316
0.34089021502121547
-0.30316334991275795
0.10761394282261283
-0.36984238533093206
-0.07741312760439406
0.43286795537748685
-0.4476230662765522
0.04546864447477778
-0.13437528269155563
0.13944819790707463
-0.05893536375217364
-0.0750395584184187
0.3320820467109304
-0.1556845802818391
0.2559019616849707
