1
40
6
0.5451525539578191
-0.19453139756792903
-0.3701650571897998
-0.561088015065405
-0.48314824235199977
0.07609521244490856
0.6342703035645735
0.3158696437971541
-0.30513465418356345
0.3299413317710641
0.08729270115615603
-0.003216102015941246
0.2430477848724517
-0.20285930969004204
-0.33194926207858333
0.057229812754375844
0.06582137760639444
-0.32687645888823197
0.4512402135877253
-0.059494113749406545
0.06135271885323132
0.5651992615133733
-0.16265021135192456
0.0796352979641778
-0.502825311329339
-0.028646232560924988
0.393397006675939
0.0987987476542079
-0.06794424341495989
0.23224720610909644
0.5220104438085252
0.20524179530248274
-0.5323094080530487
0.02522317211750476
-0.09842407081103112
0.42696743054454095
-0.6426624336721726
-0.2567772675208598
-0.6104448177457932
0.12187679234124306
-1.2548763890656796
0.4241772113872577
-0.2396603085024877
-0.13081176977103312
-0.06260896585186994
-0.43055410810472955
0.26241414840570926
-0.6397521824216195
-0.32072404049559994
0.3255124559371328
0.17442718371552363
0.42978800088732255
-0.029232487677847262
-0.44047190694429245
-0.24212521647802984
-0.1769646392588732
0.05324479589460018
0.15253210590953115
-0.35897800746261677
-0.1950444697110574
-0.3886482605987654
0.24037261509631483
0.3960387685400744
0.35544453235863943
-0.25598313129965944
0.10169185591147356
-0.25326207471746687
-0.3840015660363137
0.3722340182232711
-0.37196113789378993
-0.030280088744044312
0.17243749475466918
-0.08857373531447889
-0.32322135095106674
0.28782636355196395
0.43493364085825426
0.3499504912314963
-0.42625879373852427
0.1565169398263331
0.45396124938238847
-0.010891513854041848
-0.12060041060749385
0.19187446723011375
-0.04365466021392042
0.0508388767492683
0.09826035619684792
0.16778688693346744
0.43245072193074974
0.22309403890031465
-0.6404219671321487
0.22771582530405376
0.4413313583249215
-0.10967186467935353
0.28264480634083117
0.435867926520817
-0.31335143805099414
-0.3904135502940944
0.4256758079917988
0.018587375340993344
0.4040572342561797
0.2695457119117369
0.3163363086519862
-0.06087583757341529
-0.11217429076873378
-0.02260318610030669
0.4085530249429269
-0.2554593811817798
0.37137095342171544
0.058507559217345975
0.18302369212799902
-0.36497686549130226
0.11601483009966487
-0.38100796939051057
-0.3810784961793508
0.46734741863933177
-0.4950875196629578
0.12206595858913
-0.2702709067402306
-0.10710253651283944
0.4828936552876242
-0.4854610199622536
0.0540918043668613
-0.2737765625172881
-0.5100055689114088
-0.2955012314098636
0.48726985776909715
-0.4255952977956501
0.1491233795958712
-0.1259190344960083
0.37035602305106224
-0.4179074745348801
-0.4156228249879252
0.40375205454693286
-0.2856327683717461
0.08179280344701922
-0.4750483684448211
-0.4372504437414855
0.10839379260138335
0.14117531434403627
0.09911575793456497
0.26402561499420113
-0.20511967105902304
-0.14081148484014472
0.1348325157657692
0.26113300106962983
0.5451059928850532
0.2492586888825741
0.0672085949480736
-0.049311491806182814
0.29488741109029626
-0.013338536995778225
0.09375055446033748
0.35775194521925074
-0.43422065390653247
-0.02278112579057657
0.1644968744704105
-0.24921963893953925
-0.019001885262299824
-0.029121900979912612
0.13378045745190104
-0.09218784352496305
-0.244231939463107
-0.34213263102610175
-0.018694203843118644
-0.3873454082156825
0.24516466053328095
0.1388550274363121
0.13628915006628328
-0.09065475559138103
-0.0024433667013889645
0.028033460561231405
0.2348340674198197
0.02714075831957631
-0.20837670307195202
-0.006627341622100403
-0.24417200106917464
0.43508597956445644
-0.24889695717540586
-0.17009468503552444
0.13555971232179417
-0.15936257475417304
-0.18533261617163432
0.13931937003230402
0.1752616517411623
-0.21670990784638866
0.14060006092707636
0.052993546117421686
-0.23692229084131833
-0.36586746233811807
0.3526661050696028
0.4158345626199357
0.05022776549994325
0.056463393195980954
-0.3994999219657711
-0.5775476369061792
0.34372629246524716
0.4518255838286802
-0.004951895965964794
-0.20705800617480272
-0.3954125256831294
0.02123408569146808
-0.029515435669914856
-0.15645629097535638
0.1251320225619074
0.29852989623585285
0.06557245102333001
-0.041275728638557864
-0.25991566852932657
-0.17327068546979216
-0.331164274007121
0.09443607329385244
-0.21872517182830306
0.39495417422589196
0.2771963138765699
0.32973556744169
0.4986623405719494
0.2973711716643784
0.06741799664310341
-0.22346198155799996
-0.47992058074385363
0.23203349941120904
0.03270539102790786
-0.16587476288065067
-0.3202250186373022
-0.3417138548610161
-0.3794716662020961
-0.19123761175733703
-0.23251796159721827
0.04530031256120677
-0.40252688521716184
-0.3913110901730667
0.4931490034596105
-0.4003256654782086
0.19767553667193788
0.2679460783028292
0.3783919375223073
-0.4000379395016501
0.47125005354126087
0.3527108369600121
-7.466256323568693E-4
-0.12048887440211724
0.10083361565612964
-0.3508657012811066
-0.031800365047764845
-0.23901631721043293
0.05711086110331501
-0.019861520139835786
0.3413863139725629
0.1244677932014655
0.13411509157562868
0.018114391148585075
-0.39827015792223325
-0.32479694833513784
0.39292837137039227
-0.09336053260398344
0.06825837453076487
0.316543524551657
-0.3504316557071657
0.22586506915123813
-0.27271454210931184
0.08617902053814055
-0.2763745975540548
0.21392880432589997
-0.19121410075102713
-0.09204117990798816
-0.16533326593863523
-0.32761756912691875
0.21466460886150399
-0.02662258480177413
0.09416160857129523
-0.12317407469833258
0.12516484170591033
-0.40813819951536606
0.3660313424127512
-0.08213282003305648
0.24566701842717378
-0.1075214275376768
0.1451610089435605
0.24094810584102758
-0.46399692639467804
-0.28853578679154646
-0.029550173130550382
0.26754993924059817
0.08854263914319135
0.2217490941754842
-0.24960861534593162
0.21756949135891684
0.13043445023783085
0.16789453332574186
0.15850750786513243
-0.39025844794536674
0.1792345415625662
0.07680066853618717
0.03215814797744835
-0.44189263467615436
0.11236960207367307
-0.14026072464398143
0.46670696209247686
0.38187087251593665
0.5137853246525379
0.08563404640376014
0.2106407686398097
-0.38867905858566254
0.3238041350376431
0.26051295641924305
-0.17102031899710649
-0.0224044078013659
-0.14369259729378045
0.31828891813690663
0.39684393781529126
0.05205348000873632
0.3689701630694276
-0.19560183535315032
0.49046596571186696
-0.3915371266137486
-0.29286718892024216
0.16174067799947603
0.16155452610835483
0.27733154200330423
0.085134268146179
0.1675721663361688
