1
40
6
0.25586191180078144
0.23266329185303292
-0.03243616118306387
0.5050827388068261
-0.3338829252831725
0.10517325933136482
-0.38795494509725414
-0.7005616193170495
-0.3902596678870997
-0.010065813338998095
0.20444929497983597
0.11405756687099124
0.3079490369520828
-0.5076399081052937
-0.5909749491145405
0.45731212784494935
0.32756586166731116
0.09350115673277909
0.12420645838547088
-0.49167143171324174
0.07504146747101836
0.46329018411707557
0.07847670954457321
-0.20129411074233358
0.46200180362802007
0.048892178177270956
-0.5937845748623967
0.25911527716034455
0.5964504633642838
-0.20621274968638387
-0.12445602772289271
-0.3224694662169711
-0.592678527074191
0.21598120584255254
0.36216785821328545
0.40453715051353534
0.1131853017290521
0.33509337292348473
-0.11979394774257975
0.5944958341586356
-0.8649816193736752
-0.1930771618678246
0.491857321851566
-0.16979799474061796
-0.19853157906595287
0.1322996086286838
-0.1080134316466495
0.07562459256151421
-0.1633834687328862
-0.45305822244354377
0.29980514295167715
-0.12349054221593815
-0.4747420504735729
-0.4095913437322185
-0.1010749276208914
0.2136812426133565
-0.03430319990490116
-0.07332425285371275
-0.15580772460257197
0.05644535136342514
-0.401195873361641
0.15927926761284425
-0.250859885123604
0.29068556449305405
0.3983016575419059
-0.2714437811808751
-0.40810688216062685
0.45528534906925816
-0.5828763936925218
-0.04383525903273401
0.3670557692253716
-0.3109713903383972
-0.2626900582528856
0.14538160764803673
0.36221657290704584
0.45066899318805526
-0.4272739135513698
-0.11747907991149732
-0.4073171608813423
-0.3422803565853042
-0.15153987175955458
-0.2682116629821698
-0.011374002843364858
-0.2167079279608889
0.4878363239552109
-0.32299835974499613
-0.3100968047129802
-0.4038094436985897
0.21757844055714765
0.4501390712297713
-0.4011019599769685
-0.04528407715383756
-0.1748984314611835
-0.09998922962157493
-0.22316870460142962
-0.192315313312131
0.6621834043212171
0.3454063712943949
-0.4337422632198674
-0.09301772360253971
0.46047690070888503
0.450037476498478
-0.31857968543209314
-0.2432681906981852
-0.4181988009196782
0.17421141954676062
0.43597656854930017
0.19635450248922565
0.4820718851464374
0.5168085964011827
0.43481039384505793
0.004354973608694993
-0.3993072935755124
-0.39352549001335074
0.42065307694208226
0.09774351183788352
-0.2667106031485225
-0.17582590650735097
0.11677502370592825
0.1456776633068322
0.3198101632615343
-0.3318814868880809
-0.5023909974928814
0.5147601997671746
0.22468033126471365
0.15835175016530414
-0.08128139409028809
-0.1167054686732454
-0.2386931859804518
-0.23361365350309932
0.1852071144062479
-0.41365100750133854
0.39841328870669207
-0.18444235332327763
0.057902870208764674
0.30521364673618423
0.29944656708071316
0.37550890025459993
0.6177595401484208
-0.1951008760906137
0.24636752667269582
0.16561696496955924
-0.2727126098024421
-0.35994521140723323
-0.337878449548402
0.5561961548677905
-0.39463806021075143
-0.08716071118455458
-0.17672725625831345
0.07384570440132249
0.4363827395987273
0.49397604596095557
-0.24347061659074218
0.1358428036300225
0.38990575047757875
0.12167784625234078
0.4420164975888705
-0.030292740859209064
0.23562289100888792
-0.40598823015373875
0.08979725109756988
-0.003724017346451399
-0.4276586943004779
-0.28722202029737465
-0.18269428095413245
-0.03967150796195335
0.3841915469516721
-0.03223082801501212
-0.1430368067319183
-0.11281039688005308
0.42306808323366374
-0.39527440956635357
-0.4255685117176038
-0.4419984356675236
-0.18660596247855368
0.07040911648394256
0.4949151229555954
-0.2623871248337017
-0.027570954904460303
-0.06384156059933246
0.058875080774639356
-0.29027974793438177
-0.2613572718637065
-0.17457484650832075
-0.26748686718610565
-0.33229137802462794
0.4520213510225182
0.08694714227739003
-0.35928911362554977
-0.24097281490880368
-0.28232991493773796
-0.22621859366056055
0.3927166183192538
0.23062808619347955
-0.4143000576622457
0.4464551984335535
-0.4526093479314685
-0.2622480343194432
0.16539186773231748
-0.05507502360529719
-0.30143958167486334
-0.40643164101582985
-0.12280119198003367
-0.3217074021025857
0.17099922496715386
0.3649448473832123
-0.28549868369388415
-0.2528670466439629
-0.3435962859086146
-0.4115576459754005
-0.0343509287028681
0.3393919947321209
-0.3289592095787588
-0.31428014425598366
-0.333935594056855
-0.521780931909866
-0.48585712993556224
0.18110062829728296
-0.25137941930999913
0.025158879226714823
0.22474234538230148
0.3082840271084647
0.05713972914677578
0.4010306410197243
-0.26228367219503146
0.1234956618750509
-0.18933614272303687
0.3867515833392733
0.31380320603836437
0.48079805740444287
0.11216240375963693
-0.16103996121323805
-0.023860138332192724
-0.2941207575013431
-0.3640547864073918
6.891091989312293E-4
-0.023733097109235123
-0.17640568905973436
-0.47350923497720504
0.41884805296395583
-0.1079429491904059
0.2621491952138168
-0.16768652160115843
-0.7054557271125605
0.10684847797603288
0.18316181241068216
-0.12037601096461766
0.3825642398965586
0.49181197006966487
0.3797881246320548
0.1235706974524446
0.08529048534813292
0.4506645565644055
0.3920777928620162
0.2912251878682593
-0.3139223636002166
0.14502418410996626
0.43193005965676273
0.01347329643320079
-0.3824802133906067
-0.2961697247170992
-0.4668522019699975
0.4824338396539406
-0.050876488684435
0.3227045805531115
-0.31531615695545256
-0.37244180740256766
0.32148821729781113
-0.4315560170607837
-0.3341363500325864
0.3676420999578961
0.5681167886753329
-0.13564611651618882
-0.30982292709923465
0.14296798680561576
0.2005916645962459
0.10124231397077245
0.5081615591220473
-0.22427741581527907
0.4472527916260049
0.020917508759660315
0.32053311446668054
-0.2583286330159503
0.35554397473871224
-0.15911005615844848
0.03749657879969271
-0.18697345505677737
0.28017262897000555
-0.3327505640302154
0.12996873982282453
0.10191971261582644
0.06681635786918246
-0.39099204958686934
0.4651020910521329
0.478205486974703
0.2006483469755399
-0.15541382435183287
-0.22842955025451672
0.13973920774739576
-0.156033311910226
0.31771156281301166
-0.2536540666011872
0.3218484039610384
0.35847368769018195
0.20244930084492216
-0.1885236493103038
-0.23115500866790378
-0.26479642641234297
-0.21956224150308928
0.4585874739428023
0.32051545030398804
-0.2895832116685527
-0.47427223814140834
-0.08004597032057399
0.4279671645880321
-0.44305266504723345
-0.09706994026299497
0.22081235453308784
0.04281212043179316
0.18876327681552935
-0.6879575248265646
