1
40
6
-0.15072611887976067
1.3151242813199855
-1.3968115740446456
0.012241913848416634
0.03393996578943215
0.1134426926259767
-0.050866116960316
-0.11175471480153927
-0.08480963782946119
1.7647418701733697
0.0845119623684623
-0.002584637061737811
0.029185770855253403
0.061262483107568017
0.49331765132291144
0.08739681616606754
-0.030308339811379977
0.40567013552139086
0.0225083202661851
-0.05190861810717435
-1.481930717255593
0.4377056293502087
0.09400888713986047
0.00764065140043157
0.016904254306523734
-0.12658927258545216
0.00920661047101575
0.04227077804758357
0.05060448100925238
-0.1932418180039633
0.40067461608231514
-0.03943442933972498
-0.03617451278242752
0.0098701113944148
-0.04896830867578385
-0.6681041619404033
0.12278973935428128
0.5620679566383585
0.06658286473282697
-0.04586287236184227
-1.5239545056203687
0.24472857890337668
-0.06879745973254359
-0.12955335246124577
-0.33107892943231165
-0.126935500912579
-0.3576242471252518
-0.4481148093753966
0.28199367277633447
2.590701683515211
-0.2457067774368439
-3.2319121914104545
1.0841975380843494
0.26273387031540213
-0.15256139428354365
0.00902405039552461
-3.544721201274471
-0.25084142791221586
2.422616044833353
2.0497428193927743
-0.3124911205577087
1.2331316608128984
-0.18952630263064002
-0.09795488024192582
-0.15256876396899183
0.4297488286616955
0.21430331704164682
0.0946013944439756
0.6982607064009793
-0.022247209014182572
0.33627194509147856
-0.05528017290506936
0.11982192406922039
-0.31285921751755486
0.21552174819655356
0.15551745780162693
-0.340248676384083
0.589668170316716
0.12115299199297615
-0.9053036674898145
-0.18965792715422097
-0.22412298930347604
-0.9948448888723596
0.09456730965412509
-0.19359682575412027
-0.1368879896200685
-0.25317965433715656
-0.09294684396833533
0.3448206855800892
-0.11826660317717436
0.16219709581478325
-0.6171976892703365
0.0564260391522841
-0.269709616253557
0.5752522842925952
-0.02345395943867642
0.1774787407269448
-0.002628028305939941
0.3314078177997849
-0.009461078070520886
-0.08008861505752402
0.17676869983151924
-0.37839459776334644
0.0585515976942708
0.02224687896076991
-1.039403112820225
0.21739639611763328
1.8628169972947053
0.8587093682382065
-0.013188041744377332
-0.8298872661869532
-0.2991731485590876
0.412340256996213
0.049494936260198547
0.4274753690959379
-0.3109690146923247
-0.20747298206435494
0.0268772693657737
0.10491518519108918
0.36631461074305877
0.02647686677486823
0.29478112653370375
-0.6297178781496914
-0.06248219885211938
-0.35724749240719905
-0.33451730762338416
-0.19286681313077403
-0.1996601008773427
0.22336553088342254
0.15383372603576786
-0.28662087572867084
0.2088187268948083
-0.032040401760043434
0.3148272594714963
0.1291942861307411
0.13589237978750204
0.10922790152940438
0.26643569554463636
0.36696690620109046
-0.9975467582695419
-0.18724479118454326
0.3231682937132622
0.06832536248421084
-0.1827233876453372
0.236602181631488
0.9126603078903889
-0.1446674001128937
0.11636477408758929
-0.009521366862400554
0.09869685966232958
-0.15551685471704382
0.3615650189257426
0.08291353353023401
-0.01133327456413431
0.13283693275168307
0.01918430104718254
0.056356945261484874
0.16279153926051743
-0.07814392371568284
0.3446850582065949
1.081901638597498
-0.5558150960531172
-0.340530861256136
-0.07001705686110192
0.030771138436268764
-0.3506999451483801
0.3465283617225054
0.36485078952136196
0.14786099058116364
-0.11840960057338071
0.0538499721087926
0.009219214055116684
-0.19474187582344454
0.3434062741543236
-0.2711499131819951
0.24866510128004773
-0.267247359446102
0.19941180919311108
-0.2619459102812922
-0.13751345790076294
-2.3082728564467818E-4
0.07735684689389546
3.676377605757771
-2.0165637895239803E-4
-0.9122363878938036
-0.5445648992850088
0.062004865134919415
-2.3088987274617514
-0.1904131256160425
-0.36909381655946805
-0.9983244539161651
0.27684313651110837
0.34713218392480244
-0.08208145912843899
-0.2345475997004868
0.06306183263900919
0.2804865569859866
0.18153714063276488
-0.03532481800170673
0.19666030574575866
0.28700109208370855
0.06148361363291038
0.18243486251772603
-0.42531705303352696
-0.10080200610029087
0.4223443004904567
0.12044424967204681
0.13533367666649004
0.46771325237053063
-0.2095464202147651
0.21570485250147062
0.10118759557968443
-0.28309086153425134
0.2887634733030626
0.03550539449101322
-0.08142984429620692
-0.04776386836517067
-0.1303149472224315
-0.07786092299714273
-0.3787142414783285
0.08350688914734235
-0.3721698681530964
-0.22592923842321858
0.20581045683061192
0.27129262620500094
0.014714723697826297
-0.08404142786944574
0.22983442484221397
-0.1713953683216853
-0.13514199809027544
-0.2766881449778084
0.3254074217735382
0.10829685654706062
0.10493953265902986
-0.09226568121884832
-0.2838749451295507
-0.20510897975255224
0.1623465640152719
0.350709885186193
0.1297803350258463
-0.045215683652051426
-0.07031400075557431
0.09131859888333117
-0.21123179089000654
0.14112081024810053
-0.11910968965420822
-0.16007889370808526
-0.48449006389155974
-0.027350231490390044
-0.2287222360658579
-0.12519197513503905
-0.03682183605350681
0.4462777033868152
0.39368200454347185
0.9498002489479691
-0.28340619527600525
-0.031233123707125925
0.07607907498137884
0.19273606269026888
0.49003632754089316
0.10920652565662324
-0.4562258148052295
0.07863660914540407
0.18749226500244812
-0.08179355184575848
-0.11419609573268284
0.19848220378071518
-0.09574548654450028
-0.017233792845218213
-0.20692557846926848
-0.10931284633441524
-0.16910226191929484
0.2859359549660262
-0.11686567630846108
0.18739065307380895
0.24816050661844083
0.1635440936146871
0.24534414762083043
0.3517041471645447
0.34094551199566436
-0.19956807500137402
0.05614558217763502
-0.46671054400624873
-0.5645723370699303
-0.2738668944502636
-0.9893611765757949
0.31750405033765705
-1.6071846772007652
-0.3888804921494742
0.5955916125521705
0.6741417259928809
1.0189265940008263
1.0204922170249475
0.003239789403144599
0.15208745809040305
0.03508901447705118
0.47811052413397953
-0.1482835132750457
0.004755355843113994
0.04883336875772898
1.1400633320770965
0.9494466436813187
-0.7152690033199451
0.02268222145322278
-1.7333058871772296
0.19485221001636163
-1.4552127371409123
-0.2667089998591592
-0.1916120392499972
-0.017705938578733968
-0.1272000756207599
0.27180119973413047
-0.16902788207283442
-0.21751061622729917
-0.2845731932606523
0.267513128121495
0.06496251014763657
-0.42505439115870663
-0.13227560987193748
0.06129682586257383
-0.28334591503387035
