1
40
6
-0.23576611991962318
0.49965693529541216
-0.14826322450280902
-0.5666089062521755
-0.29506223025315015
0.7083139610262006
-0.1556147180282446
0.018282156448237732
0.07106936523001978
0.22673019462441102
0.15540633688945332
0.06787231014546154
-0.4873177344982483
0.1338336289976866
0.07880326302889244
-0.08309224742546487
0.5463967635852138
0.18934191164125128
-0.602583639919786
-0.5107260777812083
0.06534933702807615
0.3417822925204797
-0.14184345045453148
0.3680026567015784
0.2923599902102817
-0.38028795992957
0.5661895892734634
-0.16928523209113128
0.369912682786603
0.6586935649608674
-0.02237613918123486
-0.24941933901524588
0.6761850973689647
0.11737604105805094
0.6433338013968484
-0.33177201089266406
-0.4182921543315956
-0.5398337360957843
-0.31554065405007253
0.1853284052273077
-1.0904634924950143
0.1455607649657413
0.34514774450372054
-0.38353769929025483
0.24654039434794556
0.45654636364627865
0.38779506668498964
-0.13189495151496033
-0.04670942673885414
0.2788826947597352
-0.09585173025720248
0.4966340476721094
-0.5472860286156179
-0.36967473440968746
0.04229950246208956
-0.3656538278238838
0.18583045530747028
-0.09440427931772101
0.43810474339376926
-0.11115028316470354
-0.013320825956516711
-0.021833282591522087
-0.343572507276512
0.42601099121737857
0.011753633399741786
-0.0789591059717944
0.38949443261704303
-0.0816215350881678
0.5324327456629746
0.37805414875245597
0.013399008513017173
0.09863055232915441
-0.20041504211060784
-0.3089964198573201
-0.06491033116760062
-0.029017278418451437
0.23750454948792438
0.15705321275776749
-0.01839216378120308
0.13919105499823112
0.3437054180625397
0.2230268166647341
-0.6920991424423977
-0.48855824368277584
0.2624829871998223
0.24543300102473198
0.26586106126470094
0.31303716879339893
-0.4718622752096711
0.4280600477506107
-0.025564483556162646
0.3940318697019916
-0.02244562373940766
-0.4354054162356837
0.1507799057980254
-0.31686868748934177
0.3059528427638024
0.3334591295230711
0.09695310557993835
0.45730862161228353
0.2501455435272447
-0.0708260930117242
0.16367442188592732
0.2524393461158959
-0.3582028288457772
0.18010681880217902
0.28749246685786356
0.2403776457097994
-0.09028553504504738
-0.4408349491790153
0.34430918942425476
0.36736939036702654
-0.19767349095324446
-0.16504867970138
0.3105128671483467
-0.3445637941823648
-0.26305680554324984
-0.26656277108336807
-0.08570545333455777
0.4199300544543324
0.39408796525156886
0.467096287348517
-0.04408221841657826
0.37018627513502306
-0.10297163615181812
-0.2553299707390877
-0.035810351534525935
0.1558602238683397
0.3917788874909993
0.2989530235267591
0.2737021062236087
0.5469100679479355
-0.12429309973659636
-0.0505974185052457
-0.3793700465678725
0.24598844556746538
0.21509120970144896
0.3751110387463836
0.28838085570566957
-0.3347189407627894
-0.46933400266293235
-0.07183405005165913
-0.36118365452902457
-0.4426038923320222
0.18737541393720417
0.10045795064494555
0.47889932606635727
-0.3559361721571046
-0.02554598361683509
-0.24516821334550767
-0.3688517933460804
0.44827976218899546
0.31119463537249265
-0.026574471947746703
-0.46535185899927056
0.37965599388008453
-0.4332656704081449
0.3627984196770672
-0.2557226680848729
-0.6412322380093165
0.04489587203014642
-0.16156070694042274
0.4048377040538011
-0.11940292052461199
-0.1419855328411467
-0.1999455264525442
-0.12983647293666623
-0.059910649953063666
0.4463938758775856
-0.1892418640352254
-0.2926952003338924
-0.3342193043475025
-0.3940501742784928
0.492160694455159
-0.17538578403685248
-0.24322686564296508
0.09847334033100374
-0.38692568827011253
-0.0204021018632916
-0.1957051919709258
0.28934547055272314
-0.3060290706107736
0.37928408038449957
0.23750645029256137
0.39649080222705596
0.06373794281924057
0.021769379058118942
0.12243336623407094
-0.22603114877885605
-0.32963354650365173
0.49858327377107375
-0.1819353240086628
0.2909002912313368
0.23455875023214565
0.16507866911907842
0.02361214868458001
0.4625546337730101
0.2870849227079335
0.2741201321068992
-0.31838514753245994
0.45237600259420413
-0.08913757994796288
0.47861413333446895
0.2691062223366834
-0.1804768705958726
-0.24350691861324777
0.24207843223465475
-0.22159411278291538
-0.1993284191433324
0.0316584232611854
-0.1547344328636316
0.021891932808538246
-0.1112915139247378
0.005338985863711275
0.4608733541967786
-0.4684716468946216
0.48027928142489545
-0.3317915356735871
-0.47118625723180424
0.3259206363267576
-0.4200087959024119
0.17673689037765666
0.5381698486802006
-0.14219434700148065
0.3993422766750722
-0.2370625574236043
-0.03616324859121152
-0.42763721691429474
0.3921422501652805
-0.3929701402351175
0.3596417229374425
-0.44554251022455316
0.08720062861858935
-0.30221380405150644
0.18874918918296354
-0.1639646832944399
-0.2333791701756173
0.1457796150648324
-0.15906378613992234
-0.28950347465384957
-0.25047898219788417
-0.165660703386813
0.22656768972836847
-0.1716822414403301
0.018285099141431067
0.3371655785276172
-0.4469185057125517
0.3297115369466533
0.2827371499499067
0.3416287023397213
-0.48724295424208536
0.38187788006697254
-0.2777929250514603
0.22210468223612292
0.0176795127580493
-0.174158783702548
0.028084373948832324
0.39605843953516773
0.10100817826066105
0.13838271247124978
-0.05196648995049488
-0.4848157439939137
-0.3945029721090081
-0.3375645735675415
0.1622511616902257
-0.12153852715399002
-0.3784595757017259
0.3664915841622868
-0.11143844748716907
0.271596928582293
0.23578658892215504
-0.7142872028513014
-0.1363041328800331
-0.43510592585373986
0.02788665645558533
-0.09136790208905653
0.27023347780958407
-0.18369319290413894
-0.13147914741490452
-0.05861850623622011
0.48510212753129567
0.01922415196875511
0.11229502763285018
-0.4759460726449128
-0.39642421808552447
-0.6053189661760919
0.09927841700868527
-0.09320168717441339
-0.054367038263293865
0.3868849096734247
0.5615512246596384
-0.11040874189314416
-0.14575638971158228
0.14846179868994364
0.4813231625481491
0.22775991668500828
-0.26960574801911397
0.046292633746541065
0.1737815671518424
0.041836736784022666
-0.2581697332861311
-0.1590611190597543
0.2579327915611848
-0.10877459587201362
-0.1770761125026609
0.3895910924112096
0.5765078264311775
0.46028076963791525
-0.07910853273085348
0.04899675804175914
0.057172382216766654
-0.23237305603321784
0.4192268434475954
-0.0427083878648478
-0.20388194976617682
-0.3550564785621332
0.27874317771858054
-0.06730071718164023
-0.13210261737092835
-0.006551052511085765
0.1520641672579894
