1
40
6
0.34465277425482294
0.04232127891560935
0.020819802346004897
0.24036924848947314
-0.4097364863126844
0.3085084218254521
-0.20645149738960197
0.5691050338615534
0.4469979220334697
0.2441333663679724
0.6849926308159647
-0.12618304046001064
0.31657699975063097
0.5529672408020303
0.003610003479154723
-0.2835316480010439
-0.13816475623910102
0.37573080404216946
-0.2556283945156459
-0.22270860756240082
-0.2654717965734921
0.177967254093265
0.2636850741334285
-0.3211297816930134
-0.0822677696846994
0.5736360431896896
0.5025418963754312
-0.23343974937376652
-0.34875259447487156
-0.20864014823476296
0.22464276656907964
-0.01988227434303826
-0.2251322645946857
-0.322093759679348
-0.36130872677214226
0.0017231590616874402
-0.10136658782930422
0.013162624423392548
0.030564277602507826
-0.19030366008052424
-0.6313312582278688
0.11226712249104544
-0.3900562006678414
-0.4179866657537461
-0.06353548257628146
0.24294288348752602
-0.13408260825341875
-0.5167637916587038
0.24596472887851067
0.3701523612888187
-0.30950978732880374
0.18514330047263775
-0.054941541559431824
-0.44341790820962484
-0.26236227825441444
0.1682161845213472
-0.29792478622255836
-0.03538590694304438
-0.10240306412014794
-0.34605413932163176
0.3198290285272949
-0.1864279030103169
0.3344358770837439
0.2045860249857381
0.4083801438364925
0.18875666197346136
-0.004604321593062013
-0.09058398355542539
-0.20550300883363
0.1503389069626956
0.03147696536291155
-0.24871759646791036
0.4611647529897234
0.30910739671055465
-0.02276477122164854
0.09885483825242465
0.1727059290920071
0.1259223761089108
0.2966214735520735
-0.39407935855123966
0.12262285954269735
0.1724102538194259
-0.015236309274514692
-0.358260615360587
0.24161427800779597
0.11836953142083606
0.04786925546679664
-0.16060920034532455
-0.265243463149621
-0.07471774423761338
0.2234254609006348
-0.45955809782322155
0.21888655525350992
-0.39111827722484044
-0.28935904390254086
-0.42300102019008234
-0.6169646388610875
0.2562321503338231
0.06624021449591182
-0.2698268737930617
0.29676983241506566
0.10804422626695322
-0.5763658835510385
0.15217745349883907
-0.445444972024245
0.2313251281295272
-0.4530997174109979
-0.06275872337513742
-0.11373157843169258
0.2895315129851923
-0.20433644203924942
-0.3849754023066507
0.507564681338156
0.2579783156949205
-0.2735822602721275
-0.33271838462124914
-0.23387765315904557
-0.39532731690547723
0.34362638371246773
-0.42766088364454574
-0.44305321491652017
0.38762091003575516
-0.4476639039859409
0.20228973095691077
0.37727476586827824
-0.2763554373063775
0.28293952320825594
0.020411840842889713
-0.4674303830796384
0.18129850712275666
-0.39440370307490913
0.34665768512901873
-0.3570487339339633
0.20858501651153022
-0.1307170605718901
0.05505225506762012
-0.44932790416044904
0.2752036811500454
-0.4633012308164682
-0.26337270476345076
-0.16005598950924566
-0.09800605951994278
-0.23312394495668606
-0.42348366667016674
0.010990326220783124
0.3843701285299558
-0.37729672413853643
0.018348648048891004
0.43015910417407344
-0.37131180291774785
-0.013446251978563448
-0.24574249464648654
-0.09446992445286899
-0.3092563591922057
-0.4969745916578269
0.0842943265762802
0.47457821593914595
-0.25277372528266073
-0.2877463427290874
0.3385305341943119
0.3118070750023197
-0.03266639855206953
0.27312779691085143
0.45985241510644725
-0.22725803306118447
-0.3766182814449931
-0.5122455502092571
0.036677820535092616
0.14880394663477145
-0.07540844596200019
0.03749683681901321
0.25539345521251844
-0.3698018526981889
0.2104266013885479
0.5131008057850657
-0.21351943185143238
0.1615718659494882
0.11793056181816164
-0.4491494841972998
0.43170089086853014
0.20320135542486856
-0.4371625512014636
0.256643718951713
-0.25752071981178953
0.3721893385805729
0.4092264221857253
-0.16324383454024102
0.3666468148413748
-0.22121275431960621
-0.3555864944639868
0.061744880105038154
-0.07311193879178864
-0.23155783292763213
0.08333207000133462
0.04883434488309574
0.30097149411834734
0.08818984050059576
-0.23996601479853413
0.07315163144862503
-0.15435426489060744
0.1937450602295118
0.26378611968446763
0.1843556668196173
-0.35524808316328077
0.4135934736841842
-0.41238212585181705
-0.32472229187643076
0.18818172614462003
0.24776128314073367
0.23498009639943218
0.37707587389466796
-0.2883520795482993
0.46022428824887024
0.4426527291247671
0.13342535049427917
-0.42071903926645066
-0.012565370922991547
-0.2498614989373006
-0.002714199534284609
0.18296992169332799
0.3540430683273564
-0.03830560147537561
-0.49975375957999996
0.007155186638558782
0.2398256466015753
0.24921544792531505
-0.15490946860656096
0.019620116988420058
-0.11702734114062717
-0.48350310615122377
0.376913032176541
0.41004465136460405
-0.05472837451256139
0.35746770560301266
-0.21060855564698336
0.09821277698865806
-0.38037909606378495
0.11041049312130051
0.18405972814367103
0.33699029289381466
0.20058913641732992
0.45437264319162074
-0.132084494097405
0.5709375573437012
0.38647098492356885
0.252554903291708
0.30300737664472105
0.214676116769114
0.4595088652273468
0.34130509503315376
0.1809639959283935
0.34208391041727804
0.37646934398602044
0.09352941537643292
0.22763144995843596
0.4315765366798838
0.426390729514103
-0.2427987785784021
0.34377958741362585
0.1068569244951122
0.30094813809022586
-0.197751183567822
-0.4198904921774761
-0.2074777718479257
0.054882740856517974
-0.28742616016481115
-0.14903457069250217
-0.22899709011725308
-0.4890763270546767
0.1215625017418314
-0.2582908867844487
-0.06253124250276267
-0.14027688551578546
-0.18841254461594326
0.03278671454555124
-0.4591515006697545
0.05373035650501552
-0.41661791308569646
-0.03962809381003405
-0.2528434585861603
-0.29944249624235275
0.3552761141176335
0.34572095498852273
0.22247259693862664
-0.2859547894249428
0.4271715695158906
0.2193248941320323
0.19666508866942073
-0.03959588996098501
0.27695326251264785
-0.4084731497173884
-0.3001733306716919
-0.1669887412753151
-0.4756867208563038
0.24321612559588457
-0.06593194823577117
-0.2678684428089712
-0.1023619775069913
-0.44987525657648514
-0.24901280844082088
-0.16024978976853052
-0.4371296965263953
-0.15454441986341289
-0.09218040655991094
-0.012064449449006679
-0.02515757668666582
0.17901426273375592
-0.12350147819562607
-0.40276821499831117
-0.25233820530629
-0.4319892210206232
0.48581663388496715
0.23212848334743033
0.19150197432306712
0.16693634026790874
-0.14418322561545302
0.42636597099744244
0.06896643065593568
-0.09987954793318875
0.4225395666478743
-0.09783326156043633
