1
40
6
0.3278557881850912
0.299107865342556
-0.4127947235613529
-0.13360526521516145
-0.05011081387532213
0.007395070744990822
-0.16656449539669071
-0.02909286340066783
-0.1926535908443221
0.044129707117640825
-8.507005864355176E-4
0.09133283641380066
-0.5101777366424108
-0.08871180627916334
-0.2832802761618622
0.42592907313676004
0.21666932996195795
0.511197174966262
-0.3994565109383117
0.23248783524990474
0.1965839787771158
-0.08078322737616037
-0.23750262557590174
0.2826830261887264
0.22216200702389227
-0.5991669919701375
-0.1601713060616765
0.5462413279269428
-0.2162076356603922
-0.3468686678638635
0.529880448127501
-0.15843781350818384
-0.29111507928541736
0.5133433820496542
-0.5492212427704332
-0.3087105710604402
-0.033507918029948326
-0.07107399810636422
0.08447944806551659
-0.5395489457563918
-0.5591535417054035
0.20184688639167436
-0.08047761183333954
-0.5022921965726955
0.08731636534220767
-0.24469886797283996
-0.21287832167016246
-0.5572506361500363
0.47546879553210575
0.29301123413657487
-0.2625384654134904
0.011289303773393775
-0.23934313265047702
0.44366993093122564
0.10761947411285491
0.27726277037038444
-0.3110045714531064
0.18882853835805652
-0.34114563549998106
-0.2619038710861542
-0.22992236608923455
0.12465511402195835
-0.5115995108955249
0.3632684480268341
0.3994599738416729
-0.09856214028332955
0.16456453546598335
-0.17852650345803134
-0.26119333945353795
0.036488703181666915
-0.29894045476573816
0.4094186399448083
0.3481184041709227
-0.2948381884598477
0.4261423369847615
-0.019252997623670297
-0.5065689220917475
0.2006338672960664
0.2508849103914635
-0.21541179984805736
-0.028512763327176987
-0.4122583007510016
-0.1841529776057705
0.13338068034968398
0.17451917586459376
0.06633438403296885
-0.17761458619521828
0.27266927950343417
-0.2765155508860195
-0.30267719023816186
-0.01219378544929007
0.1630951338431267
0.3851283804045122
0.25558142910985693
-0.05286878548927013
0.11265561821724077
-0.016953664427482744
-0.3021486563425436
-0.23732666369002012
-0.1525414025372963
0.017138492519684488
0.3833358571444796
0.2491107920966414
0.529661047462136
0.41190389824865453
-0.12838516635811534
0.17341249994133054
-0.5028804551176675
-0.4214136098683942
0.38605700623398803
0.374624453691338
0.22894868268915364
0.38473844161406784
-0.04245028842289166
0.37043678238338895
-0.3430006259225019
0.17772671772647303
-0.3391010292057448
-0.4739319026119363
0.06356197257330057
-0.00976026493392749
0.02313654358105026
-0.2563008051228447
-0.027985410780708757
-0.2392973185912309
-0.23707982897840596
0.09956836005184852
-0.3400123382810296
-0.2579812349556968
-0.46272522680976236
0.347475852242987
0.38528736112605205
-0.11887026422283002
0.13484228078517319
-0.4090810526885472
0.307551252444579
0.30636878223857156
-0.010735324003176451
0.21557397542894882
0.4785273292007985
0.09413621962483626
-0.11304256916397142
0.18172379928529742
0.3713194804537837
-0.0473065682460527
-0.255179572833201
-0.22991627768702202
-0.15607811247639514
0.0028123437850504575
-0.28985951700693785
0.06964704844985749
-0.4496943154702905
-0.36000476728958325
0.038908687600939934
0.050890208632199375
0.3498891672004649
-0.23616519766084224
-0.15276486120597924
-0.26144731219487144
-0.5440923112920938
-0.13418297972742768
-0.13311307796598607
0.4345791067039322
-0.42240362381077745
-0.06496849964910326
0.4333220573179072
-0.2606981846246825
0.4113018154373947
0.20931397126285084
0.2697084319220916
0.04025296739556125
0.26444597471784453
-0.07131519295504507
0.4035022548814127
0.11797323750616158
0.18489582838112062
-0.36801039747433123
0.25505350145547173
-0.3300436575870081
0.27554502952560367
-0.4220105531404333
-0.27688673688373955
-0.30558294576494277
0.057437654271431056
0.3515385370951041
-0.2661763788873722
0.4577138921740154
0.2562269730007561
-0.18549154097733545
-0.4061241361959791
-0.30195201065360155
-0.31786828624467744
0.3107017487779543
0.4923558124019711
-0.06342568139335289
-0.35839516881521255
-0.010338751639301747
0.4492762312310868
0.2974950430722377
-0.2661906656590861
0.21940871406447202
-0.15055748208848296
0.21332905997989318
-0.38835082775747776
0.4211865502622842
-0.27204078191443165
-0.24276796228700473
-0.4297160070241056
0.08358366781361777
-0.2952644029129996
-0.1542770406698589
-0.31194902370278355
-0.33685941383765383
-0.09521577825467648
-0.021236568752466975
0.10257450046073194
-0.0244478673824939
-0.044943880887912645
-0.2532801913212391
0.2690504281805706
0.31096335149222676
0.3533121147368229
0.5187192287686049
0.16828987735735274
0.3702107468773167
0.27912878091108506
-0.21049635552588059
-0.15778366383433967
0.4216759715585697
0.24855779884527415
0.1346763672082091
0.4690945568128917
-0.4459536705961346
-0.38523578367438577
0.21743394377620553
-0.10952588413105058
-0.2860617400191431
0.10837542952414557
0.11334805356319871
0.4672814969400054
0.12741563534046757
0.2987035297947219
0.22367425065320473
-0.05649437128872761
0.09406084276880149
-0.31650201685822515
-0.3205418309986819
0.5788892722974107
0.4974697769198121
-0.2798860825564358
0.318815615397685
-0.18413155855597185
0.09548659062552686
-0.10345020734539762
-0.3085562926667792
-0.38426930807289694
-0.2338126565381011
-0.5710160594951947
-0.5153831708936768
-0.2808472829190209
0.15728385828520733
0.045991620303218066
-0.46614974775971507
-0.32441552966356113
-0.2556869176451683
0.12916250049777328
-0.2557973133402182
0.36251626865335856
-0.21464229777848007
0.12313981472850591
-0.14659119047073882
-0.028021041087843562
-0.1608488618445108
-0.3085528215161001
0.5663123544069649
0.13347034965985474
-0.0530894151081468
0.13240067338086203
-0.5776125639575133
0.049096596176546915
0.15125954561224242
-0.060312218305998005
-0.5464998198064859
-0.4463714768174368
-0.3446821612452532
0.5397006471096001
-0.5337489166909479
-0.4442489507241665
-0.43668612265630036
-0.20950926587009724
0.3813126998746428
0.4780887359947146
-0.19975073599163679
-0.23425228603168816
0.4276366469689548
-0.16483927857377761
-0.10345965743171827
-0.4413286354689279
0.5050692982836608
-0.16489680194968695
-0.2876619907396348
0.37016324492016556
0.3787192256588719
-0.14149651956171025
0.36350924036633253
-0.29649644958190596
0.19751768309300707
0.22276462156241042
0.2493227022281526
0.05526739321460658
-0.360092537756261
0.1501395281518093
0.14463847027980958
0.22970275288629358
-0.09249454388765745
-0.17266728456357727
0.4503658435269801
0.20167029359936647
-0.4479185704707337
-0.09282016254365694
0.21667715076294125
