1
40
6
0.20028092505267295
0.42287884049792
-0.6448783401619999
-0.09976509269576668
0.08463740648553152
-0.12563506705290975
-0.18619035800736422
0.3261976803056674
0.3290306095197986
-0.2614347771520412
0.23140099699216482
-0.20427368673111468
0.1981993908644807
0.48723883487696834
0.10205736657778179
-0.22544644231594746
0.12685157770368144
0.05188399706658746
0.4161490824856399
0.3343398777610766
0.3147829943200436
-0.2637308018992988
0.012018238915280602
0.10054384929366282
0.49677784255746105
0.007053980666629163
0.09625681446306812
0.08639183024332033
-0.2926476209794148
-0.24644049852343744
-0.11098357026299968
-0.012676858953095406
-0.3629326337438855
0.1417193755882605
-0.005225773695840248
0.047006935493820956
-0.42716310856418316
-0.4999028895414401
0.542427924211093
0.2795389774772105
-0.7873720856281876
-0.258791284690831
-0.18405947875480083
-0.2408460879538993
-0.3237131381917198
0.33651970512507595
0.32454689154290656
-0.17758853534863522
0.2903087112639065
0.12737808413872756
0.3440135894691529
-0.4197259678026168
-0.008237988654705602
0.21098915643714364
-0.3249913346913134
-0.22539070337393002
-0.1522679038100205
0.33144340853015575
-0.004320898498146481
0.471657386697021
0.1979302668192118
0.482587517907392
-0.3153283891024106
-0.3771274564677296
0.037742675043441344
0.3193537137612206
-0.0322531669681807
-0.06902654877194454
0.06622494617803226
0.33271338183940774
0.4437862656005257
0.003978485467667937
-0.04042454293906651
-0.3790371717270571
-0.15345118070929403
0.32327497220236084
0.30632892181807203
0.040726004382468685
0.48827191731016745
0.49548199522479863
-0.195937874268435
0.29274079377144
-0.37141229737408726
0.3987585474883585
-0.11725960145904069
-0.3814056711153878
0.03934144867151631
-0.44159869325073364
0.023743823041589746
0.07488497170597033
0.4513478351330155
-0.031659724565661254
0.06792921644438935
0.46871564919372605
-0.1112405793272057
0.14678583021673966
-0.35698442131938984
0.362878223634998
0.22109423380091286
0.11077478015270525
0.242224066323973
0.49171982423576666
0.08476112466809849
0.17688407735250464
0.06013434677807545
0.17745270068558694
0.47919892963206867
0.2297304159046263
0.25181477013490067
0.12165759505678263
0.20425761695111072
0.5175776470848238
0.4961067534287157
-0.4467225396286765
-0.02392270354396823
0.3092278577188813
0.3182567397154221
0.024397900652321655
0.161828613262382
0.28271613766783726
-0.3188081893364704
-0.14952340422452376
-0.005848168545833612
-0.28521327499213694
-0.3396322789847882
-0.4173832435142329
0.061339846896329556
0.22102859046005024
-0.0195097582242131
-0.040132582936661845
-0.3176176966313759
0.1317491365170798
-0.038888031079310686
-0.15258410499040592
0.18708649738562688
-0.33317466484486047
0.28115646231125613
-0.44415650812391266
-0.38687114151476054
-0.14251745020916534
0.23339456722219512
0.1600385534967286
-0.2824108812010403
-0.011751871950202318
-0.34497082471303203
0.01452475126500201
0.18923341135955613
-0.23254419000179963
-0.49627163070334507
0.26873102376304236
0.4003648526224422
-0.12554993805499984
0.19297262434766235
-0.06687716895336109
0.28112023478001247
-0.28649731238265147
-0.4970677928019585
0.3469511058042948
-0.3711282913137909
-0.253039129937364
0.30031991817998527
0.49473187008158753
-0.38684138019935865
0.2672902187800185
-0.3267787784979419
0.042407158596348915
0.1243250104869682
-0.4214581785129943
-0.40595195150446506
-0.3693897851453373
-0.359060775610378
0.0167109518279617
-0.002100343211902032
-0.21182495473930793
0.24793186170220904
0.38099125974147136
0.4364660536046993
-0.4060260115832369
-0.4821085863932063
0.04855371674071155
-0.3839858204226921
0.15559987504782527
0.3745261076387348
0.23914947870430311
-0.11512027236072953
0.41604892433335966
-0.1401244303020788
0.0710752464854725
-0.2926341913779454
-0.45522363487154405
-0.17620862918389565
0.47071962618736585
-0.36509146065738374
-0.3010680145234925
-0.21267334324697224
-0.24043292269996613
-0.3745176520884964
-0.39015239591559553
-0.3169623737103987
0.02020646703642389
0.06746256071675917
-0.1836096299506054
-0.37416017763156845
-0.26911897277375596
0.17911397472828963
0.10045889631021282
-0.29965920760952147
-0.3961886432353489
-0.3467631757913039
0.05490459539582466
0.10929539880530308
0.13315295593698612
-0.1939961939108925
-0.3490011319374295
-0.0210819116409433
-0.49651364668708525
0.3799995482428088
0.1066423941102433
-0.029638709545064257
0.33862674457271025
-0.07357172228058445
0.0033469979696641025
-0.15450815555588196
-0.1413993110080703
0.2988352182941689
0.398657488321634
0.1832086295352985
-0.22861531488480577
-0.04393145540844041
0.07180835470979839
-0.1591606634263372
-0.2962654865992918
-0.024683398269651782
0.29653396754692835
0.23460676690724214
-0.16001203360713775
0.31874194984439114
0.059494071629482205
0.23077910853277128
0.44341576132450883
-0.08124051302935274
0.1256762047634524
-0.29212962962449684
0.04837563952878437
-0.16217890697603551
0.2560378438906303
0.3470802146913728
-0.33808772909641727
-0.1787907068202243
0.2184203874244674
-0.18790740203742007
-0.23272844044999222
0.07591165937479512
-0.13054759575948965
-0.12942058600014586
-0.07914004006794087
0.06942728043395875
0.5108848822486467
-0.40871425397346683
0.10077375096519381
0.06770040333419744
-0.35552868785119873
-0.02770864051308021
0.11395344914483205
-0.38052680701318164
0.47796578087650815
-0.25512468341396455
0.027770112749438736
-0.1646423022348535
0.24473869603715476
-0.2793909482417954
0.4197334865959879
-0.41418723815916114
0.03984971240935899
0.49377886791522463
-0.29501822128474703
0.18678410597024342
0.33916105643527295
0.11521688792933557
-0.23059393220664823
-0.09233171787589409
0.31480165910445074
0.35767357215660295
-0.467015575033231
-0.052543090982921585
-0.2592705442573309
-0.14526064410250766
-0.0391535561450301
0.2597745816316088
-0.2465405542798622
-0.03566731131445771
0.20191201015992716
0.29676875144361475
-0.03653998009989854
0.025430609070593937
0.22698945338969437
-0.059142115102722055
0.34013961650244345
0.4302007468197761
0.06674282282283894
-0.016877847359047668
0.07385182268278714
0.07053343077887377
0.04524536468221199
-0.021634298623904452
-0.1565805648298353
0.5417350406381812
-0.2572037013395731
-0.04107926337282163
0.2065255119183007
0.11177821706208674
-0.4147618423876393
-0.2289136701481405
-0.5968388117266946
-0.35381988125635316
-0.0535628636118327
0.23941441073371064
0.4724053424280171
-0.1949668489833458
0.3017314922290703
0.11383860830622296
