1
40
6
0.2950463462222489
-0.24911255003093755
0.2983462800454423
-0.2545359629365142
-0.28378140273608476
-0.3882769717165704
0.4480820713337196
0.4001432655769499
-0.07576228780941797
-0.18913833778975414
-0.5006700920356965
0.16003253704884607
-0.3517654460219005
-0.016756797343082726
-0.44496178688444726
0.384335152085352
0.6219712167918704
-0.06923067647467462
-0.4796130427017656
-0.21726479273837862
0.5820182790080779
0.7220176622166125
-0.1373366290323552
-0.6715310526075712
-0.3089929322998629
0.17187083479977439
0.23960264602234524
0.47864086998229616
-0.3061175745694594
-0.7480299122458134
0.37837882407509293
-0.5119333162394787
-0.08842572746513466
-0.34882698744338786
0.4435954789316302
0.06353002899762773
0.05388242960928111
-0.4090281481140133
0.6208264543677999
0.6090225066227868
-0.9324910339434495
-0.18836546081993272
-0.0788190547732411
0.14340422336596664
0.19968507444742065
-0.04836787023316301
0.5351308702474783
0.256062760099978
0.3453499130098057
0.44616240716103667
0.08626289910029072
0.23374806027840125
-0.23831362448903867
0.18774797693994927
-0.3243986358365447
0.23406549632878748
-0.10063912449216253
0.22807663638820846
0.010282231175369262
-0.015871107779363472
0.009254942200033848
-0.35622764055709316
-0.41008535463969725
-0.16664476385347898
-0.12293938745353589
-0.3269389619662502
0.39649938385568023
0.4699496438304861
0.1785260593398925
0.3855342765840184
-0.31275346429195133
0.1695451044067882
-0.10130583900554595
-0.3184598919828055
0.2743071936923649
-0.03274815782006042
-0.19357921427682726
-0.20616061023211932
0.3027247114055197
-0.20034569366275426
0.1596609128702902
0.0971130836921839
0.0733461190924471
-0.3999080593070606
-0.3464216601774941
-0.10939923238602868
0.0700500613403133
0.32505449088644783
0.3349679342196925
-0.10309334033789035
0.35713644663543404
-0.31513749567615157
0.19161057878956683
0.22267347297774004
0.4147338490617381
-0.34230714126641226
0.06523966751534867
0.3570018669123128
-0.18099143039556528
0.03844732047969315
0.16898694233220618
0.3825258902131754
-0.007111282478847551
0.13340518976790566
0.3780790548783607
-0.3316394812713064
0.3867819184276836
-0.2794331017098077
0.28762709329339436
-0.2529684705932536
-0.3224791664605401
-0.2748478549410499
0.1151886731831586
-0.424532069869835
-0.00973093009539745
-0.14626108263810828
-0.3674596304040971
0.4742228887592695
-0.30855090669638546
0.27799649404935095
0.043863272684950216
-0.2126557030989174
0.43139920515354
0.09344750400057208
-0.32973160016340997
-0.49214491057036963
0.4553009643100642
0.1756518872973214
-0.013168674904657233
0.19431374205780577
-0.4434612376154956
0.0864974483616824
-0.2740468107096728
0.34719969676066686
-0.11467819222649159
0.06623540608142213
0.1947092824771843
0.37808721252176064
0.1846299128917372
0.21147547259059685
0.06513586218703481
-0.38285370287406345
-0.19525664222171624
-0.4634960874827018
0.13657000774921407
0.1201989452213938
-0.45073262681163095
-0.46063200994649944
-0.3760732127722364
0.28736180309251497
-0.11269754828809056
0.03995359250456198
-0.6007226929293965
0.09010269089797333
-0.006516397230410396
0.4824061282917011
0.35091046339433624
-0.2537773951160281
-0.09746193066891942
-0.4597425559317699
0.008281050757181895
-0.17598822333728492
0.06596541117339026
-0.4077798317601618
-0.2531013810029949
0.30798147145130217
-0.14163608506743047
0.1627225238977464
-0.24743224704489636
0.2703213234419628
-0.11079502356141509
0.21411515000827352
0.14080561384337656
0.22431709845565606
0.2698453540460985
-0.13012535211513557
0.3285998125682804
0.3778099262870891
0.41472427046419563
-0.41639119465127095
0.36384488899041445
0.4603449891090115
0.25314348003071235
-0.17531283843938442
0.05104204524874512
-0.17048568227148564
0.22720944510369917
-0.4723164035692396
-0.10841948541027809
-0.24096446112077857
-0.040400660373850504
-0.08189290498513684
0.1150960317853888
-0.030090660853467146
-0.6364153215701516
-0.21600087215512634
-0.45232399717450006
0.10247586700198381
-0.473966506178107
-0.34455431662419017
0.38558795322472583
0.1653044532531687
-0.14582135767873602
0.03877626436134683
-0.3920555146509104
0.1884699205133383
0.20105186133393269
0.27810070603173326
0.6602130640836833
0.25931109751515435
0.16151427777910785
0.03715599663198006
-0.1443175130871908
0.3190833275127124
-0.3729177228710055
-0.15119328003727128
-0.4343926052889685
-0.32934658208743717
-0.09726121739836603
0.38216544407945413
0.13009353944183832
0.040870405852886
-0.4194777313289906
-0.32696859663845573
-0.0949536408977093
-0.00679810939446439
-0.4385526924774195
-0.4317141171443118
-0.3652180694339684
-0.030490195912832124
0.4084670625474352
0.2476334111928896
0.28581432977095567
-0.3191720458557727
0.39762890479019364
-0.2800998653101997
-0.659442046251937
-0.15562626317473638
-0.3975632652168457
0.06422305456421412
0.4561849703797811
0.5064973350239323
-0.15335133417508617
-0.24767197627213075
-0.11342889402756651
-0.41371299150335267
0.23126923735594082
0.14948801842402135
0.30865063184707164
-0.354173896785404
0.6815844945373095
-0.3635198264840757
-0.001722122895886724
0.3095062918232361
0.24865823798689846
-0.2782240519865225
0.04474137436929536
-0.06928871367733887
-0.06509079592255225
-0.21132178486160677
-0.15768587050761362
0.2308591946489901
-0.28376267294027546
0.3645223347484035
0.31437891479406616
-0.07964113336949967
0.3436755895184233
0.4721295475338283
0.0644320212003043
0.2832164826576555
0.2222257241179933
-0.1254272907990683
0.20863613002392914
-0.2546539388912074
-0.2681879378253762
-0.22101746952046247
-0.07246070319381531
-0.008119475227551956
0.3911826514595826
0.4441138836137841
-0.14308973535166009
-0.3469368272039985
0.13282354360097715
0.15249008958187837
0.10626391503841914
-0.21274838047417366
-0.13537275650931907
0.43241417966775414
-0.0728727273713994
0.4292606277015576
0.41727428461662686
0.48313905356019893
-0.14852530132838088
0.35394855656076574
0.2709973804110601
0.0813204529153776
0.24507507013504257
0.25058064021422705
-0.22055709936106901
0.18965138207523333
0.44130828323104543
0.45485176316940257
-0.031108821975275813
0.06365507196422007
-0.08619588662529251
-0.1730823474731041
0.3222566317964375
0.07480635765983389
-0.371507535263414
0.08513013153800568
-0.31286999351825723
-0.47337728905803167
-0.20518735248673337
-0.5553973136133654
-0.09642335428708486
-0.04413063194357018
-0.3438399817771632
-0.3177321395286163
0.38865352585352814
0.0631209701171239
-0.45855829451338825
